solver_type L2R_LR
nr_class 2
label 1 -1
nr_feature 5632
bias 1
w
0.01054210499257078 
0.001872377389578051 
-0.01558554551915883 
-0.003582411243752696 
0.008367652336849937 
0.003207982261274326 
0.02197861145454538 
0.01052539342840185 
-0.04758959991662508 
-0.01256759257191728 
-0.01361340688520165 
-0.0172110856083824 
-0.0418829834364968 
-0.01325564320511584 
0.01514971458152691 
0.008092671650968511 
0.0212090350688146 
0.01005743985434503 
-0.003045738657345759 
0.001648069028499517 
0.01406980506564689 
0.02583712450773025 
0.006337071954123803 
0.008317173596476692 
-0.002837322105636416 
-0.009248578874735765 
-0.004611375636736343 
-0.03350578080684939 
-0.08851106961579001 
-0.01311573261481337 
-0.0003174152975733041 
0.01433682977297377 
-0.0005219718310877652 
0.03048436683878995 
0.02043514208898608 
0.02482939665765829 
0.05425419641555951 
0.04870431149500765 
0.02584987969867075 
-0.0004619750201875197 
-0.09784198583957314 
-0.002586748867878937 
0.04635635929384482 
-0.008800852422230937 
-0.05233597635487727 
-0.005886864508098739 
0.01737180721677706 
-0.06654853336078734 
0.005072893283982958 
0.0003495055279702157 
0.01606749614744361 
0.0245327565340067 
0.03762532832068575 
0.02815398352755428 
-0.0002139386100932688 
0.006682756267685601 
-0.1113192270909025 
-0.03937895619752807 
0.0283920308775053 
0.0263700500235586 
-0.0430923288202751 
-0.01161077211758515 
-0.0129458989971412 
-0.0562171140304621 
0.002551998744190437 
0.01344661175592577 
0.0309305935825237 
0.02984720336245516 
0.02567113113491859 
0.004835881081688069 
-0.00900665356066108 
-0.003808743442140651 
-0.04914587425414051 
0.02790281526744566 
0.07048277391143606 
0.004749995387787909 
-0.08624123581255638 
-0.03656908762865498 
-0.0159508662292188 
-0.03195467397354321 
0.02836366598121718 
0.04535235146210281 
0.01592038243023863 
0.007208492005390964 
0.0002780045851923295 
-0.01682630971565554 
-0.0408419020250529 
-0.01342443088589058 
-0.004485394374153089 
0.08296726013048439 
0.02641550910496373 
-0.03611341688491634 
-0.03842675839898611 
-0.04554477238590585 
-0.06445278704221308 
-0.06078344397520535 
-0.006910846597950809 
0.05027244620104199 
0.05157178342534526 
0.03820906934309978 
0.02393348962546625 
-0.03379116058914292 
-0.06339584396876251 
-0.04231014268281229 
-0.08720615468848213 
0.09169642520809952 
0.1114314876322568 
0.03079751690573117 
-0.02871070145193666 
-0.05330509914684983 
-0.07792805341952667 
-0.09191506885268125 
0.001056544466448895 
0.03594040934754174 
0.01603171557368406 
0.02638589534520866 
0.04228081302701288 
0.01224630304449894 
-0.01736762217641065 
-0.01210554578754411 
-0.003995496129819801 
0.03118355653522163 
0.01019992318108616 
-0.05274930802643857 
-0.07434963036844207 
-0.04767063076331955 
-0.002448524381010448 
0.009092077967191761 
-0.06956674539627486 
-0.02331871944221647 
0.02588278623523951 
0.04081376988657298 
0.04900938365100736 
0.04572893049775526 
0.002065875301217455 
-0.02114715109252447 
-0.04947312234286358 
-0.02343364072621634 
0.02381310921186024 
-0.001561243536093524 
-0.04287760934063995 
0.003808838814363228 
0.03770832251499489 
0.01989483709589544 
-0.09954424069170045 
-0.05681646908067185 
-0.01981113739893195 
0.02060801772203159 
0.04989521359270337 
0.04841680477719342 
0.02777577864847614 
-0.007793170207260699 
-0.01388399051576139 
-0.01391518631903734 
-0.03543759011459521 
-0.0399001446808821 
-0.08596913365082394 
-0.007890405511562018 
0.06201910396901261 
0.1055163770262628 
-0.1037313344342617 
-0.04377955295029112 
-0.02235388230714417 
-0.002343454485194036 
0.04155072375514207 
0.04603140258493897 
0.02872044864954381 
-0.02580324692706688 
-0.03261451042091971 
0.0231189963641009 
-0.07048276635541156 
-0.06483669695795219 
-0.05690715880223478 
0.01846452736057486 
0.1103612812921491 
0.08821910509816307 
-0.04099331882139676 
0.02798983223627831 
-0.01574676154586879 
-0.03881577749444576 
-0.0122221132777764 
-0.00582912267547127 
-0.01172230642330327 
-0.0206396172140643 
0.09784491622903836 
0.2121652843641316 
-0.0251581741066572 
-0.09244023487901869 
-0.1265135128257078 
-0.0822392495878768 
-0.02715805600884284 
-0.001785210437125906 
-0.0522752813303215 
-0.03062515293827314 
-0.002331606732599151 
0.01779665285025991 
0.06007493463025567 
0.03157340610589236 
-0.03616594760419839 
-0.006738447208292929 
-0.1332217785168605 
-0.03107408548002098 
0.04089610834479197 
0.03088538593285705 
0.1252874753264933 
0.02361125187802249 
-0.03105975595682982 
0.06110706000574237 
-0.07663629682239985 
-0.02946625785816338 
0.114102263482003 
0.1640743391237397 
0.00363381894089251 
-0.0656694569523833 
-0.03979493336860229 
-0.06449979024924089 
-0.1637682945283147 
-0.07437244936432594 
0.1056818852410237 
0.1337108564783863 
-0.04567163772221111 
-0.1155683529017716 
-0.03078856001186273 
-0.1174027942199458 
-0.06043685608605829 
-0.007244983381708888 
0.1205870908093287 
0.1588215743753224 
0.04201672645821434 
-0.0490655152319468 
-0.04956505168821122 
-0.05259811266446204 
-0.1648603060245119 
-0.05173179323964506 
0.1037333926799705 
0.09138696977098341 
-0.0357415111867497 
-0.1068801682134967 
-0.07810429465966746 
-0.1571891450927138 
-0.03648031871852261 
-0.03239412316904202 
-0.006517901045469896 
0.04606255041042592 
0.06660489752412654 
0.03365986850864899 
0.0004184897479861203 
-0.04924508153775584 
-0.1318317773446111 
-0.0591095388908606 
-0.0002192679171070158 
0.07562857172464411 
0.1180534674848428 
0.07025705296037746 
0.0001798612371301054 
-0.1348488011140451 
-0.04548928485935589 
-0.0311411317263257 
-0.0117318655771317 
-0.003473049182955927 
-0.003313525062355406 
0.02718211618786146 
-0.002901799856407397 
-0.05646276315655441 
-0.04001876725424333 
-0.06917283527310923 
-0.01874063746145141 
0.04068118011566427 
0.06051544756159799 
0.09636475923783615 
-0.0303493806350249 
-0.10015680229838 
-0.05407228828637507 
-0.05434311719610168 
-0.0228923321234536 
0.01672793349669819 
0.04649737766668613 
0.07354082645261445 
0.016188786064982 
-0.03160764066418386 
-0.06959397340723442 
-0.09286484913915448 
-0.0827399401028914 
-0.01887002029338846 
0.03297322036215448 
0.08998145647595483 
-0.005739126902593136 
-0.08285902479468561 
-0.002643581576139213 
-0.007218205336988614 
-0.0008912669020003515 
-0.02950181291627296 
-0.04581912735502217 
0.02045425617832816 
0.04925086130884895 
0.01665153125894442 
0.01000137702136882 
-0.01771518295558261 
-0.009487144832227673 
-0.01937275235925836 
-0.04788369015721132 
0.06063104801558936 
0.08578402972704226 
0.01446108675759427 
-0.01851623955151236 
-0.02473169768613072 
-0.01733326517169498 
-0.006068420557092263 
0.01595001973978301 
0.02060211861987246 
-0.01372577955138748 
-0.0264250692133845 
-0.0002897227330386915 
-0.008576353116923664 
-0.06446729691214705 
-0.02285734272396974 
0.05064251792934668 
0.0694339067667977 
-0.02586963678134942 
-0.02314464104631192 
-0.02789510338429843 
-0.03157378782980036 
-0.02180637545669115 
0.02106059536629333 
0.04366548742632354 
0.009756485802336245 
-0.01874049769939983 
-0.02160623738706021 
0.004155859523051919 
-0.0215911874650035 
-0.05520260697730271 
0.001442469607904285 
0.05446820656732624 
0.007388246867901518 
-0.0871415216931867 
-0.02125758245407753 
0.01787101818434547 
-0.000459570454625795 
0.001676674600291677 
-0.01725002037323645 
-0.03353897755666402 
-0.01210993398379042 
0.01090663589117779 
0.02636038349567553 
0.03890186018243481 
0.00772488920679869 
0.01461513486295442 
0.007935201089804224 
-0.05059278019976866 
-0.03979357798283032 
0.02230832826799317 
0.05888835904945113 
-0.04684116958546297 
-0.003515061021734283 
0.01978836695583556 
0.03295875601587505 
0.0312109233698203 
0.02647025413623181 
0.004731219349926094 
-0.03254403667131084 
-0.05566266059592914 
-0.01497883521879279 
0.02030688412115055 
0.02299385608036091 
0.003486507847624066 
0.00419995854091451 
0.0101896734864377 
-0.01571788383950505 
-0.05160857214444435 
-0.01547016469694922 
0.02232821752013478 
0.0583878937431322 
0.07278317094574935 
0.04962512363189262 
0.01681424578490899 
-0.03362879960528896 
-0.05460365546672659 
-0.006727919515066093 
-0.01073809750828875 
0.004836518557707621 
-0.00106517752186388 
-0.0108940516969926 
-0.004633701287621427 
-0.03674819751558378 
-0.02825602911509726 
-0.01711358769506137 
-0.01860106328295595 
-0.007526651307465626 
0.0178602289347301 
0.02276818952704936 
0.001943293283484974 
-0.02493849799259584 
-0.05702277740533522 
-0.0325988385379047 
-0.01826740731961968 
-0.00286016660172851 
0.03773729312331326 
0.01554914843986145 
-0.02191691223711138 
-0.03490454507128363 
-0.006285400697626013 
-0.01068049489722882 
-0.01524052129887769 
0.0005976361849703157 
0.007669049691534276 
0.0111940177456194 
0.01326856827591585 
0.0255957383451925 
-0.02756497774302644 
-0.02525185375866802 
-0.01609810491092545 
-0.01195570530985721 
-0.04288243877835142 
-0.02312452836592057 
0.02574906364006584 
-0.007039720606021638 
-0.02339361323310747 
-0.03405794053532468 
-0.003543739566025979 
0.006438999009727058 
0.02101621580819498 
0.02439711826194075 
0.01396413073643628 
0.01083961678171863 
-0.004735946448233999 
-0.02829202353659099 
0.02257006459752448 
-0.02560519916243344 
-0.08187143877033952 
-0.02877001140096705 
-0.00646538979347874 
0.01082847374391392 
-0.006570496113879516 
-0.02665313116633573 
-0.01582026110824158 
0.01277013774435244 
0.03554958051234562 
0.02597875430838844 
0.01865000895769871 
0.01099420737751018 
0.002039065603699096 
0.006266727927062375 
0.0378814272197873 
-0.0254563284173714 
-0.1016746179146797 
-0.05813013768544443 
0.01707788205973455 
0.007319244338310747 
-0.01800117736439786 
-0.009535024630916428 
0.02045257769644109 
0.0211550510762886 
0.01473793478900586 
-0.002272273276730708 
-0.005348503990625603 
-0.00499126231986182 
-0.06931426142700042 
-0.01521621314869878 
0.04844949421849613 
0.01291088456204441 
-0.04670344669962469 
-0.03486543450229253 
-0.01325761066681972 
-0.02044055318169946 
0.00293976676246283 
0.01440960046734986 
0.01275162319289926 
-0.005104523615083801 
-0.02476512199965257 
-0.009413719827881114 
0.009867491212252014 
-0.001343071657431284 
-0.04201161644888202 
0.02925984704797447 
0.07915585234370648 
0.01074418619836731 
-0.0652460935204274 
-0.05626103139712536 
0.004950928735165343 
0.0004604053312942387 
-0.03743036300770158 
0.01633857769798226 
0.007512209906504167 
0.009632245108363838 
0.01677641781279408 
0.01035033519179585 
-0.01061390726126919 
-0.04579784295026131 
-0.1045791993598191 
0.01266831332916409 
0.01784917878208311 
0.03455967961803498 
0.03255702439166089 
0.02239862102451773 
-0.05309970473452358 
-0.04629864667253197 
-0.02454847651501192 
-0.01281458878044377 
0.0008106774921412851 
0.02825269434735755 
0.04927229910864837 
0.03180712309821525 
-0.02624464365005825 
-0.0646224715531681 
-0.05732840580917187 
-0.02447389168186679 
0.008319274466724565 
0.00450234644257973 
0.0125896670545952 
0.05166804366998121 
-0.05890669598054531 
-0.04900570532657205 
0.003640875413328938 
-0.01919924405095259 
-0.00533458991534233 
0.008570299507662433 
0.005326857166685118 
-0.011054973311322 
0.01576835002746011 
0.01859652267387111 
-0.00244789619115708 
-0.002748029925995938 
-0.03675982095078107 
-0.02178091185682616 
-0.03486803440578161 
-0.04419231629245846 
0.05385494109177103 
0.04949001608561034 
0.05143050062348483 
0.001007313853455453 
-0.04194223528490012 
-0.02018883769120385 
-0.02062947165177732 
-0.02925277296410617 
0.020873073871668 
0.06451577163189107 
0.0773993513578828 
-0.01465650043696241 
-0.09449270717608793 
-0.0882043842818467 
-0.181410489466603 
-0.08220692263230216 
0.0551958789368007 
0.1105324557195508 
0.03021861353955452 
0.006157318872941107 
-0.01386474363552588 
-0.02719727525096823 
-0.01270154050106672 
0.003349770099399222 
0.003333670959276606 
0.02572985022243811 
0.03596488570778704 
-0.01465733354582097 
-0.0302455300071467 
-0.1122827258641051 
-0.167913328139597 
-0.02035628117082019 
0.02695336091787598 
0.09972437230189644 
0.04962717797157126 
-0.004287953294986893 
-0.04668092088937536 
-0.05325992978293295 
-0.03911429191862744 
-0.01538931485473879 
0.0344598245042522 
0.07519205447249193 
0.02827900627344167 
-0.08784333680317212 
-0.06112850095173552 
-0.1775375086012138 
-0.2244244765581882 
-0.05272575800203887 
0.1066606250127822 
0.2103783393903436 
-0.00290331744574636 
-0.05413015761397234 
-0.1123413451030961 
-0.08876192650342035 
-0.03042550008483229 
0.02955947868158373 
0.03714065027021537 
0.009056610902486103 
0.0202489117218348 
-0.08839167971990142 
-0.1991714102203899 
-0.2237245879101263 
-0.1228183842701153 
0.05692396473802656 
0.1919017388117315 
0.1530534862345571 
0.02725552619521657 
0.02713060792159365 
-0.002226293383000541 
0.004911891929621384 
0.0181538579206793 
0.0118589390941402 
0.002597116787703636 
0.004667880547148056 
0.0237455170953115 
0.05319014580637584 
-0.04609011252473449 
-0.05936068324825437 
0.003977356060820575 
-0.03614930439109253 
-0.02064330134377506 
-0.0390689787690134 
-0.03075739683995142 
0.07190820996549618 
0.06032841514619095 
0.06132759389861651 
0.06358641292545207 
-0.03102232186728404 
-0.1085428652532888 
-0.1011972063571085 
-0.04919782088706517 
0.1314184008828972 
0.09464887325866583 
0.05708459125971165 
0.04126969666583117 
-0.1270738860498323 
-0.1994289265092675 
-0.1832478740122004 
-0.04689726446304348 
0.06052299942749321 
0.1285823705262368 
0.06998006557267412 
-0.0207930951395435 
-0.04964904631598653 
-0.06050770389415307 
-0.05990416617737981 
-0.09915732488421765 
0.1088417702048598 
0.1914639567383486 
0.06603064476065047 
-0.02672980192680524 
-0.1089775376210643 
-0.1318210223276906 
-0.1817290874609473 
-0.0009510882674939449 
-0.004675520510701683 
0.01960722936916436 
0.0410113488875305 
0.06162486110703262 
0.07324306173599557 
0.05462184054844934 
0.04289864505305381 
-0.0548545344425012 
-0.03911039117867907 
-0.04416828723486528 
-0.09301525515592293 
-0.1226005777620018 
-0.04763945140579799 
0.1273389114317801 
0.03326838252685901 
0.03046579980537055 
0.04678975203773488 
0.05050335639882025 
0.03695943799957771 
0.008775253316879198 
-0.03287026052887061 
-0.01711460206849911 
0.00861145934758303 
0.0005548203143155277 
0.03687395408364846 
0.02974013325254942 
0.04687731858212425 
0.005316528458107644 
-0.09044954493318505 
-0.07338667402919293 
-0.01906509523786211 
-0.01318604912258037 
0.01556712445282282 
0.01759187347876437 
0.02005999030250309 
0.04165243813474671 
0.004138746883609304 
-0.03639393841062322 
-0.02599025328457109 
-0.03224129276585959 
0.0003320989860100372 
0.004974618224492895 
0.01213964789918198 
0.0504620973494301 
-0.0129035660656445 
-0.08633125175204426 
-0.05919950699784435 
0.01603128382074461 
-0.007199515668689689 
-0.04124749833316045 
-0.05899525856729843 
-0.0595956083811896 
0.007985859948181883 
0.05642626265082712 
0.04995060474222445 
0.01997636151774712 
-0.004475200350277106 
-0.05973583280296935 
0.00572101368846621 
-0.03850957012372403 
0.01573871248628966 
0.09454259477908815 
0.05721047361512216 
0.01072902920203267 
-0.03282168351920432 
-0.07736045219843896 
-0.05436424175674621 
-0.008238246550751675 
0.03160805895936833 
0.05457757957154698 
0.04093838799008114 
-0.01688811699085816 
-0.04067697906863731 
-0.1490125842966769 
-0.04645529238653735 
0.07599797050381246 
0.0991200156265817 
0.09034266865916324 
0.05056874605470747 
-0.04164804262925075 
-0.03117792839619382 
0.004157353009533947 
0.06710051564897177 
0.06861635092679243 
0.02923951982355998 
-0.004199218000862397 
-0.02030752011787751 
-0.08131415935346216 
-0.05307051299203957 
-0.02604251861087958 
0.05568300125267736 
0.06534909917248381 
-0.02320185815611316 
-0.07705861776093557 
-0.07149014188912603 
0.03581497620252592 
0.0208844748763615 
0.009492692118892157 
-0.003935246992405353 
-0.01856507838235085 
-0.0114560384759723 
0.0328104160750601 
0.05702353747810184 
0.01415082645100485 
0.00594138861540754 
0.02031671524976554 
-0.009516402188919809 
-0.07581453604250284 
-0.05112050834380228 
0.02791384623729305 
0.050955982469678 
0.06293141448991621 
0.0540288336795267 
0.03408625772012838 
0.01369733653925639 
0.006613666738046099 
0.002671286269554942 
0.007210135457181259 
0.03179459939932212 
0.06196220327306512 
0.04435298305781751 
0.01018189861982594 
-0.04373709898995321 
-0.129737224224534 
-0.1055788895387989 
-0.009351800252894798 
0.04137944808613593 
-0.006871842181033929 
0.02647517119754663 
0.03150903859193862 
-0.008029602357521053 
0.002411713968846483 
0.02425635289096199 
0.006287267109873088 
-0.01223027645919919 
-0.01874703228721066 
0.04193435767035837 
0.02448963349824707 
-0.01616755475121975 
-0.0362394031217138 
0.001573917182010695 
0.0009304647542813318 
-0.02439726444577326 
-0.02784186228824629 
0.0005408549263261614 
0.03357853907406513 
0.02985685369020105 
3.790527965721957e-005 
-0.006393926778258579 
-0.02255122289575726 
-0.03623915174028706 
-0.06345868130480928 
-0.004291387310165073 
0.02825330572107483 
0.05955694132176984 
0.007033760962911977 
-0.0485243539786884 
-0.04431527480277055 
-0.05765370033293617 
-0.008460446316430507 
-0.001214677087034103 
0.01170240360955806 
-0.007146178512180513 
-0.006598617738382802 
0.01740081300704415 
-0.0118426955747079 
-0.04199011300433404 
-0.03756301614631391 
-0.00541226601007771 
-0.01049432152243635 
-0.01660855103279525 
-0.01771489154326882 
0.02504545770022981 
0.01385577586794753 
-0.03748867410911301 
0.01167461114504035 
0.01260902854958105 
-0.02386503969348006 
-0.02238859828411189 
0.007549997200094551 
0.02377678483661463 
0.02509375757001321 
0.02560572867145078 
-0.02845049466121517 
0.001473299286504789 
-0.05290774235481691 
-0.04607437111988837 
-0.06854574470320619 
-0.0195691817800724 
0.03665940557266335 
-0.01109160485997229 
0.01251892601523745 
0.01832861628272441 
-0.008620189458443024 
-0.0160316715734496 
-0.009000077262103274 
-0.01086451509641445 
0.0089065337819841 
0.01455519227439668 
-0.003753472646821792 
0.0169789112375414 
0.009103580321508769 
0.0108977669698321 
-0.04727204630125965 
-0.06763498527760344 
0.004043301385520995 
-0.01688553715550299 
0.009585749757056752 
0.02299399508615013 
0.02092901473295811 
0.0231155132165948 
0.02131850872704375 
0.007031979541556508 
-0.01339127472642914 
-0.009093513083868092 
-0.02202719539025552 
-0.0006066236671330109 
0.04854016204767967 
0.00638157226376001 
-0.04871338101776113 
-0.02937028785375261 
-0.02807877891024039 
-0.01379540405785218 
-0.008531194075664923 
-0.01407819392354953 
0.01328880265541962 
0.01182468896686601 
-0.005993737842588357 
-0.006658776000621067 
-0.006698713794814746 
-0.003791918763597036 
-0.05034885276631106 
0.001969068665734661 
0.03999959235329737 
0.02280793856666371 
-0.02421749895145375 
-0.02198065572365109 
-0.02979152792423653 
-0.02644118349227746 
-0.008162749412044288 
0.03084735497129599 
0.03085091563885962 
0.01208546555284089 
-0.009713303948887034 
-0.01946896540445317 
-0.0189023284011436 
-0.02549532507391902 
-0.03801865242818495 
0.07051732943710695 
0.04674010560030287 
0.006546282440821825 
-0.06971537434454919 
-0.07350337961746976 
-0.0486652894375213 
-0.03437255013991317 
0.00284865327011711 
0.02309510469564513 
0.04345457738001525 
0.02002184602016296 
-0.01025284398083443 
-0.0128381406049161 
-0.007480452008247742 
-0.01211572418598968 
0.02328704608280364 
0.02711013019730154 
0.04886355955859199 
0.05764436041909229 
-0.0951016770264484 
-0.1091668200020443 
-0.07636771162821548 
-0.02885442955178809 
-0.08832159821838242 
-0.07317740033899887 
-0.01458733517410392 
0.009727167439015064 
0.03287446992665959 
0.02537997550766563 
-0.02464702708990045 
-0.0606653403446268 
-0.05737277329440855 
0.002967763683418351 
0.06443857696452815 
0.05030659746272317 
-0.006002941205203306 
0.03446651919960978 
0.0033741675724123 
-0.04189873084169598 
-0.06053628925278035 
-0.04720190389485173 
-0.06378571110887865 
-0.04372688534714851 
0.001498417730248016 
0.01297061168048837 
0.0174518422649845 
-0.01220129173822412 
-0.1008622692877682 
-0.03606374294743358 
-0.02143792057388454 
-0.03423823508074313 
0.0261592569307597 
0.07495858921886965 
0.07401589164379427 
0.02874161911560882 
-0.004560898474713645 
0.008992513197193955 
0.01092120791432671 
-0.01466163285370646 
-0.0226541444551042 
0.03304243627365487 
0.05076239601239832 
0.0151876362800032 
-0.01569801610981994 
0.02160452321528679 
-0.001192629608698687 
-0.09228151994791557 
-0.1679024847623105 
-0.01242352792391841 
0.1046223615129398 
0.03478620035569188 
0.002661778786526159 
0.01936086314700229 
0.008678291164390523 
-0.01856441315844051 
-0.02153132506831504 
-0.02051854609517492 
-0.01731969711348468 
-0.007376760934398361 
0.06857297355377476 
0.09684093273352692 
0.03573771232254656 
-0.09978299006772809 
-0.1829993322981446 
-0.04046580948558542 
0.0546798230057501 
-0.04226526322072415 
0.03387354321092308 
0.01708963638603053 
-0.01895369820316113 
-0.05063588918123967 
-0.05715143577437975 
-0.04971813595108937 
-0.02130606580753646 
0.01513939664842941 
0.1232479594769484 
0.05241625986851053 
-0.03342814250558137 
-0.1113088006764906 
-0.1783244332459342 
-0.1051648730973255 
-0.01212038066584757 
0.07766079779447996 
0.0954358357087594 
-0.00624642405840025 
-0.05631446259303898 
-0.06780881826641709 
-0.05507721686748381 
-0.05084227672586342 
-0.006377155457811983 
0.10025243954879 
0.1432126300082148 
-0.03771171663390367 
-0.0940087721923816 
-0.168315261349501 
-0.15082697831061 
-0.1051636011887011 
-0.06795408896063819 
0.153596325086143 
0.1538645434035696 
0.09944446916925957 
-0.01369973498215028 
-0.05727628240610216 
-0.05552837907858667 
-0.07377238670007326 
-0.04739980502961079 
0.05837252144802558 
0.2042789220949555 
0.1505318377148462 
-0.04395146573830503 
-0.163243064007044 
-0.2188464409933071 
-0.2520534216458508 
-0.2019175270032389 
0.02584701372359026 
0.05196143605400334 
0.1159690635681666 
0.07898646992181264 
-0.01329371228047119 
-0.05191458525933077 
-0.009545258192222393 
-0.002517985592372059 
-0.003067903407366654 
0.08464902068553802 
0.2299560691491507 
0.1036556612199935 
-0.1506593524905772 
-0.196592573617534 
-0.09922311493862505 
-0.08695031568238204 
-0.08214133253895289 
0.01481497420390858 
0.004634039213124882 
0.003749023800894348 
0.01842859936608696 
0.03669276782995863 
0.07233551039154952 
0.07139367509615385 
0.0150858546152583 
-0.09681169062499032 
-0.04147656107473915 
0.02126117099625689 
-0.0696329036966752 
-0.111200623474273 
0.04641716346578594 
0.09624931809008391 
-0.005803930698554389 
0.03433097386989167 
0.04107963149823399 
0.04489742384846909 
0.03723311511693048 
0.01716720443980814 
0.04022907370743904 
0.0497764402128983 
0.03270425564331305 
-0.06927497348808295 
-0.006780039858592608 
0.02385767836828667 
0.002652845156874651 
-0.06535569189181682 
-0.06623911500908654 
-0.0574441671404848 
-0.005630230870435725 
0.002639838689357905 
0.03125554321746903 
0.07756864608507627 
0.07992360972227254 
-0.005010551594059337 
-0.06721651655113155 
-0.06259313763031821 
-0.03627389929011133 
-0.03418407421378669 
0.04580439097025312 
0.1391139852874077 
0.1495150382311071 
-0.00641643297539288 
-0.1265564343334299 
-0.1024124569117604 
-0.07143193572628423 
0.01979255867576145 
0.008326216372647816 
0.04303124374944626 
0.0791941238012292 
-0.03088104218451219 
-0.07988379473331812 
-0.02481768047106811 
0.01242641574742116 
0.0319818580574405 
0.08042775890658754 
0.1100675724023276 
0.1484556292190582 
-0.1096896395072802 
-0.2001103137497344 
-0.01134661192755045 
0.01552034614283877 
0.06181993153862871 
0.04145640121418685 
-0.003336256830208457 
-0.01256742511757657 
-0.002935943192668959 
0.03077164975970263 
0.03802738617979483 
0.05408331221650116 
0.0215228686318002 
0.05267328313961874 
-0.04807607462696256 
-0.04677311062326037 
-0.1023313059507767 
-0.1010503976832995 
0.04720271546828757 
0.0262274245962298 
-0.0265178905028441 
0.008435568540261007 
0.0622929258353791 
0.03172769198377941 
-0.02151495034660221 
-0.002995742018492301 
0.01498862303095988 
-0.001381481096174659 
-0.1299782054639728 
0.005331210869009045 
0.1166451281051311 
0.03942151895372116 
-0.07459472974394416 
-0.06004560739817334 
0.008485742122301288 
-0.05112825918270903 
0.07449434545038912 
0.08834962276494497 
0.06678638696234993 
0.01294254414499771 
-0.01488333886042616 
-0.01220580395982538 
0.02038988442181522 
0.04127060612225109 
-0.000203564068442093 
0.06210900239475295 
0.05335327310042509 
-0.05825123032215808 
-0.1447686176602697 
-0.1038338951729141 
0.01806699374793309 
0.006391063130462235 
0.05549622915628293 
0.06776602837049796 
0.05921486320578316 
0.03749046508117859 
-0.004040228543618078 
0.0009429191008413063 
0.03446711344503953 
0.03332608597710329 
0.008608522407345099 
0.05355479798399775 
0.02848013284045068 
-0.02764187103077802 
-0.144001715923349 
-0.121765370847122 
-0.003673645742364648 
-0.01747268787651391 
0.009992098713364733 
0.01662718080191638 
-0.006488128894686281 
0.009925241440496408 
0.01016728837947549 
0.007049700997347259 
0.01964463170043435 
0.01306105094678341 
-0.03381706616468738 
0.01980018484860913 
0.04715047260563496 
0.01520162350712895 
-0.0513442260098949 
-0.07042396373850669 
-0.02949017930482616 
-0.04267472730029833 
0.01482039835084019 
-0.001443467349150256 
-0.02192240250723971 
-0.000127814934191194 
-0.003467437060919633 
0.01248147192779023 
0.019286208917477 
0.02253010390304715 
-0.03532717192745127 
-0.03918120481661496 
-0.07812838674589955 
-0.03525836961940726 
-0.04412628267682069 
0.02058516680176117 
0.02636406760885525 
0.001861880693200603 
0.01073683909342962 
0.00863685348063562 
-1.381708006711278e-005 
-0.01369763727332977 
-0.0252083416721604 
-0.02288119491817043 
0.01897308155345252 
0.02405354090829568 
0.005939236061741892 
0.02786837977088726 
-0.03027708820675562 
-0.05090579292047806 
-0.07660874553521402 
-0.02493469863121751 
0.01942326112853308 
-0.004349473911359297 
0.01003104340151457 
0.03048983585307561 
0.01636587430614166 
0.002415300520803219 
-0.02215440591827332 
-0.02008769347266855 
0.01683112726441898 
0.02163655910106505 
-0.02470501961830621 
0.03344136578719592 
0.04056098771516927 
0.02124460148080896 
-0.05843756336283951 
-0.08879021515206613 
-0.0533584931222318 
-0.05517157976736345 
-0.002532210867538769 
-0.006781626317486071 
0.02129951060394945 
0.0306764996105752 
-0.00160562941260471 
-0.01922964274379635 
-0.02860093204599703 
-0.008863050157998403 
-0.02276972691812884 
-0.01886309120795919 
0.02798895516378284 
0.0356447221164338 
-0.02057343225200698 
-0.03823746794619415 
-0.03834248033565877 
-0.02016439586342347 
-0.01215747832654996 
-0.02427483293768523 
-0.01022250380793684 
0.009439181555747724 
0.00454088963353497 
0.007256761532772676 
0.008841493880432587 
0.00224513089220936 
-0.03959183140782453 
-0.01336048706606111 
0.002697133606099264 
0.02506421663425249 
-0.009197960460121536 
-0.003116269682818353 
0.007905327370412926 
-0.003552955668198226 
-0.04237768380420705 
-0.04599668467177418 
0.007646481390020028 
0.05484474924926883 
0.01901124863171451 
0.004495862360646065 
-0.0005950176755535023 
-0.03307130012930529 
-0.07732439204540592 
-0.03974110924182409 
0.01293511595465708 
0.08680449447296923 
0.00675404685106922 
0.01615467824133826 
0.01539710431427861 
-0.07296458712560044 
-0.01790133734557777 
-0.005098668576555783 
0.06056991448482343 
0.1335456740248476 
0.06135415806553694 
-0.03394521447075304 
-0.0663875894452137 
-0.04629470224872356 
-0.07680416386093199 
-0.05495347440498231 
0.06578157081436174 
0.1123547756201404 
-0.02594117319391612 
-0.1158914520542848 
-0.1270222213264165 
-0.1014300314934094 
0.04122202493171447 
-0.03395369347389727 
-0.03868300220161271 
0.07383606623352831 
0.03555926046333344 
-0.119772384333125 
-0.08897469283088348 
0.01190444529164729 
-0.04265815962219166 
-0.1178292175506597 
0.06772225541436112 
0.1936682380205476 
0.04862482050334836 
-0.1022342531530043 
-0.09099037046012032 
-0.01319165634933903 
-0.07766626415252989 
-0.08167947638436666 
-0.02287066464696228 
0.08955119729902257 
0.1260967748245987 
0.05608041421758871 
-0.08362866411691021 
-0.06891513824559377 
-0.2256305411320119 
-0.2386461074589567 
-0.1473813005551776 
0.1331916061504674 
0.2637351738362118 
0.1928780747809263 
-0.1639475943356191 
-0.2014752288748815 
0.01315538872902096 
0.02225441169354033 
0.0304413107577029 
0.04648895672080468 
0.04494952985959268 
0.02750157677818304 
0.01901031123741968 
0.007181492664488229 
0.04220814549516333 
0.06528985831046633 
0.02499979292335256 
-0.02348127123018668 
-0.08315476884691127 
-0.00959048166211045 
0.008108359454718795 
-0.03435516233960098 
-0.04814159138882666 
-0.03519129097320561 
-0.004151847753086445 
0.02803536364458866 
0.05676071319823366 
0.07754800504371817 
0.02427581465194227 
-0.04049091064112827 
-0.04245286365591772 
0.02713396164227188 
-0.01100758645612118 
-0.04158305577202631 
-0.08801456213621084 
0.03507977818608259 
0.07324479339118932 
-0.07961883209872196 
-0.04296218482117804 
-0.04727375059188408 
-0.02873449450878255 
0.02313479498703657 
0.0766592185760451 
0.06442086989419811 
0.01150326283468183 
-0.04874622123435839 
-0.1172722303531617 
-0.01009869786963438 
-0.01694787709971333 
-0.01709820175030074 
-0.07827232891375006 
0.04872932966624088 
0.1254331827627198 
-0.06741048957316441 
-0.04127137004672169 
-0.02534808365899846 
-0.01330971737634384 
-0.01469830719545856 
-0.001206507524646248 
0.01482518626579426 
-0.01335207512111979 
-0.03802133420916912 
-0.1334664085228685 
-0.01183281669656829 
-0.008407626886483402 
-0.02059801548632984 
0.006624897623909688 
0.07686517720056907 
0.05388247390548511 
-0.04932010871691837 
-0.02137208945126648 
0.007408736426221362 
2.83788901210787e-005 
-0.01136388230745633 
0.0001384738258393258 
-0.002357080314152534 
-0.02042079771912432 
-0.03187373266232509 
0.01846382002333011 
0.07363721249625994 
0.02985282536243686 
-0.01880229785009883 
-0.06435792327109448 
0.0002724457102164187 
-0.06687723930610134 
-0.0006957979260935722 
-0.05066423490273308 
-0.03335912066204377 
-0.02996174425504665 
-0.03182471983766046 
-0.02434286968852577 
0.02264721646679985 
0.04408061455883791 
-0.006987970949402957 
0.006926065687004189 
0.01613936042174077 
0.02593691801172061 
-0.1250005158886232 
-0.1213806959261665 
0.03557284488730469 
0.06545387443695361 
0.1511979369314877 
0.02259439212551603 
0.008725031038206045 
0.0133386428194877 
0.0264282253774549 
0.03516689140649952 
0.04138442941315338 
0.039406171864273 
0.03669194163029371 
0.01907949319939575 
-0.03375483837050898 
-0.02864094138147227 
-0.09955892038044116 
-0.13872075628417 
-0.06022303137215965 
0.08431012250125987 
0.08393310739308119 
0.0273199316615092 
-0.008805691436418749 
-0.02511571791979902 
-0.004627483415126773 
0.02453039326675766 
0.0435804547049348 
0.02950307030271787 
0.01766587503902182 
0.04129425730663409 
-0.04470632126277024 
-0.04827670507211965 
-0.0621473542603904 
-0.07704615527189952 
-0.01450130790436583 
0.03518515860363582 
0.01303623747250399 
0.04973679653392538 
0.05616771099030148 
0.02131501994651886 
-0.00494058649871902 
-0.04117736906702266 
-0.03363386393553088 
0.01433310317442015 
0.03940754065183264 
0.05229671844498945 
0.07843541529148755 
0.01977078395990407 
-0.0137707455221831 
-0.1365457724402479 
-0.140999467875633 
0.001471805392397551 
0.02099538561605401 
0.02388864804570722 
0.06650171028490674 
0.06860228284095395 
0.05716992759672464 
0.0005068373756460118 
-0.07368929812967193 
-0.078154045599727 
-0.03269117209418521 
0.08806042323982401 
0.1355652048836769 
0.1174698520773003 
0.05252647989827964 
-0.09200530895796054 
-0.2056532772970191 
-0.1368928867492224 
-0.0006482464294512481 
0.04387404701940396 
0.08420151536456569 
0.04573640211750817 
-0.01267297007246215 
-0.003292196606452456 
0.01276664218168536 
0.003758872947421241 
-0.006761613840278079 
0.07882035917660357 
0.1312328237305126 
0.04919415596123095 
-0.05516304230995735 
-0.12144192259163 
-0.1263424957920092 
-0.03908676400237244 
-0.02239103674487924 
-0.007284407405393018 
0.002070032962260054 
0.03722606236981265 
0.06424946558274458 
0.04951384618129907 
0.05623758887254293 
0.02065960187994732 
-0.01390236474275303 
-0.05948602780194345 
0.001720277729825781 
0.0370413788475445 
0.01811701391848837 
-0.06571543459415545 
-0.05231275156562035 
0.01585109196073665 
-0.08167021747112936 
0.0476785165588986 
0.01854869794077094 
0.02472257497254857 
0.0225106359935345 
0.009411500815550854 
0.01013202748676958 
0.02782278739683585 
0.049613783706466 
-0.06810488489208766 
0.02328628651510799 
0.008271703885529669 
-0.02092734753189588 
-0.08113433210048257 
-0.06074860940340151 
0.004208462154585464 
-0.02860007040500714 
0.02263523256528733 
0.01209583006561385 
0.02444611558112224 
0.04143989465728956 
0.02853845388486383 
5.077469238622275e-006 
-0.004311306992111527 
0.01093593527900134 
-0.06497226376167857 
0.05246619582323495 
0.08363209054283911 
0.008321467456039044 
-0.07970042829248492 
-0.09666317382438577 
-0.05160834256258598 
-0.07610914468946355 
0.008753788785128832 
0.009552953054241354 
-0.01464346846318467 
-0.01666646029272536 
-0.002157761696689538 
0.007589099742336127 
0.01790996966869317 
0.00131651179406258 
0.01032888467925043 
-0.004308876578977529 
-0.04747489465740672 
-0.04678906289571223 
-0.07356042821790962 
-0.02665506829234801 
0.03220995073070092 
0.03095741432819997 
0.01090112962447249 
0.02719994968121532 
0.01642506742698887 
-0.02559208774295488 
-0.03750088857787787 
0.001666567773443308 
0.030660644474853 
0.01367997830427065 
-0.02534718121116807 
0.006203617039139318 
-0.01601396989349166 
-0.07522653103801452 
-0.1035676312469876 
-0.02167640980988611 
0.05090356606947358 
0.02467159669165478 
-0.00116945568778866 
0.008043228168220938 
0.01169227320755429 
0.0001797723665855279 
0.009870952250687045 
0.02350122461215066 
0.01001592513566149 
-0.006895662164880774 
-0.04035617341244202 
0.006165775595643556 
0.03248737021082937 
-0.03717098681950994 
-0.05493455155318602 
-0.02210915853596701 
0.01149047335666572 
-0.01025174969267428 
-0.02839053660544973 
-0.01264634808967149 
-0.001511546988875853 
0.01366941402482994 
0.01112943039305196 
0.00876070100917271 
-0.00637366784468343 
-0.01956681629311409 
-0.03508533757070895 
-0.007731782934507318 
0.00576967756974632 
0.01226078252203106 
-0.003992731326692273 
-0.01785681952830929 
-0.01495655747977362 
-0.004484646108723088 
-0.007103512640505563 
-0.01087389669518259 
-0.008859095492533504 
0.02945288361012404 
0.02199372636788198 
-0.01437827015275036 
-0.004189187561708699 
0.002411720024827669 
-0.02517912166074338 
-0.01338364448181768 
-0.003046184087696621 
0.01973530567804869 
-0.01404028755670982 
-0.04613796546661018 
-0.01253270634246788 
0.01847686398956152 
0.001299053890099914 
0.01073349040549952 
-0.006789019343631665 
-0.002375492088580965 
-0.002919532235717262 
-0.01566959386779038 
-0.0146790286708246 
-0.009283775326870945 
-0.07764647451616363 
0.0126939261097481 
0.01950748240442642 
-0.009483202882275407 
0.03991157767920113 
0.04235000577822959 
0.007060728130858489 
-0.07736793362758969 
-0.06222141809338417 
-0.06848560817565522 
-0.04979284006150967 
0.06339859552078414 
0.1294714056014973 
0.06240839594715718 
-0.0258849943310847 
-0.07181484848422785 
-0.1210199997803864 
-0.1292913307749001 
-0.1191971119195044 
0.004387303308891618 
0.06612940629631826 
0.02791122264675543 
-0.07189465960759131 
-0.154195822104024 
-0.02777234236609492 
-0.1098261067859522 
-0.1426678676323558 
-0.04377618368141942 
0.1168108584454068 
0.0926509141026098 
0.005813826275346341 
-0.003678584997422565 
-0.1014950701775069 
-0.1743342212436974 
-0.1508124397660486 
0.03048755566149373 
0.1501648584790591 
0.1329933102330423 
0.009965859122938847 
-0.07536112778113226 
-0.06740502262260574 
-0.08882998075866154 
-0.05821612688735738 
-0.008811917196363928 
0.04038795858499319 
0.07063908970093143 
0.08798453724655152 
0.01758834253928792 
-0.2567842700745208 
-0.2792953191786395 
-0.1533983739999995 
0.06152328160305966 
0.1093407299006706 
0.141074209030664 
0.1123244654493768 
-0.05442201593282409 
0.05108353530097148 
0.03940066949433909 
0.03327700892676861 
0.02064156549020231 
-0.03378420130957736 
-0.01203165818086068 
0.05328748048201751 
0.06610399364108506 
0.05371196236712067 
0.03066074384544811 
0.03129599477491753 
-0.06115331778309549 
-0.1985865405548253 
-0.05282440490196853 
0.09289430194657913 
0.1344552542392958 
0.009839126255490341 
0.01716546690400274 
0.01338184225399156 
0.02673147092117892 
0.02059090250911106 
0.01749889809416233 
0.01175499996703136 
0.007909293256866012 
-0.01146999975125324 
-0.03379067650494434 
-0.01136630520250379 
-0.04741920107905464 
-0.06026494986571646 
0.01992716880142872 
-0.006389662511927048 
0.05102123644157982 
-0.009694284887694688 
0.004824573305200065 
0.03093095449840118 
0.05541788675571131 
0.08441366977065461 
0.06283389963657769 
0.03346057972344524 
0.001845678502672308 
-0.06132751201093849 
-0.06418582599049087 
-0.02387727107724701 
-0.04146457704244392 
-0.07564131468796169 
-0.01751362299269549 
0.06686712773033851 
-0.04674524692015221 
-0.02099028035979905 
-0.01133623599293382 
0.00565322680806453 
0.02804229770857196 
0.02784433894204141 
-0.0009002354038454914 
2.960268390680889e-005 
-0.006395557847425059 
-0.09340749934912906 
-0.02372746314668842 
-0.02143430258375057 
0.03199480087596726 
0.01717262089939542 
0.03665870714190814 
0.04275586124405208 
-0.03842642059027368 
0.01061339385321849 
0.009390060318610274 
0.03229438825169908 
0.03985439149172754 
0.01027863271555335 
-0.004341057528893456 
0.002192276984181528 
0.01496188774928774 
-0.04144903429738419 
-0.02512521840113224 
0.006735920646562401 
0.009833176764092681 
-0.0566176739266395 
-0.03651424605035295 
0.03940712970509073 
0.01705279804982961 
-0.0003424095112926967 
0.01858667002440891 
0.03268951414092539 
0.02948685838051679 
0.01101156053528427 
0.004020854999408236 
0.005012543596757894 
0.006138901289366182 
-0.02242380537250409 
-0.004367299042020495 
0.02238524760037557 
-0.0168117743804562 
-0.07616871576215586 
-0.05178624466138872 
0.02680405457102997 
0.03199543181788776 
0.001823986516808624 
0.01850171471922139 
0.03943899171169555 
0.03921529713483385 
0.0147670071432472 
-0.03047193290669237 
-0.03040000627524772 
-0.01449443279794365 
0.02142795066244171 
0.02997741475057585 
0.0238384046088646 
-0.02124096463781238 
-0.07612277147589065 
-0.04740044579962802 
0.005282807023458569 
0.03992943875261641 
0.01980690558650893 
0.01363142300447388 
0.01544281586817427 
0.02535894630054228 
-0.003434374167249051 
-0.01737862041148566 
-0.02128936894373862 
-0.002918253837686719 
0.05834587967737855 
0.02187307335233667 
-0.01951119549786807 
-0.02537395205556257 
-0.1205217921223148 
-0.08998307767184427 
0.004545998184739475 
0.08708283083616294 
0.02249976086384055 
0.02904898276245616 
0.02113136072386172 
0.01087464100026998 
0.02116186125147951 
0.01029240537424543 
-0.007709456746412897 
0.003016067109343921 
0.03149565185744857 
0.01318147179420581 
-0.02752968087899899 
-0.02563855910457858 
-0.1137630745513117 
-0.05972644095777761 
0.004971934248216819 
0.02734883049544506 
0.008922510629873041 
0.0303127459093953 
0.04940610447602813 
0.04426064225785355 
0.02721653431466593 
0.02382631440915342 
-0.02064590620739901 
-0.02441973352261589 
0.001064985073853541 
0.02151400189777309 
0.03871881738772203 
0.03719745411683201 
-0.009680022338422781 
-0.04875819748025035 
-0.08740073153414968 
-0.0652781250772678 
0.03461457107670344 
0.06489867731120196 
0.05578960603675792 
0.04431135003868363 
0.031504811664086 
0.01503465004586113 
-0.01692848366852367 
-0.005449612550146699 
0.01483098940788215 
0.0534476437252335 
0.02220812289765526 
-0.02300899694776949 
-0.06976251050080529 
-0.01286970386283051 
-0.1008861117107936 
-0.04151461720051142 
0.03304768743445423 
0.05580934729385527 
0.0367567621577697 
0.02793394879947028 
0.01892949797208739 
-0.00951245740083184 
-0.02221343969890142 
-0.01652550155348172 
0.02889882699101532 
0.06721258865470933 
0.03767795498604563 
0.01177276354413448 
-0.04385648481804709 
-0.07214706431644612 
-0.1106778827923639 
-0.0356468192185358 
0.0149694564463413 
0.0251339285535568 
0.04000407775258102 
0.03960851626406248 
0.02143805652176638 
0.002697076206497458 
-0.005227627450067611 
-0.002471499363367162 
-0.004441555342126585 
0.03622209034565062 
0.07172478782146853 
0.03577936557879381 
-0.07973685072346458 
-0.09687010749196431 
-0.07062696313061265 
-0.04509059774637995 
0.02474132860316617 
0.03301740735507728 
0.01250168126712553 
-0.005310243760389122 
-0.01371900149020353 
0.007129579196857181 
0.01593606720643704 
0.01173276226085247 
0.02718272521496855 
0.02051148197941471 
0.002658829798950422 
-0.03005131834627681 
-0.07453864863814799 
-0.01864247089713496 
-0.01747971552890196 
0.01561650215835603 
-0.01523667154131805 
0.009990239649270323 
0.01449174739178526 
0.003029528759621016 
-0.01242698341115344 
0.01281520420746251 
0.02315696418589061 
-0.0117947826678192 
-0.01629768208286315 
0.01711628071204555 
0.01973669709117949 
-0.03247136344281548 
-0.0917128214989016 
-0.01371270870693785 
0.04244888599146873 
0.03019927842473991 
-0.0008262905303840313 
0.01196712990219387 
0.01172859778353579 
0.009328497313116073 
0.004230475568305726 
-0.0136683215028413 
0.0001270812765586525 
0.003054616759407657 
0.0001089773355729446 
-0.003589665905467225 
0.03657452382003319 
-0.02819378861660845 
-0.05028871213713004 
-0.0515655463435579 
0.01487623783490364 
0.01805029967761795 
-0.005623585691045367 
-0.008762891301762934 
-0.006756781434243875 
0.006962319967668731 
-0.002983296073706159 
0.001492598428865538 
0.00103132855130576 
-0.006871719477721373 
-0.03283856826206068 
-0.009547104007716504 
0.006171061430917676 
0.02511620930572514 
-0.03268156730736242 
-0.05224436266710381 
0.00244452886595056 
0.008202817698932038 
0.01762878157020312 
0.008324821785330104 
-0.009385577568531161 
-0.01362169798487138 
-0.00701013547717374 
0.01772275781903524 
0.03314433204889791 
0.03050132494885171 
-0.01729848421934364 
-0.02517803202623879 
-0.02018361185671466 
-0.06038279754500618 
-0.05465855486062358 
0.01661736892692979 
0.04670242267480694 
0.02679211632773644 
-0.0115167140071011 
-0.00150176052084073 
0.01108986667928186 
0.03487445189879693 
0.04672477014342297 
0.04882455041612049 
0.04843621824441229 
0.01749997510106822 
-0.04313704358227041 
-0.04628158846769106 
-0.005085930064581325 
-0.05164107186164433 
-0.05817540056487713 
-0.003680913325804013 
0.05542920152049415 
0.02206906205049488 
-0.04702246021612511 
-0.03017221516371951 
-0.0007003792546193197 
0.02589856727211881 
0.03903331330659501 
0.03922452324549391 
0.02154548908346513 
-0.005823508061038662 
-0.09375091977391538 
-0.08773650998336653 
-0.01654336074264828 
0.01544119268296461 
-0.01646888020233037 
0.008775125766793915 
0.03909542270105845 
-0.01730851197028147 
-0.07983459630369054 
-0.04647694749134113 
0.03056751403373018 
0.09746478515324122 
0.03078298109377039 
-0.01303468734846059 
-0.04993752745868322 
-0.07431166708858823 
-0.1615547819525795 
-0.1560449669568466 
0.04092891912918174 
0.1670007058123101 
0.01354283958669625 
0.02039085680906819 
0.005664462377154 
-0.08744204606094995 
0.02645485071380509 
0.01234312119119844 
-0.0308334541230849 
-0.05028102814862671 
-0.00796492683762004 
0.1022527535814225 
0.09464468524234698 
0.04009487689719807 
-0.01231956295403919 
-0.03134773638367221 
-0.03807687104799206 
-0.03574593178532595 
-0.04651989221514916 
0.1054616852304541 
0.03187212887263786 
-0.0621598684203027 
0.07325365713241201 
0.03919539973063585 
0.02162513319780571 
-0.005145337979020072 
-0.003264847740747535 
0.02179283547910663 
0.09205026279911119 
0.09809907059537708 
0.03832873958437419 
0.01529147318078733 
-0.007325217076062462 
-0.1272087670920195 
-0.2062507763873491 
-0.05657384127771948 
0.1044310280155295 
0.1005015273909981 
-0.01877212299140229 
-0.02629623394654586 
-0.01742140293679751 
-0.00218345292808819 
0.04874856070765409 
0.06131570481782693 
0.03573253063997649 
0.008296503336948351 
-0.1098296668549997 
-0.09566636162380586 
-0.02448717421792319 
-0.03826863313291678 
0.005338223230052485 
0.1008181132264401 
0.05181691138920429 
-0.008222016005769198 
0.010977222149258 
0.01866334967161921 
0.01199336601670049 
0.004093009620390184 
0.02737906278408219 
0.04647178231773808 
0.01426204301893413 
0.01270711951633036 
-0.03928782222833238 
-0.001088201242539073 
-0.0255711472288883 
-0.03114135420457591 
-0.05850203751791276 
0.001090719114445575 
-0.001354995692643291 
-0.001189419106252954 
0.03498577639000991 
0.02078298891773397 
0.009398256931619475 
-0.002039674297932159 
0.001448663989984778 
0.009559840216830111 
0.03802542862871716 
0.05626481706049868 
-0.02124974992969044 
-0.01410295056713317 
0.01149689260611884 
-0.01512615194683608 
-0.0846082324475872 
-0.04062754496178755 
0.02797137046228948 
-0.002086783199356723 
0.03890298902326481 
0.04491303841609708 
0.0394522611605042 
0.01051631846702202 
-0.02181446259944377 
-0.006476802366889 
0.006539989814743293 
0.03885383515279089 
-0.02560749690542401 
-0.01057011920243296 
0.02492574258329867 
0.01157994879581509 
-0.05167789486442207 
-0.0432155146821584 
-0.007442344432723541 
0.02391040234060446 
0.02877076143718029 
0.08981710250629214 
0.09856712536812515 
0.07979110967753826 
0.03837921435342595 
0.00440174873896978 
0.004646994432155984 
0.02032276798482494 
-0.08331504566651414 
-0.03118728835177281 
0.0704651453982565 
0.0239768702108972 
-0.0782168164804735 
-0.07504193761281082 
-0.02887761040055008 
-0.03001383420696737 
0.005766770436244776 
0.05742507796482198 
0.09495171607907431 
0.06712727799769243 
0.0198569421750704 
-0.007300441362142189 
-0.01418248948205463 
0.006819086407534474 
-0.04393118813503906 
0.009267303157275241 
0.04319048906383147 
0.06463859687183154 
-0.05620741471561547 
-0.08962807520647362 
-0.05778125764070344 
-0.02386501213430479 
0.04696004376500461 
0.06428353787943242 
0.0839249884490883 
0.05144240853314848 
0.02176916000315483 
0.007373302770725253 
0.01214763215582859 
0.0170503294894237 
-0.04123652671784168 
0.008736584309936783 
0.05960090100710931 
0.02018842947546761 
-0.08804478751622066 
-0.0808865117578419 
-0.03684081462207313 
-0.03416502852614102 
0.05152689130577685 
0.03542922789010373 
0.05296589681498035 
0.04880763677027973 
0.02165393742230033 
0.0221664216654286 
0.0445291625540936 
0.06055490799190922 
-0.03188581895961384 
-0.005794587904916581 
0.02381258160226846 
-0.02000184732195203 
-0.1132112307882231 
-0.08026973381637959 
0.0009445610974340938 
-0.004243948237497248 
0.02156883775042321 
0.050678043161122 
0.07647931896417809 
0.06281532280650498 
0.0234939265295469 
-0.001889217091690943 
-0.0006036920176035569 
0.006464581616703548 
-0.01811371520231738 
0.03045828625666401 
0.06833816980205267 
0.02170353259161281 
-0.1072078237694362 
-0.1015341739570505 
-0.03995889032450298 
-0.03575486651708407 
0.05288269933875207 
0.03337305053253955 
0.06193056882400338 
0.06264559747700287 
0.02796125897668495 
0.004638377311874527 
0.02231035636880277 
0.04700393049374823 
0.004588028096094955 
-0.008553244896816411 
0.0325231041690079 
0.03166694843516029 
-0.0992305305519384 
-0.1038582741574585 
-0.02253600900505292 
-0.0168121999958755 
0.05206655091907292 
0.0392885400659903 
0.05300292517500104 
0.06241238684423788 
0.0429795624364366 
0.01729091872571384 
0.01264850195507279 
0.06049977430208995 
0.001114748302717689 
-0.02524092044707485 
-0.003058499946195379 
0.02983275245095838 
-0.03139178930832571 
-0.07296787749325541 
-0.05476361279362428 
-0.009213186918714547 
0.02689711823351101 
0.02108070472208342 
0.01758468888989063 
0.009905538276293684 
0.009167901049032487 
0.01865921405006712 
0.007993169647818085 
0.01251545009946082 
0.00328014260067896 
0.009062613640237749 
0.03208286174445001 
-0.01841380387770015 
-0.06246467512358159 
-0.007110964386529731 
-0.005941170388999651 
-0.02271432820190653 
0.005710183388737614 
-0.007059800944691112 
0.004607332846590805 
0.01352152717168011 
0.0136182635627213 
0.02605195994622987 
0.01861233647261208 
0.02614509774478702 
-0.02016505390872558 
-0.001950942647787799 
0.01942335376565979 
-0.01254184131626953 
-0.04700192079883968 
0.00818863898919894 
-0.005565458914759623 
9.991678260037537e-007 
-0.0100217508316174 
-0.01746181347113617 
-0.002338887928398593 
0.01066086108487611 
0.01672450846714801 
0.03724970062136249 
0.01595527355696846 
-0.01541885518328515 
-0.02312065161654011 
-0.01995413122870219 
-0.01103989779598264 
0.008954550981404245 
-0.02881506786848523 
-0.008965141627324466 
0.004748878647770551 
-0.01334428935335452 
-0.0157473346948687 
-0.009224265160474874 
-0.0006758599198337209 
-0.001022745361345845 
0.008511477516370677 
0.008260754852298533 
-0.0009044729770726616 
0.002045277024733209 
-0.03267347456483011 
-0.005977440789724325 
-0.003989645131939333 
-0.02410115112408941 
-0.0007684481514711812 
0.01100901278297143 
0.01790879781098696 
0.006671868538883001 
-0.007331217206998896 
0.02567979057293642 
0.01920396694315986 
0.006114411898511829 
0.02119628700297679 
0.02477261314831184 
0.01148430662827816 
-0.02003562907723741 
0.006748134771746297 
0.04568926970477901 
0.02719021899502275 
-0.03952373146653737 
-0.0623906692172942 
-0.009988727599815016 
0.01359475861308307 
-0.02979207929771143 
0.03869062093840622 
0.02500524762058668 
0.01052450263163563 
0.02100931874013814 
-0.007348802495249686 
-0.00242607852963818 
0.01390839927178637 
0.01402387386583954 
0.0936741963706404 
0.07354060416899787 
-0.007399826203111385 
0.01012827200891383 
-0.1552605850648556 
-0.0747794389238295 
0.0632396233813764 
0.01727130887894419 
0.08284365793779944 
0.05386028942901433 
0.008862811031267712 
-0.01902888486967692 
-0.1224628533796249 
-0.09538110208124384 
0.06548112175886167 
0.10245685661091 
0.1344888557628568 
0.1090191303504398 
0.006496804458914544 
-0.007181426094797001 
-0.1918789692612717 
-0.1517695544635682 
0.1000088212661441 
0.1617513532249597 
0.04707476065939024 
0.04208767484043947 
0.007913200641413848 
-0.009461984788246107 
-0.04059875133451756 
0.001366025860258449 
0.06135971246309139 
0.04815433998423082 
0.05766935475602027 
0.03449941490419684 
0.02274278329411369 
-0.05489963820109357 
-0.2277737973391052 
-0.1232063649148025 
0.1358857532004954 
0.08002461418223762 
0.03015823510163019 
0.03775384477446682 
0.03767431623138226 
0.02278713213848625 
0.008115483445298142 
0.03148072617959956 
0.07018798109462537 
0.05989943394058898 
-0.07180811907685948 
-0.03280466104441643 
0.008427915264101072 
-0.0982562420092355 
-0.1288810255397445 
0.01203996148345535 
0.1092837184458195 
0.02429948830098344 
0.04238274276365065 
0.02460980062216991 
0.001498996850581699 
-0.008101301131223732 
0.02225187069440677 
0.05209226340848576 
0.08334799035461327 
0.08068821437414489 
-0.08803300703246751 
-0.05926792084116546 
-0.01637055763470197 
-0.06152820830547319 
-0.08446218529502624 
0.03037988303077473 
0.08510545911844893 
0.01412206459168555 
0.03893006723241649 
0.02376191477778541 
0.0238481640207312 
0.006390513507245222 
0.0009605008456337614 
0.01796264458570887 
0.06138351965583563 
0.05804837529698302 
-0.1050917751265368 
-0.05662421659131287 
-0.01748600680955086 
-0.0130777321131484 
-0.04237655700500283 
0.0459695737034952 
0.06796027733564393 
0.002346080583726861 
0.05516621039934704 
0.04562222373289456 
0.04322212775240955 
0.01604527098308295 
0.002039179092100244 
0.008129287237062242 
0.04156734097101226 
0.06747151246799082 
-0.01881010291359613 
-0.03419760699240625 
0.01089667029933421 
-0.009064305385485971 
-0.1160765017638049 
-0.03860943273278807 
0.02174829295420656 
0.02113624258595268 
0.03941554773596405 
0.04244688299701548 
0.049976376769413 
0.03511426515506639 
-0.01576861202859765 
-0.01791828001661065 
0.03375075025653951 
0.0588138573415176 
-0.007975477308998443 
-0.01467015999184015 
0.02580295088827411 
0.02952938519696623 
-0.09373967163793245 
-0.08140507546304453 
0.01511102381724864 
0.04330480345809812 
0.02927327038683941 
0.01932857950905193 
0.04698497053577391 
0.04661903662778347 
0.02588601741470282 
-0.004027890034962947 
0.01184771025094653 
0.03389438012465045 
-0.01396270556141569 
0.002733814966826695 
0.04212312471406785 
0.04767306396025191 
-0.08300598197700287 
-0.0882686253341515 
-0.02544791208326367 
0.01425570736839438 
0.03485629322381628 
0.04248092044838073 
0.04770249984148309 
0.03360190635516101 
0.01116674478187944 
-0.009011415485319219 
0.02801665910586682 
0.04431225733658195 
0.0156324969945231 
0.01190961078568012 
0.05191547214656411 
0.005808430046014652 
-0.132966884491446 
-0.1090830201222932 
-0.01328939945431506 
0.04972970845342448 
0.04230407724988884 
0.03892686683065876 
0.05500189703411046 
0.04186929713308855 
0.00756756848039712 
-0.01126951450637376 
0.01894565749173715 
0.06092767847507502 
0.0004792410876052465 
-0.01455619609368047 
0.04476145557046597 
0.01998492205746366 
-0.1149689203430982 
-0.08389436969611627 
-0.002340726355016162 
0.03339485227270271 
0.06003864308113471 
0.06800505002342006 
0.09473817953024007 
0.0705066100973655 
0.009537124344814307 
-0.002324289202403055 
0.02712370214293871 
0.06097057185842823 
-0.004746926249767766 
-0.006798066029770915 
0.02996684355424735 
0.002693858235477145 
-0.1528929359102589 
-0.09625787960918644 
-0.00194762201964977 
0.01667526880814335 
0.04684952306295018 
0.0527951886443404 
0.08147702205679677 
0.06722915059889556 
0.0297545520221391 
0.01460213285862521 
0.02995522079685255 
0.05371008002120176 
-0.01057756920796838 
-0.0573373111146302 
0.01974076243087052 
0.05274559387719358 
-0.07845564154635618 
-0.06978192032634316 
-0.002935395698492456 
0.02681476378484849 
0.05939658855855845 
0.04918942404494082 
0.0670823768385828 
0.06545745995628476 
0.04800960489169427 
0.02765830376445837 
0.02708567286642884 
0.05758436724198898 
-0.02508023847209664 
-0.05048648811060165 
0.0130155427625623 
0.03169903579219916 
-0.05151304512458567 
-0.05477163562817983 
-0.02430772299706693 
-0.01283276997974641 
-0.03676426377678745 
0.03336383471515576 
0.04448892485987339 
0.04421259700082469 
0.03312986731481475 
0.04287519263773249 
0.02592517351718444 
-0.0444474350613625 
-0.06762148809591023 
0.04499586701950766 
0.07574956948863906 
0.04603431841227482 
0.01183472659583955 
0.04433015341033798 
0.009521816064305024 
-0.1036910175186546 
-0.05633367131183617 
0.01561074737092471 
0.05463193688188346 
0.04414603495522506 
0.02676492833550109 
0.03233258812045359 
0.01958976767939447 
-0.0408388185641593 
-0.08251467292858494 
-0.009075998348050601 
0.06303431946552354 
0.0473458263653622 
0.0008226472492358411 
0.05817619369998325 
0.08318437979462182 
-0.05181214349630577 
-0.03324760684171955 
-0.02496290263419933 
0.006546062795136509 
0.0199085009142113 
0.03603919001232481 
0.04978535612871098 
0.05590957190819389 
0.03618954837681691 
-0.123106035157391 
-0.06907187852605351 
-0.01411191142694661 
0.01451959868922584 
0.02776760700818729 
0.05333877951466261 
0.07963312215399822 
0.001330214461334362 
-0.01657311859989594 
-0.01923159086179693 
-0.003576858630309466 
0.003759999619102416 
0.03238772133343337 
0.05192915360662498 
0.04634087831953474 
0.03236402701689552 
-0.1255767251681591 
-0.0616198963343365 
-0.001803830199877636 
-0.04255773565323145 
-0.01392578633862587 
0.0913365612972686 
0.1122590930082102 
0.007149716407447259 
0.009066817375489141 
0.03555099150308898 
0.02539818814230259 
-0.00221075409390433 
0.008932312109879655 
0.04148973596288685 
0.05078216356915481 
0.02676172897972952 
-0.1172255892911763 
0.005934552278558066 
0.04171454466764077 
-0.04078480921611843 
-0.08744855221774188 
0.0161360460868753 
0.1034334791378624 
-0.0177912072248261 
0.02730857298353001 
0.05148242784544744 
0.02021018420681661 
0.008521859945217931 
0.01538972188778652 
0.02291255236773258 
0.03961644334533255 
0.03214940821482195 
-0.09150869519203586 
0.0186045011418641 
0.0167246502855989 
-0.01231694138444061 
-0.05804849170892647 
-0.01743384190689091 
0.08385844211701353 
0.003181454535786453 
-0.009050389903331228 
0.04739827638195891 
0.04171977715897389 
-0.01482512364801992 
-0.03834071362416303 
0.04721179435166626 
0.09554773798478697 
0.01846441739223849 
-0.1075596983756815 
0.04228289321152285 
0.06242442272729586 
-0.08204843381748947 
-0.1741236686976176 
0.05653693152814931 
0.1547638481484684 
0.002694682981732556 
0.0126619114090791 
0.02402848365782915 
0.02125717056432307 
-0.0001158825011330703 
0.005312470681780391 
0.05993795734477012 
0.07928961430839912 
0.05422657223515 
-0.09079569189284852 
-0.01707638768789604 
0.006765696016683507 
-0.0841606110423213 
-0.1419393389466526 
0.04120270893920144 
0.1085365755740917 
0.01756490328511812 
0.009355279518625179 
0.0199938868931992 
0.03774016856802637 
0.009894476117930179 
0.01040446416062952 
0.04975769122047496 
0.08467237468630645 
0.06378048141411014 
-0.05175979618341473 
-0.02458880857325105 
0.0005227151081419884 
-0.102441978984461 
-0.1615303256363062 
0.02165582914943239 
0.1339182925728572 
0.06454424275846037 
-0.001195837366362504 
-0.001083726444816377 
0.02783952320548882 
0.002044480396747781 
-0.01054267443024335 
0.01743279828554512 
0.07378897914245849 
0.07269635605995199 
-0.03832070387787939 
-0.03773895389302465 
0.03668411771558094 
-0.02550540972045706 
-0.1316914025060345 
0.002420103225452529 
0.1161556569411446 
0.08422763219785197 
0.02580669857564432 
0.0391738691940353 
0.0531528638795819 
0.01640784368472464 
-0.01828086697582926 
-0.001399339820540068 
0.03342932538114436 
0.04988768761099634 
0.001040740788352937 
0.01624427543210484 
0.06749245287558282 
-0.01247690614059109 
-0.1312435172179466 
-0.05980268626817709 
0.02727199492157121 
0.03095337436063089 
0.04049574256037883 
0.05299155296187394 
0.06802568498414076 
0.03914647021945542 
-0.00678495338238719 
-0.0145872027123583 
0.02794137615547157 
0.04408200935174343 
-0.0222394918117461 
0.005170661477139435 
0.08186946129606335 
0.01699057074192032 
-0.1327457702064919 
-0.07536717845067399 
0.01586358655192626 
0.03470291034471296 
0.0564174586603206 
0.06986613281275433 
0.0793711571822462 
0.04447749355225231 
-0.00449542522021023 
-0.01472644629634916 
0.03341482108786868 
0.06817230558327292 
-0.03910689353397092 
-0.0315493368347219 
0.06067407566222854 
0.01733679846851991 
-0.1246054015069259 
-0.07850875330746797 
0.02611992553045032 
0.03971506263669643 
0.0360500336790525 
0.02507808260341917 
0.06062790622831919 
0.03497317799930389 
0.005949056237156032 
0.01335769080200375 
0.05310343557104343 
0.08348162921073979 
-0.04417269364998566 
-0.05242458634140616 
0.05479420253678414 
0.0221615273839554 
-0.1082127876089074 
-0.07547439012942485 
0.03597229858121811 
0.04467713849088038 
0.01084331431246133 
0.01877132811587766 
0.06613924719081538 
0.04765925976257836 
0.01456054841628728 
0.01449969435553858 
0.04570435174947219 
0.05287117824704373 
-0.02530810178450646 
-0.04684958209177838 
0.05322361401909598 
0.04180918440886258 
-0.06683455189799888 
-0.03266619945552023 
0.02981430365912131 
0.04574015264218361 
0.01519029060756868 
0.001568061577050554 
0.0467828210722723 
0.04660553292807949 
0.007583260671635259 
0.001096508217983418 
0.03568341951395264 
0.05876736793024788 
0.02040590209645799 
-0.05449387754476298 
0.0325025244567801 
0.02081590769420338 
-0.08627348488113937 
-0.04804818855272744 
0.04497628276159266 
0.07466725702067852 
-0.0009083808626140109 
-0.007773503728786562 
0.05907869060420697 
0.05710424496872243 
0.01522539211873811 
0.004274703729156972 
0.03544636121335091 
0.04686439116427633 
0.01158722710358398 
-0.008068649217488445 
0.04567293795828559 
0.02436544684906297 
-0.0593791309690859 
-0.04086151769479821 
0.01319702774931482 
0.02475935077069131 
-0.02794748112084797 
-0.02633752515111078 
-0.04562131532934823 
-0.03108844306716549 
-0.0156832538374012 
-0.0195408545605333 
-0.03376195003606409 
-0.01231314639231811 
0.03001210733624202 
0.0285539899998934 
-0.008978257317303309 
-0.01094488166226548 
-0.01768529544684044 
-0.0394238456724347 
-0.02410943256447921 
0.05792666573343137 
-0.02285510077022361 
-0.03351841527633098 
-0.03670351542805365 
0.002304029372014603 
0.01695308011725724 
-0.01747640926168868 
-0.05652633644079352 
-0.04320721362008254 
0.02126151541989658 
-0.001413135168782096 
0.01437453934583924 
0.05592249623474958 
0.007483459491402993 
-0.04511495661376413 
-0.0347057156138535 
0.02674398281089376 
-0.02587504665564162 
-0.01931130231520847 
0.009814368596417792 
0.04120375036738525 
0.01512661002350771 
0.00770044927876725 
-0.02598396653935908 
-0.01740263907905351 
-0.04476394688621458 
-0.01509335507521165 
0.05450140786483878 
0.06773084210466962 
-0.1316833356029851 
0.01474200119491149 
-0.006187616034526007 
-0.02108270973032757 
-0.01456862344132638 
-0.008132631619839875 
0.02138844971976315 
0.05032885680491844 
0.02686121851979871 
0.02032498522849971 
-0.009743247355469626 
-0.007952223190050834 
-0.05003441041368337 
-0.01454968768351232 
0.04040694039089167 
0.01729953958111617 
-0.1171250570748515 
0.03681944712735257 
0.004062441019627711 
-0.02863597050652312 
0.0107221043668624 
0.03261077278665902 
0.010780518999138 
0.01274973671427628 
0.005481985535763871 
-0.02628112022593331 
-0.03593844804751312 
-0.024866350119573 
-0.01498203267287337 
0.03337752717522269 
0.06927728747144116 
-0.008704969714263662 
-0.01856071442948703 
-0.03754262550385505 
-0.02167255424466385 
-0.06722863484102419 
0.05644843360193744 
0.06523207939844676 
0.004630740870087475 
-0.008322623456834108 
0.001025756795511464 
-0.02297558932957743 
-0.04399942910553274 
-0.02544601023277823 
-0.006488889747439725 
0.02558662463972276 
0.009858693650107834 
-0.004039428323478244 
0.019392200497534 
-0.03839662109183705 
-0.07706255623979715 
-0.1258581835689558 
0.05646191993759454 
0.06032323631739749 
0.02638431432384916 
0.03825006019972557 
0.05429908862788469 
0.0005839679698745404 
-0.05323372974824941 
0.001108882434292874 
-0.02373111585749169 
-0.0217201495033664 
-0.04522772736175215 
0.01620766581155919 
0.08467501754027991 
-0.001873634983472015 
-0.10968709853934 
-0.1382204732101609 
0.08736888228079315 
0.02371173225136656 
-0.02122348119194307 
0.01786666632650753 
0.04583264799743564 
0.01735892506133323 
-0.01136805170507283 
0.046476167039104 
-0.0008236278955850995 
-0.09070342173719553 
-0.07182695687340274 
0.01330194086720012 
0.0297969758268052 
-0.003570160442068027 
-0.06431952636709173 
-0.06603253707940346 
0.05916997882079211 
-0.03419015110291218 
-0.04875291308679063 
0.01294851723452269 
0.0157817371806592 
0.01294003297658646 
-0.003048067579081575 
0.01135794904984506 
0.04806598275530683 
-0.1289743228399382 
-0.05242457430731791 
0.01464773254508836 
-0.06716165857741632 
-0.003569996582209441 
0.01674862746464284 
-0.01218978736493047 
0.03535710165342992 
-0.05484814812272271 
-0.08265261342338032 
-0.03016308672561311 
-0.003815617769688329 
-0.0008194905028976827 
-0.00988357642912284 
0.02325857468793771 
0.06161450973371123 
-0.09152962946917678 
-0.05661533914824539 
-0.0484908861701434 
-0.09883556422071346 
-0.01514514344378998 
0.06280233289173488 
-0.00782138541325068 
0.01617085693131879 
-0.02925418092171197 
-0.09060299920658421 
-0.07726685230713162 
-0.05268498473294419 
-0.06778426726826503 
-0.0185205450882811 
-0.01579933634160584 
0.05367071595242214 
0.05776240386506183 
-0.02715383115765656 
-0.08486345779328522 
-0.09518231598617505 
-0.07828193046605379 
0.08307611526642904 
0.09770985280481004 
0.07361213139420658 
0.05321119371653064 
-0.05817385962128372 
-0.04457619618523368 
-0.03145841554895337 
-0.09864011734003238 
-0.08965866355000436 
-0.01132725464450535 
0.05289236361293218 
0.09867334767922006 
0.02049009728772189 
-0.03030936228665021 
-0.1216637229358895 
-0.1127575873933803 
0.03775104793734815 
0.178779691195714 
0.0511783433027133 
0.06733967488403442 
0.08757589173730829 
0.1185671805043078 
0.0722750577205926 
-0.02542111986612201 
0.01477556199632566 
0.06747776604362406 
0.002477067867023357 
0.0221463321234888 
0.1121830059004233 
-0.001179144622263897 
-0.2314906396773893 
-0.1046155713549746 
0.1085582646424506 
0.09643500983963384 
-0.0471668553268188 
0.0001269191782376636 
0.1184664410350925 
0.1568651428311449 
0.04518659650207112 
0.03232388266805513 
-0.00023440211602809 
-0.09123043954391261 
-0.06206181272672562 
-0.08750267694218102 
0.100613851868921 
0.07045018111244063 
-0.1234296560679948 
-0.0256941803643702 
0.0443568523053783 
-0.1230677150043145 
-0.05882216943245437 
0.02295175193306222 
0.1239316983264647 
0.1288091106641665 
0.04966727156249934 
0.01959876498177839 
-0.04037500162546823 
-0.1383154586454535 
-0.05949289985386602 
-0.07635743106497497 
0.08681997641654776 
0.06823418598644018 
-0.07695012143411212 
-0.04614529261569925 
-0.03754612374457214 
-0.170357366125549 
-0.0768484448591143 
-0.0176692612212306 
0.03726426118968888 
0.08713491534233096 
0.1134660350873518 
0.04396057097303195 
0.02036582081250787 
-0.1339056640199604 
0.05337871162345124 
0.07715906588710066 
0.1180472432888153 
-0.0272933909015524 
-0.08010219422335248 
-0.03755335400522927 
0.01819676396762811 
-0.09482707597799364 
-0.01994277100878834 
-0.04914893647451968 
-0.009816601228533848 
0.01448309849779734 
0.02474779431012753 
0.04198327336219956 
0.001017818177257897 
-0.05312314592218709 
0.03356854182153005 
0.007255722280894997 
0.02397582544136102 
-0.0005936483514170177 
-0.04584445430316547 
0.01867539155425227 
0.04420065829945164 
0.006391593011913783 
-0.02192251139216012 
-0.0441795813837875 
-0.02389429205764131 
-0.0005206065597203086 
-0.01320108957245652 
0.03545648863895927 
0.01117460880981101 
-0.03734922018370331 
0.02301165006011504 
-0.0109895248795116 
-0.01333086215348402 
0.02665980422720543 
-0.01554022815465753 
0.02170296415660759 
0.01098851165304735 
-0.0225978073284708 
-0.002873418062677009 
-0.01596110258358995 
-0.02446263344850537 
-0.004296940030666637 
0.02367129044273934 
0.05073575462571987 
0.04197352434178156 
-0.008952633911701639 
0.05679928116123149 
0.03398302183438953 
-0.01272530135690774 
-0.02704281981804238 
-0.05053459802129856 
-0.01190755810578409 
0.03147216504710317 
0.01282608426810664 
0.01072961255302184 
0.00851305380192806 
-0.01795033935207547 
0.03726086424565512 
0.1569160198550963 
0.08767780898657392 
-0.004093701028359771 
-0.004005021970294899 
0.0877130528980835 
0.0543668264105872 
-0.04391642807374903 
-0.1086759492932708 
-0.09618723441533068 
-0.09364619018670603 
-0.03015484532342629 
0.05624298951999512 
-0.001127526653344316 
-0.00526850895945057 
-0.01853117575189932 
0.04733530836918028 
0.1181819929172294 
0.04116110982911576 
-0.03762635446289342 
-0.0141286097969411 
0.0748602504295601 
0.03905825823309861 
-0.05640934250040255 
-0.05552731048651528 
-0.04283038069593743 
-0.09721258191116926 
-0.09574236530520676 
0.04836845463830452 
-0.009613183274140577 
-0.006139716957984827 
-0.001308327497209244 
0.01367351051386841 
0.01885190604910945 
-0.005348764283609506 
0.01077549071068502 
0.02386859397741907 
0.06372415341790697 
0.03296083732843335 
0.007548685711093879 
-0.03175753933598343 
-0.05657174882491413 
-0.05915754557507222 
0.03058788392590596 
0.0869026917874475 
-0.03191116924315011 
-0.02097263805691675 
-0.003295935199048484 
0.01129578693930797 
0.01159304602507893 
0.01572232783547511 
0.02847300877333887 
0.003316839404204381 
0.02774815562100808 
0.02282998333079019 
0.04938261286627565 
-0.01975839601172627 
-0.07459290144453781 
-0.02166637391497905 
0.09802608299978503 
0.08904086363041878 
-0.04806028549095355 
-0.02959763778202188 
-0.01975393491416768 
-0.01008966621692246 
0.01270132140786243 
0.001852987647548914 
-0.003352312565563381 
-0.02122074615769972 
-0.01500458786071096 
0.01385496023119527 
0.02260122581049745 
-0.003230706486633368 
0.02031071454684124 
0.0006900703167590555 
0.05690565482870143 
0.03737803603353194 
-0.03837357154597993 
-0.03373966016753938 
-0.03565173765966859 
0.01139420977755718 
0.04741277148282472 
-0.007471869843316254 
-0.03006229362132866 
-0.02985156544050452 
-0.03185577788573426 
-0.0320181764042549 
-0.04342551246038871 
0.01904409057784328 
0.06723556517652568 
-0.005622443765860456 
-0.02858613934882884 
-0.01889274631543349 
0.01202708098743782 
-0.006724743926106306 
-0.02271511766085505 
-0.02469321407363746 
-0.01465089351318732 
-0.02017512879449645 
-0.01912035422813499 
0.02021715288708454 
-0.05144766607663771 
-0.03727441709940793 
0.01753006906637948 
0.003704615539382782 
-0.009584271773840445 
-0.05392513323291408 
-0.02239258555324105 
0.002293037031664025 
-0.01260038669706652 
-0.01241199262238096 
-0.01312447825273738 
-0.009830461169538471 
-0.01082969268522403 
-0.01552394500614552 
-0.0203889479423278 
-0.003194562678380906 
-0.04291257236952958 
-0.02496258045481082 
0.05512571504189602 
0.05512610739222328 
-0.0484733794184178 
-0.106674292733562 
-0.01353829152413727 
0.008110938133967622 
0.005636845192787588 
0.003659996143500995 
0.0233942594194342 
0.03151056240637667 
-0.001837261374472191 
-0.005371773044229972 
-0.00880148197848209 
-0.005436629121571551 
-0.03612548590855234 
0.00839134964690681 
0.06436160535038978 
0.05840208547223586 
-0.1238077421605857 
-0.09512785646560742 
-0.02090534093249533 
-0.005450152887887639 
0.01604727896133372 
0.02284586533716526 
0.03116346552543733 
0.01545626009671943 
-0.01210735224420814 
-0.01575341382760334 
-0.007159866726025048 
0.01487309628529733 
-0.02608207357005678 
0.01529106433011949 
0.06500009696774722 
-0.03984359395226135 
-0.0883727642194627 
-0.01110247210006066 
0.0009623204341718972 
-0.0041824701984965 
-0.01523188055661004 
0.02399343646092897 
0.02417141691739053 
0.009760088911013893 
-0.006715635962454454 
-0.03160608934832749 
-0.01792649088790103 
-0.01419124165884082 
-0.06215432829516391 
0.02817084052004918 
0.06148066801439334 
0.004206363597155718 
-0.01987694677967554 
-0.04791499803797011 
-0.01889124571920779 
-0.02795295915140535 
-0.04726005884477498 
0.03813780662197808 
0.01561912599597131 
0.007108127061539297 
0.02965240343169617 
-0.004474569260990096 
-0.05292772792611447 
-0.07095222246297867 
-0.05318051020045213 
0.1014521998241584 
0.07115269267905326 
0.0003697713985171768 
0.01525752502816185 
-0.05955277241204095 
-0.09583596549395734 
-0.08107087380742571 
0.004796759568094245 
0.00841400020537717 
-0.02559181265973545 
-0.01536281015813658 
0.01698695401562165 
-0.05109990412908912 
-0.04414005837824159 
-0.02562093632327901 
0.06836685073854071 
0.1201146815039361 
-0.03715580220893126 
-0.01062067617596048 
0.05924597007152095 
-0.1223453978220043 
-0.06193190510526343 
-0.009345572847034789 
0.05463562251792092 
-0.002059884447052871 
-0.0438359862753229 
-0.009264787470157182 
-0.0423390388191105 
-0.04804283497687839 
0.03130273697643537 
0.07493422233260065 
0.1163989662196585 
0.01330045085847521 
-0.08325952294211245 
0.03655816161831829 
-0.09574950909420808 
-0.1503744520866936 
0.004795321657976591 
0.09399291467910131 
0.07926124994721627 
-0.0195137743608019 
-0.04817665744815727 
-0.03381972622610062 
-0.04465823090298592 
-0.003509632046240583 
0.02080987209093022 
0.0706657712362877 
0.1640751188795618 
-0.1257525402902967 
-0.05575107690819013 
-0.05772484150152027 
-0.2337935014372402 
-0.04026393399685604 
0.01657795319785717 
0.1338431025803093 
0.04961967518837914 
-0.009436080583530212 
-0.0498656374091184 
-0.06675846242463465 
-0.06607135466159743 
-0.0328646237174727 
0.007115413602354762 
0.01334171741871178 
0.2245060770098504 
-0.03601927365756184 
-0.05309047414001745 
-0.1469300443999465 
-0.2202940117512133 
-0.1254153070587919 
-0.03174725613941544 
0.1238551648472039 
0.05665888855901528 
0.004989730725338678 
-0.06490672843481954 
-0.0793939584130068 
-0.08036426113595464 
-0.04009859332518843 
0.05485543112581216 
0.08836682982560495 
0.1785247669813264 
0.04519013441699682 
-0.08383620072781199 
-0.1679713582811953 
-0.2313033003082541 
-0.1481233529111342 
-0.01719668379776459 
0.1345643516233923 
0.02290196145954765 
-0.02696569296661109 
-0.1180009191647349 
-0.09872446807962407 
-0.0736039944185105 
-0.03053686477785675 
0.09763226651190302 
0.1792561444060161 
0.1022463782026775 
-0.03106859942509133 
-0.142812509489668 
-0.1482851626527736 
-0.2289818035794342 
-0.1865666128774169 
0.02958145002086138 
0.2846160686638666 
-0.01238150642080214 
0.06079912060104008 
0.03429245065506371 
-0.009017482061697613 
-0.001660209168807885 
-0.07299534428127968 
-0.04982325241700588 
0.01793494493313507 
0.1185983193105544 
0.06584537002327126 
0.03830674882065213 
-0.06042293014879513 
-0.2285636791197351 
-0.2349785996042617 
0.03190306303145364 
0.2769947595164 
-0.07711130537853871 
0.06914401846794986 
0.08687066018580669 
0.1080428820928692 
0.04891779964577708 
-0.1659123792663395 
-0.2071370147689232 
-0.1666690210676601 
0.04367386103206134 
0.05391176386792877 
0.1088856145717238 
0.1194802106872737 
-0.06685577644849892 
-0.2210873288832901 
-0.09394534365166636 
0.04099067067412252 
-0.1034970780122337 
0.08676872683582405 
0.1000721775093549 
0.1064909413409953 
0.04091421489832164 
-0.1039631144388674 
-0.1522303056044216 
-0.1962454339950441 
0.0125115382030905 
0.04005845808318093 
0.06208559626567701 
0.1510504040977403 
-0.005727553805522222 
-0.1801351379704964 
-0.1754433946141935 
-0.1106035824234581 
0.04227580540308502 
0.08705239115291032 
-0.0233799664854959 
-0.0009236412860276944 
0.05956782691972475 
0.06435509604753963 
0.06123672485460028 
0.05693377531298785 
0.1043386220538448 
0.1088966321174539 
-0.0371914851963713 
-0.1071077055809384 
-0.06622836725893742 
-0.07116012270408748 
-0.135818720099964 
-0.06410787095809691 
0.02785183891645226 
0.01044974967265369 
-0.008218209546840008 
0.01369235539722402 
0.004342918742421334 
-0.05673499073096756 
-0.07405588633848458 
-0.02006546797025462 
0.08934843446057483 
0.04722704814554094 
0.008346706555194233 
0.02701042311409518 
0.02634500607941878 
-0.01347009980200955 
-0.1068272002603361 
-0.019516202109528 
0.001879316086136173 
0.008367984788853745 
0.02240592959809258 
0.0272254078521088 
-0.04615666700609358 
-0.06855789567734373 
-0.0633605800289038 
-0.03803463618292394 
0.06676722664261478 
0.0615480388821549 
0.07842545805095501 
0.1155903123413977 
0.006457194000064459 
-0.03894569115983748 
-0.0584141904558142 
-0.01064117310516409 
0.02421485588287893 
0.0005041280277956486 
-0.06955422332032152 
-0.01384548750825668 
-0.02527986202452082 
-0.03530498873524569 
0.01052913261200203 
0.01971539582588801 
0.1057043180530258 
0.1005105643827246 
0.02963483283145623 
0.03885053576052565 
-0.05533441298761851 
-0.0805356744109245 
0.04414066987026942 
0.07156733499457832 
0.04062375391592314 
0.005397351440447693 
-0.04875813018579209 
-0.003346619673420354 
0.06120957974730366 
0.02713829309039865 
0.0316837990412322 
0.05518221787836897 
0.1241734311549584 
0.07417773030445973 
0.01280329841478851 
-0.02885052048319303 
-0.1272868320428746 
-0.1529495752639616 
0.05366455371732806 
0.1249553355046893 
0.01419012345789177 
-0.006840566197251393 
-0.007323837276373443 
0.07445363243303242 
0.08661638519374681 
-0.01493505113902051 
-0.05516280393371108 
0.009913887078358037 
0.07353972468123719 
0.004920916696928014 
0.005825712492791665 
-0.0002681559154261157 
-0.07610018822730014 
-0.1543016637853898 
-0.06289523800729294 
0.09342489998165948 
0.01920061491794343 
0.01220129942882228 
0.01320203103929191 
0.01623355907529218 
-0.01372893798491167 
-0.03193110495592801 
0.01403242973833506 
0.04201890567853255 
0.0384229362689174 
0.01666872095889044 
0.06572745574650478 
0.007891245001761898 
-0.09647728408745618 
-0.1027506970314939 
0.0403174476243663 
0.09584608926542636 
0.04866449690960079 
0.03153921652036556 
-7.935594235483276e-005 
-0.01673782337929794 
-0.03794589240715166 
-0.03253329536401346 
0.006140850150823274 
0.04194863531178003 
0.04371029820301417 
0.03444056330032376 
0.0362183215231983 
-0.02782986101291823 
-0.1133069639889228 
-0.07762745532724005 
0.08994457549755826 
0.09169188688997723 
-0.01118364786690368 
0.0118028147705521 
0.007682980907727512 
0.006901182681211982 
-0.0167490508624519 
-0.01505496270395628 
-0.01550376693505398 
-0.02660789755779338 
-0.02645478691944688 
-0.004806750676152749 
0.009263345207385563 
0.03997461321695283 
0.005069828003337072 
-0.01489507538409355 
0.000190564247338419 
-0.01203802121617772 
-0.02928005817269067 
-0.01122372143922567 
0.005776843103697934 
0.03535195794749167 
0.01048967002940123 
-0.02824786962019831 
-0.03004561730213683 
-0.03538335685241668 
-0.04656173910956874 
-0.0223242539553269 
-0.001775502434406104 
0.06290613009648918 
0.02370009891266475 
-0.03897311104063859 
-0.03689965975834372 
-0.03853015993324082 
-0.00713972445169181 
-0.02011629975167532 
-0.04403924146824016 
-0.0210861183193433 
0.001407050235138169 
0.009246118530624209 
-0.01459697927697178 
-0.04088680949482608 
-0.03152086276131443 
-0.03623869303321171 
-0.05416146989302084 
-0.007500896534298005 
-0.008806949170852079 
-0.02405649646764515 
-0.01409581717957683 
-0.009595657486843958 
0.008920752441901587 
-0.008016506206318663 
-0.0376047265012061 
-0.01405198764083841 
-0.00722706310667239 
-0.01889905640856648 
-0.0107154741511436 
-0.01569922368553638 
-0.01284315452008659 
0.0281481055971542 
0.02901308704879888 
0.06297410526218292 
-0.03537380628818311 
-0.1345139362017576 
-0.02292718625372852 
-0.01015432207433091 
0.03548289187016004 
0.02313313421185775 
0.02150572417004163 
0.04731522121642318 
0.02932814137600676 
-0.01504320973394541 
-0.009343736484602527 
0.01949930835217916 
0.01350999181534605 
0.02627180576441061 
0.05126213215906234 
0.04359620856920173 
-0.08885727529249222 
-0.1261507110577069 
-0.04794713579169147 
0.01453939695611053 
0.02427410599180634 
0.02750921577573146 
0.04503940448608801 
0.04551067238073664 
-0.002865160313794126 
-0.01311772690591234 
-0.01702867338316744 
0.0009391135795075716 
0.009057328090677681 
0.00479432383265698 
0.04842915259922813 
0.006104758420507759 
-0.08064395776851867 
-0.04470809039845047 
-0.02139175415541861 
0.0101791369979892 
-0.003151106089129146 
0.02361762323890246 
0.0500383457947598 
0.02876473146012165 
-0.001106186301799804 
-0.01674809616961309 
-0.02153844256207124 
-0.008551455699928471 
-0.00757651665752475 
0.03773067072680965 
0.0583795461624821 
0.03270660587874572 
-0.04904421967258055 
-0.07946944980146933 
-0.01729519403390428 
-0.008236333498221242 
0.03070713504262465 
0.06401494243370398 
0.03022766289639771 
0.008335031997025746 
-0.007201540240707719 
-0.03900406183925351 
-0.04737315679767657 
-0.008098200269766293 
0.03518906635207139 
0.1196987481819015 
0.1017083817203946 
0.01313164153914931 
-0.06937574432899925 
-0.1175280506021106 
-0.09711990880473562 
-0.01166327601736403 
0.02226793696409062 
0.05295903938025054 
0.03962970654332249 
0.00561838286291769 
-0.06459800133540139 
-0.08719137864708138 
-0.05873018539588824 
-0.02252344911217812 
0.07175945533573297 
0.1203232726317551 
0.1333955330251507 
0.04959968585404496 
-0.05454646538898562 
-0.1177689418197907 
-0.04537256370105132 
0.02184962917619618 
-0.02466384338317007 
-0.005313134105092761 
0.0334728401223074 
-0.002874859317504645 
-0.0867457903017354 
-0.002976678605560165 
0.01963282324386123 
-0.02023452353186107 
0.08871895851635629 
0.04559388545405514 
0.1004587360718132 
0.05450630951213019 
-0.1138742971783233 
-0.07270907612137546 
0.08398687587837747 
0.1103964575694914 
-0.02268459239376973 
-0.03764507903758309 
0.008341877921509757 
-0.009011238787711616 
0.004258349411758057 
0.04476427961747622 
-0.02226824528021248 
-0.02629449661307444 
0.06325483139471085 
-0.08494739472657509 
0.06032577286813814 
-0.02977902605719267 
-0.1177683354571548 
0.07354874349697432 
0.06781361370309814 
0.1041947328317501 
0.03410846876312677 
0.009002173096626345 
-0.01621985354704336 
-0.04287471439717604 
-0.06567803494474821 
-0.03538687831046519 
-0.02625005362990281 
-0.01802481123875915 
0.1302095573661285 
0.01167145887574633 
0.02273369432469661 
-0.08767599810731377 
-0.05708446397668538 
0.001541899535886575 
-0.0598981313241525 
0.06006319567921487 
0.09089619297968853 
0.05485420516107671 
0.003319852330697051 
-0.03049118085280981 
-0.03195087067786085 
0.005915315308823677 
-0.01440212931152778 
-0.02763869869872768 
0.2558565493287326 
0.129700034478461 
-0.009441201614662899 
-0.1078534173354154 
-0.2151829344604652 
-0.181024890443034 
-0.180370597820351 
0.03300053697305892 
0.1197737628295362 
0.01632774837249662 
-0.03711744505691896 
-0.0765708535408741 
-0.08175744867567235 
-0.07661662322382026 
-0.02808333217258584 
0.09370796594787581 
0.2078830205820052 
0.03626513342992527 
-0.05745373804091131 
-0.1427649952652133 
-0.1653811152112039 
-0.1741674663956309 
-0.1389182423653651 
0.1635896919274156 
0.199858906842093 
0.02403303927516199 
-0.05167596707139498 
-0.1219882721740243 
-0.1294843062258474 
-0.1267383236223449 
-0.0571541685841025 
0.1734936971227996 
0.2377873383492155 
0.03046379060621883 
-0.07443104485365747 
-0.227685795223895 
-0.3144627837828914 
-0.2192996813477071 
-0.07048326314063549 
0.2794841400696203 
0.3066919836378102 
0.2003979959365639 
-0.00331789082005343 
-0.1252498848565109 
-0.1818835721457476 
-0.2321619692794869 
-0.2321622412766691 
0.1009810410016287 
0.3291820869793095 
0.1305630470553647 
-0.03541135312866182 
-0.185003762193805 
-0.3279690688040885 
-0.2697624436731644 
-0.07914553066438179 
0.2730197004990392 
0.223053452839973 
0.2365973049866199 
0.04503609067057488 
-0.1082447595667909 
-0.1328746877453583 
-0.06003004448400025 
-0.09548157974681579 
0.01123512540296072 
0.2372442347462168 
0.1304864502110484 
-0.05166392760549943 
-0.1505094100009567 
-0.1822052346180266 
-0.08990700029595321 
-0.1037178824506408 
0.1096834565982412 
0.02245775495406786 
0.04048706830144697 
0.0004123282114882089 
-0.002266250641838544 
0.05110244752470731 
0.1415089165408591 
0.05265370269281747 
0.008298086761673094 
0.04206561001947725 
-0.0298529828524063 
-0.06491876779567385 
-0.2073729762221543 
-0.1082597653593748 
0.04952213582897874 
-0.03084482511206765 
0.02573175028725698 
0.01801746784496474 
0.03162249677428355 
0.03531296030385477 
0.05372334311160214 
0.01062020967716381 
-0.01965122793484098 
-0.02129942714732176 
-0.003894340484887844 
0.05233395192405854 
0.02685003512343355 
0.09184064460518795 
0.0342124087387302 
-0.1172987953498312 
-0.1378831017607115 
-0.01712135512546112 
0.003237609615368548 
0.01560048637601344 
0.067444206711161 
0.106196053724417 
0.08375695973009092 
-0.09138987783010454 
-0.1464134178507507 
-0.05276631420567793 
-0.02660860445822738 
0.08189068457844717 
0.1350408067198135 
0.1556180357866971 
0.135139556685999 
-0.0743458300671796 
-0.1363076597904535 
-0.02664760446196505 
0.01713346635982847 
0.07323079482288741 
0.09512880437971855 
0.07185204953975359 
0.06880464215972829 
-0.152249479935112 
-0.2076941842858229 
-0.0129243471131591 
0.0403659030855232 
0.1441068864540951 
0.1871513750124027 
0.1437934342336076 
0.1207236635757275 
-0.1737996770473294 
-0.2282674495792331 
0.03367015587357422 
0.1041007428328004 
0.08309100412711212 
0.07446871797671942 
-0.01782625777594359 
-0.02713781243578114 
-0.1056907227213207 
-0.1205305860230783 
0.03150243397618479 
0.07307785720825993 
0.1663484972737824 
0.1575794912491005 
0.08665133962890063 
0.04204462902852848 
-0.2275494813361803 
-0.3073757025313159 
0.110174518964949 
0.1753425279273113 
0.01885049879691464 
0.04246354400803172 
0.0867839374084365 
0.03934358023987837 
-0.02347686781252639 
-0.04412364415580369 
0.01769843392186444 
0.06046391162334992 
0.03364794524883208 
-0.01041039795502921 
0.05822209039780538 
-0.02353019301970126 
-0.162157134984547 
-0.2086113168424354 
0.05030468162245766 
0.1691765927547902 
0.06719012837349564 
0.07726145630790395 
0.03955882025968958 
-0.02278973880798426 
-0.06991587516541666 
-0.06653813613632173 
0.0183898847450851 
0.05503412550790639 
-0.01131093747017485 
0.02511373416008194 
0.07615563879889781 
-0.01801210298191107 
-0.1517337608304911 
-0.1176386118542802 
0.04371243919557962 
0.09506750984790469 
0.05014800538526161 
0.04734609028026615 
0.01712689472401333 
-0.02242131536042472 
-0.06463580446687371 
-0.06448964053068054 
-0.01590138344586954 
0.02120593005324128 
-0.00223193514872158 
0.0265087516323289 
0.08646786388488434 
0.01909566723759357 
-0.141411248842601 
-0.1468869451859125 
0.01450317808432698 
0.03042883690991309 
-0.0002248999314014856 
0.0188702116372775 
0.04596721559559661 
0.0003802931510949077 
-0.06058581372565847 
-0.06518253239283872 
-0.03765437171902798 
-0.01303070374755062 
-0.04667685153366356 
0.0138438680184168 
0.1266221806339021 
0.06111969167711678 
-0.1071982593872981 
-0.1427165383456421 
-0.03985185661938966 
-0.03372814755928041 
0.01103177984317287 
-0.03362739672923502 
-0.06281722732934818 
-0.03228583602125152 
0.005130990302056519 
0.01696953668472339 
-0.005327799589963558 
0.003957371959978525 
-0.0005661402281859134 
0.007693685330716733 
-0.06264183905214019 
-0.01542082253103962 
-0.01062741970597524 
-0.01679719747844351 
-0.0341208276269164 
-0.006860054432457997 
0.02146041012413595 
0.0166353327856439 
-0.01786524403661967 
-0.00344245888338051 
-0.001826467522643966 
-0.02178688718899342 
-0.0166785600147308 
-0.005642572706357084 
0.0005219906795639806 
0.03246577450849071 
0.03266403603232915 
0.03931539243621791 
-0.05650820277311226 
-0.120371819029131 
-0.01981706741365337 
-0.004036358312074273 
0.009850616255532393 
0.02186807047980148 
0.03437065575008363 
0.04833983995976302 
0.01589325066995719 
-0.03819831326035645 
-0.02559592099530635 
-0.005066950714053429 
0.008043838443689369 
0.009959454824184342 
0.04961823479860216 
0.03665030410292329 
-0.07232333558979301 
-0.1277133971048478 
-0.04024191097051479 
0.01157371363461074 
-0.005719196239133253 
-0.01270933436049031 
0.007735335777332627 
0.01944620698983238 
-0.02065910980346411 
-0.04627994880999065 
-0.02466762098968253 
-0.008455662766306335 
0.009811922012796525 
-0.01528203669201521 
0.01511212151123074 
0.03869045194069137 
-0.006782312025423041 
-0.04809458289642108 
-0.02231114331804413 
0.01427127164598233 
-0.009967272227787297 
-0.01152426056612288 
0.01023840705402677 
0.02089019067247269 
0.000268429552532519 
-0.008398994211415401 
-0.0001234464916307773 
-0.001779497313270509 
-0.003589604701654762 
-0.01506951184043626 
0.01388134121999949 
0.0160111362186017 
-0.0103487050411251 
-0.02570389725448744 
0.005324329779685669 
-0.0005852157003860602 
-0.02593831361302048 
0.01434549078932621 
0.03379716551717715 
0.03439200996565655 
0.02870221793879579 
-0.001822221028366764 
-0.02935652027862798 
-0.02832863831108339 
-0.05825062008925098 
-4.839703545907919e-005 
0.08335346378039449 
0.03237328615443126 
-0.02474883257294231 
-0.06267554725120944 
-0.0682215055223059 
-0.07529777439088155 
-0.1008722868105588 
-0.0415242570803012 
0.09333402003836833 
0.1092724170955699 
0.002787258519192966 
-0.08472620251432478 
-0.1149260309242956 
-0.1085074320635054 
-0.1065269523310734 
-0.04415208876002267 
0.0885150901285012 
0.1014104626969552 
0.02877883332710591 
-0.03264906281012135 
-0.07988109065480205 
-0.1078790095777965 
-0.1827093368781929 
-0.1580191300801571 
-0.0008704926225185489 
0.06073776935389316 
-0.03132199105514186 
-0.08047566596993978 
-0.1309756137401162 
-0.161915973734941 
-0.127220498008257 
-0.08028406552883143 
0.07451667441716844 
0.1687721756581789 
0.1267381209789358 
0.0735708661202471 
-0.002974426230085486 
-0.09054309362076528 
-0.1576026305836992 
-0.1880777323363086 
-0.07416798982559442 
0.04238241773720271 
0.07361565939383605 
0.06477192038657689 
-0.06174512321798471 
-0.1137084084942561 
-0.1980441210970921 
-0.1807822856904978 
-0.01837834317961068 
0.07026292293755221 
0.1024815423275209 
0.1345429696032777 
0.047167242862175 
-0.08705055997855019 
-0.04226861433707396 
-0.0397051974931675 
-0.02694964235112683 
-0.006180505085662645 
-0.0469107106409128 
-0.03838851647041361 
-0.08037465884562527 
-0.0632889674257197 
-0.06614209505824115 
-0.0363740183850955 
-0.01014621159756635 
0.05766617236925706 
0.1234907655489312 
0.1275364092963978 
0.01780635390587375 
-0.02816714734794808 
0.0144785144598623 
-0.001857622584371269 
-0.01006026394540773 
-0.004023090812499283 
0.003781363243221787 
0.03929359988822915 
-0.004684938869417886 
-0.05607405090813682 
0.1938650322376029 
0.1158473569553375 
0.0214439205763036 
-0.02107530862462753 
-0.1396304404587117 
-0.06613384362803082 
-0.07659091979527469 
-0.0589297996137992 
0.03729172887000169 
-0.01186360315920325 
-0.03208002205351227 
-0.02312347540736446 
0.002588962960630463 
0.03685586897163196 
0.009974450990341255 
-0.01211531022888642 
0.1544042637727839 
0.08031093967994953 
-0.0003511832707058606 
-0.06210840346911004 
-0.09518860120123403 
-0.1011164937101262 
-0.1083042238876085 
-0.02583684522236156 
0.05332638123364566 
0.009638311497599483 
-0.02423012932450739 
-0.06524117053515881 
-0.02349205921997979 
-0.0136852920829219 
-0.0696917383190076 
-0.01804558650994596 
0.1156332505463178 
0.02357165065235329 
-0.04232901686877963 
-0.1408358845485164 
-0.1432085055740884 
-0.03224473077772323 
-0.05355388961416521 
0.06407566662578339 
0.09842878535345716 
0.05189192435004077 
-0.04265586031402305 
-0.1326462087689059 
-0.1098772762834747 
-0.06599501380564421 
-0.1178536125192929 
-0.002296421843171704 
0.201280456647393 
0.02877541287849972 
-0.09111724726749393 
-0.2044973919173285 
-0.2189391381303117 
-0.04023915743323775 
-0.01644791631822115 
0.2012642761000915 
0.04111353405464151 
0.03093012892727255 
-0.03007452707959211 
-0.1104711381726508 
-0.1406338441390113 
-0.06717529266881409 
-0.01602110273488465 
0.1159202193993593 
0.2294586921666981 
0.006410791892980281 
-0.1088609389211892 
-0.2564806039775249 
-0.2343678679024225 
-0.05181699754167438 
0.01297515941960127 
0.3378678162919183 
0.05420205581720506 
-0.02898894724673561 
-0.05642947854795481 
-0.07112021134058695 
-0.04043718206220076 
-0.01281573050327005 
0.03036275296254472 
0.1152506199146974 
0.1500830854947937 
-0.1189374185361683 
-0.1331343595429375 
-0.2171149788743746 
-0.1913202273983187 
0.03779218548939347 
0.1018794208117364 
0.2385623248306298 
0.04518077931461687 
-0.006560006505441484 
-0.0293952695448167 
-0.001693521811933674 
-0.0161282138226218 
0.01699214411949097 
0.04928510406621478 
0.04926626819764792 
0.1524006150680579 
0.02419264221482076 
-0.05681442350382318 
-0.06654235394702635 
-0.2131216756815767 
-0.09601218202638966 
0.06681757599558912 
0.0699080725502948 
0.03293909100075608 
0.07405934187349443 
0.04510125233328494 
0.005830770145730131 
-0.1195118797064184 
-0.1527058599082873 
-0.0381339813020923 
-0.005835711732472644 
0.1232695899249735 
0.1704891980637781 
0.1006844884191707 
0.05133893731433754 
-0.1441657018426018 
-0.2116156409687674 
-0.04335649785606442 
0.004726136706689935 
0.07324865741530474 
0.117988892637977 
0.08515391342964261 
0.01578480238790419 
-0.1264922929784545 
-0.2139258583753831 
-0.09946736921226543 
0.006115993714879244 
0.1410706888066379 
0.1918448066857284 
0.1497434124726169 
0.04264163602879985 
-0.1732495664141354 
-0.2502091678887548 
-0.07735378694637382 
0.05373817444393805 
0.09268383427192688 
0.09397288642871664 
0.0370693178757279 
-0.01262265380029846 
-0.07596499176716354 
-0.1120084816631596 
-0.03412329623396274 
0.04984223318290156 
0.1829234382416183 
0.1531382092682177 
0.08497809192286605 
-0.006789607718067282 
-0.2231167806734796 
-0.2983400657468818 
-0.02800728684592001 
0.1298277359855406 
0.03707379525364659 
0.02343130522688178 
-0.005786185713141756 
-0.02518092972845559 
-0.05634981312711696 
-0.02663289935857882 
-0.009753276286230794 
0.01204718130222022 
0.1300352225622641 
0.0806276396211417 
0.005514562657717107 
-0.03649475005418405 
-0.1503971743671579 
-0.1766899514002517 
0.0236584270993481 
0.08424430984651765 
0.008240554756560109 
0.02049826823378032 
0.006139089693942381 
-0.03736436653674786 
-0.06877080963248279 
-0.05849097444573878 
-0.02383099987587501 
-0.002233938525566987 
-0.008424768836398949 
0.07756694256175085 
0.1022934702383778 
-0.0107546744344192 
-0.1548213462090073 
-0.1046567313183109 
0.01592999424120555 
0.013644413616365 
-0.01961006673939075 
0.0376646042590342 
0.05376213569653446 
-0.00248987616885383 
-0.03818400135340174 
-0.05345008633821344 
-0.04118825721740178 
-0.02619160325818307 
-0.07077789934544543 
0.03087530996399344 
0.1569348205274236 
0.009697468809324305 
-0.1504711847579565 
-0.1189826852745414 
-0.04530626989893045 
-0.04144945683184593 
0.01156859666846323 
-0.01510084297097954 
-0.04483690657398684 
-0.04122168334143245 
-0.01183960050213597 
0.0006112058273283932 
0.001732395624303072 
-0.01200532028955974 
0.02365822654974225 
0.0216416354139722 
-0.05051944141002299 
-0.05351015729098811 
-0.03860140420724002 
0.03901646198108581 
0.03516842136093422 
0.01993169545843808 
0.02684330919175763 
0.0234771604847309 
-0.01035915618036943 
-0.04714872848033581 
-0.04868764879763535 
-0.03005129015199464 
0.03665000717167789 
0.02730606404818686 
-0.006004027852382809 
0.04864872774969445 
0.05064306957903403 
-0.008782153960565435 
-0.06688593097263521 
-0.07889597650590151 
0.001802990752775748 
-0.01279100067812091 
0.02157001381635075 
0.02154925431878008 
0.0264748036346522 
0.01683337017707628 
-0.007247791033579143 
-0.02751012681407995 
-0.007738554193822015 
0.02995500166061416 
0.002921836294436746 
0.002977337862180165 
0.0271307095994369 
0.02365177277936587 
-0.0533938099108657 
-0.1048688850102846 
-0.03741462537101378 
0.0100940915370112 
-0.001793427086576041 
-0.01643794606756017 
-0.01321441505476574 
-0.00953328110181248 
-0.023859912381572 
-0.03756218860752259 
-0.02735973669747404 
0.008857163676635055 
0.000536647096279872 
-0.03000996593742054 
-0.01719290629418634 
0.02632825701727268 
0.02124966959218512 
-0.02395504249522057 
-0.02420892055585124 
0.0134094676104376 
0.003866392124088476 
-0.009908919691686125 
-0.01800645554669816 
-0.01562080206976117 
-0.01632714606364338 
-0.01931997535439641 
-0.01145974624120544 
0.004545423957133084 
-0.0135725606238734 
-0.02449123561045873 
-0.01825493566586313 
-0.02123694471139546 
0.01367883862709004 
0.03233408687424225 
0.01844841511335911 
