solver_type L2R_LR
nr_class 2
label 1 -1
nr_feature 5632
bias 1
w
-0.01633292359595329 
-0.01437307007321806 
-0.0012548978380646 
0.000108991956493845 
-0.008317511864814728 
-0.01635085935481878 
-0.04394716719043561 
-0.0128267654751073 
0.05194448312002308 
0.01480202731390912 
0.01139486071967716 
0.01699797521146847 
0.005833088493668339 
-0.01161092302311221 
-0.01547698579970019 
0.004953371294800817 
-0.03643322329727053 
-0.03076931464305185 
-0.008280455489984098 
0.003504029946817717 
0.0009030902989248697 
-0.02153763450883427 
-0.01774709732117727 
-0.02354354545060109 
0.005183846012879437 
0.009478007326672762 
0.01463225283768106 
0.02528176818389554 
0.04948254531206605 
0.003225051527354484 
0.01023698419928398 
-0.00464719333112847 
-0.01293141985863111 
-0.04335240069203426 
-0.02737702523415548 
-0.02481685353729664 
-0.05382291034140756 
-0.05419518062230342 
-0.04552429658094438 
-0.01924186857773404 
0.08703943760866685 
0.01195751819041642 
-0.02477382749397871 
0.01303141737466508 
0.03225717537973248 
-5.005800961311799e-006 
-0.01838965141433323 
0.07217174990368615 
-0.01210606683024496 
-0.01098370187656493 
-0.02885918189641247 
-0.03253686972679614 
-0.05205404405279614 
-0.03827480114851281 
-0.01611315713679307 
-0.02425095264475741 
0.09884833379218608 
0.06059218261677163 
-0.006717771750138619 
-0.01593002603419404 
0.01945460757117058 
0.002302855403133461 
0.01984667005948971 
0.05497616171901303 
-0.03202519054988167 
-0.03228242668522503 
-0.0321931940556919 
-0.02331066553542724 
-0.0208577282737688 
-0.01007048354240833 
-0.01376472007729092 
-0.02221672706410872 
0.03817692716127127 
-0.001735262558719067 
-0.03087144769283196 
0.01747713579172603 
0.04976873559347071 
0.01773327778830664 
0.02411474466250894 
0.03319980237966225 
-0.05984211762978277 
-0.07049094297296367 
-0.03652130550793651 
-0.02005296011949419 
-0.009442682351357536 
0.0019297438582735 
0.01577711203407773 
-0.01555215601213584 
0.01909828837668545 
-0.04818082490135089 
0.002805510232274198 
0.04117308937417145 
-0.007675028756521931 
0.03004904878292488 
0.08425309555448504 
0.07938287632146712 
-0.01727382430101423 
-0.06500024550570649 
-0.05978188493004576 
-0.03131938269332244 
-0.02354709538196005 
0.02651104979422837 
0.04409560409499366 
0.01230043145688263 
0.07627913602801136 
-0.06079106547930376 
-0.07435540240525392 
-0.003949328776639409 
-0.006426717129809481 
0.04701701714016535 
0.1101189109846232 
0.1005495864239832 
-0.007911038083596196 
-0.05079886859286125 
-0.03188973620917785 
-0.04436802723983056 
-0.05450091355955876 
-0.02453250542527671 
0.009809335783005089 
0.007651029858554965 
0.01438283984797932 
-0.007213283015745323 
0.01456306987902463 
0.03695195021536583 
0.01715019373254999 
0.04214613403362397 
0.03758720501085335 
0.03148802877965631 
0.08869568094014016 
0.006297686392153546 
-0.06035441414280395 
-0.07471658670151155 
-0.08740586029494966 
-0.06845589189521084 
-0.01474795690720002 
0.03389252837717208 
0.1018948362805676 
0.04166955305702186 
-0.0190538770307469 
-0.05335084154089 
-0.05738222406209741 
-0.0297545736747298 
-0.007144794034548506 
0.04387261443307625 
0.1040886055718108 
0.0430607251134729 
-0.01664639591719961 
-0.05636043315706787 
-0.08268501134163869 
-0.07227142421561728 
-0.046681949443698 
0.004223394438330203 
0.06817891950828911 
0.04978653556148947 
0.0328388461952406 
-0.007457056690054044 
0.002184283295353022 
-0.01880986735661813 
-0.03100726289508689 
-0.04423092173824982 
0.0881293445372164 
0.008225987706367188 
-0.01741935657254318 
-0.03273222530897762 
-0.06844683584935365 
-0.05514561252496866 
-0.02788194033893283 
0.01984030704574575 
0.06324892556844707 
-0.01274236641874047 
0.07065484575720686 
0.03310757632910465 
-0.02341405991716814 
-0.02901274658476391 
-0.04324980635853969 
-0.027335989725672 
0.02043717410346993 
-0.05684781060968454 
-0.00519184935378538 
0.03691235788727153 
0.01551495914902151 
0.01185806151279139 
0.01117831657002873 
0.00145314117550821 
-0.09774526066829661 
-0.199875813471872 
0.04684271197817638 
0.09620489260321524 
0.07820723947195264 
0.09314868935866916 
0.06544412318561729 
0.01309593404943269 
0.0277081380855522 
0.0142454908721911 
0.01011072116487561 
0.0128008925365671 
-0.0261506255923411 
-0.007972220112286311 
0.03926792275036441 
-0.01369435432284995 
0.07429548913102192 
0.01040971423010077 
-0.01793196193987489 
-0.01081887656710615 
-0.1336629608181066 
0.007346440715295002 
0.05306684804954159 
-0.08259625595622766 
0.04690816186006534 
0.00803227034953613 
-0.1157541337304044 
-0.1459967807243927 
0.01209687414468075 
0.07001068917265083 
0.02703696182739981 
0.04346522591346577 
0.1135782224963097 
0.04096168954479765 
-0.1108017351554022 
-0.1066113211903162 
0.08203612147634018 
0.129549131836412 
0.02611444436383062 
0.088881245948712 
0.02675690369557135 
-0.01444773929849273 
-0.1168617611204619 
-0.133014961851951 
-0.0231673341527304 
0.0501272062789541 
0.03139078258967906 
0.02390835099395169 
0.1239185225850645 
0.0299742739747314 
-0.09499209566327553 
-0.0654317989712961 
0.03881491792209853 
0.1060021364224125 
0.07902560418720332 
0.1450718263433637 
0.02481758734602007 
0.00218591407008989 
-0.02116427256493746 
-0.0611556907448975 
-0.07745107998501613 
-0.05020315270223281 
-0.02416309640265048 
0.03426791400905764 
0.1408873070571089 
0.06352260914751706 
0.01394192696896861 
-0.06922615746424082 
-0.1252877025841939 
-0.07504015921575007 
0.007296771842577609 
0.1574333823227802 
0.002943283509293287 
0.01232008266513529 
0.02418269602595097 
0.03678996187117963 
0.03713586774289077 
-0.03561578656410322 
-0.0254742109084814 
0.01724514039597182 
-0.0132700726567054 
0.07323491393811737 
0.05486190272107203 
-0.01594710665091354 
-0.05577228539252561 
-0.1224924125809709 
0.01939300410535413 
0.07236599454674729 
0.003976948043550381 
0.02040193873781683 
0.01605403824793507 
-8.234528015107307e-006 
-0.02681807878395522 
-0.06791235585743019 
-0.03511501205130627 
-0.01558489132622388 
-0.00283096987523023 
0.06506037098158159 
0.0868771486217382 
0.05242230411114355 
0.01376505214270726 
-0.07371417691292609 
-0.01121796183596728 
0.02801652846380399 
-0.03716077877869912 
-0.02471234711980576 
-0.002106274056795326 
0.0708764761781301 
0.1005665738619935 
-0.01269770996468005 
-0.07551846079326333 
-0.05021536674679444 
-0.07147854787590097 
-0.0252532682003751 
0.02090620938865482 
0.04534605575185659 
0.06624373698796163 
-0.07228327606900746 
-0.1092426578356407 
-0.05170609724056108 
-0.03838363799447585 
-0.01461105466851381 
0.01131826404061853 
0.01789306571331287 
0.01686204723389487 
-0.00756564174865832 
-0.01138754578019826 
-0.02637718200879492 
-0.06164802615567819 
-0.02460757791462743 
0.08243636991149946 
0.05475666273420776 
-0.02229006231722502 
-0.04509920993225139 
0.02028616784775987 
-0.01352018535944058 
-0.04323488522718821 
-0.02394382562275959 
0.008670990760592285 
0.003141369688636736 
-0.005888616591822288 
-0.0005951539453820518 
-0.006189113641723933 
-0.03368258467641083 
-0.07132082908287062 
-0.0178824290202045 
0.06223179900993919 
0.04369442180284592 
-0.007302273177802151 
0.02228378881266394 
0.07522855360726681 
-0.02814345524948819 
-0.1005245159196299 
-0.05943384996112891 
-0.01767738812717313 
0.04485657113398257 
0.08272663245848715 
0.03402922839007787 
-0.03992801298640479 
-0.09174464004765345 
-0.1185127249519238 
-0.05068354507421839 
0.008166079188277289 
0.04325272498213152 
0.1128743211927045 
0.09355375541705224 
-0.01105532671971777 
-0.1056143986326067 
-0.01133877172750693 
-0.03116236210666606 
-0.02720837459139178 
-0.03223981926638289 
-0.03197962489997892 
-0.01934449730801061 
-0.01844175638022758 
-0.01476146304437252 
0.01918316007191587 
0.004094636911808562 
0.01173391036268926 
0.005433761480329138 
0.01093063869330319 
0.04798969600071258 
0.02538184291408175 
0.01265218411340424 
0.01250874357850451 
-0.002070984174673111 
-0.02373894577855158 
-0.04286049904560207 
-0.0530490979645718 
-0.03361958405585228 
-0.02302590039948646 
0.009817873359511505 
0.02789449701709307 
0.006758775593850292 
0.02909537362305463 
-0.005665990308396473 
-0.01082571369633387 
0.02508621010900191 
0.02751326879621868 
0.04129553766289414 
-0.02216184199301595 
-0.01639336858970137 
0.007449815854796856 
0.005609055182416072 
-0.009476527708189379 
-0.002296956308754246 
-0.000528561382756991 
-0.008531290698842859 
0.01907750636556111 
0.01476242062490845 
0.01886503885680971 
0.009224260753368631 
-0.03602704858047955 
0.004386904141989412 
0.03071365916168353 
0.02459526844304931 
-0.009062121021306912 
-0.00947584583831127 
-0.00282214560166876 
-0.01065138748870326 
-0.008039911321505399 
-0.0162953299663019 
-0.02304241805556169 
-0.03411261573177179 
0.02446178718238166 
0.02561993083283273 
0.01943449451931468 
-0.01158316958730876 
0.007918022825990613 
0.01396739459937314 
-0.01931039932339017 
0.02455837313109624 
0.0009414560013559174 
0.01142365318663836 
-0.01023765278344532 
-0.002712585298941091 
-0.01247821753563921 
-0.0156372734927057 
-0.01706022994122629 
-0.02474690295741203 
-0.004396267426772233 
0.03360390490470522 
-0.006499158286775289 
0.01797948505004939 
0.03958268324500856 
0.01388079950736321 
0.02866398804663142 
-0.001925534048531268 
-0.02418206023508975 
-0.003971040383673929 
0.008515253588053041 
0.0007830888227253318 
-0.03276742413767227 
-0.03586998284020811 
-0.03587982198985809 
-0.03075248625314835 
-0.02966991476280862 
-0.007154423220632765 
-0.008900373375582617 
0.05180723019130991 
0.08289042110416989 
0.04457623919701532 
-0.006935426225381021 
-0.004540475840666512 
-0.007049461034812949 
-0.002621324237576203 
-0.02477562839878264 
-0.01616625755710422 
-0.009854255282165266 
-0.0001445248911130918 
-0.01156710487821528 
-0.02006686914777196 
0.04144620155037294 
0.02733087867169983 
-0.0196233863120059 
-0.007841667742253738 
0.02334209882214897 
0.03271567626940173 
0.0245412582213703 
0.01360096822693456 
-0.0315484358538354 
-0.02183649865867908 
-0.006340824269247831 
0.02492560808561701 
0.03880263495471786 
0.008464256637109167 
-0.02404615436267199 
-0.02106188518380707 
-0.003164890642466894 
-0.03146829413891401 
-0.03101758469944289 
0.02302231063708096 
0.04512182748992899 
0.03028761302180323 
0.004040200997503661 
-0.01389089488811265 
0.003335821173345303 
-0.02419023057152259 
-0.01269980291707678 
-0.0130507048022694 
-0.02389881167032928 
-0.02209053357942417 
-0.01843406687008566 
-0.0006284364369830015 
0.08760777162668106 
0.03106613172251512 
0.02422404352731427 
-0.01068605573917373 
-0.06128426486646603 
-0.0314080852246508 
0.05650572126431235 
0.03124333245451956 
0.001615242389417825 
0.004117376692772362 
-0.01043328568643334 
-0.04328101105242039 
-0.07480615137051729 
-0.06210325877783118 
-0.005332679566422506 
0.03779117570390877 
0.06424948230560569 
0.07358206388234978 
0.05095952834996469 
0.02770589353176583 
-0.06779080576112712 
-0.07916505685855584 
0.07292256600907823 
0.05033870712368174 
-0.00871048917965502 
-0.0002983635664663212 
-0.01126215250037043 
-0.02256927125905116 
-0.02448258196934881 
-0.005790341057759987 
-0.02273655550829325 
-0.008773469107271909 
0.01745954178173924 
0.02915956467916343 
0.08053712716750067 
-0.006703321776998471 
-0.04441470315228552 
0.01969672434919216 
-0.02963457108990492 
-0.00852653432159939 
-0.05257662777670349 
-0.03954821106100257 
-0.001791123389993463 
-0.01622095798666814 
-0.01793405380536221 
0.01044719077040116 
-4.225038390495511e-005 
-0.03207178584707277 
-0.06030599926317598 
0.00814028136933357 
0.07921285118911579 
0.02572591220571852 
0.07416699676511233 
0.06107479746297676 
0.007181653999658737 
-0.02536893059150571 
-0.03684938172700789 
-0.03584503321513045 
-0.02995705520880458 
-0.01604017680314876 
-0.01838461317403189 
-0.01749804337258651 
0.006699606024997401 
-0.001636058769769903 
-0.01072071939873626 
0.02219698635021771 
0.01722353121028849 
0.04448061431332434 
0.08335141029397268 
-0.002130246955832844 
0.03576990842204687 
-0.01327290981874015 
-0.07651636155436645 
-0.05773681119635839 
-0.008700233817008829 
0.006059373655622345 
0.004404147652853968 
0.01992797235055569 
0.00426242717271287 
-0.04346936673051963 
-0.03856754845626632 
0.04960645569575882 
0.01707594775973504 
0.114186383113849 
0.1455377096961209 
0.06902102863283463 
-0.003228355893869746 
-0.1126433410459134 
-0.02807306834141986 
0.01676448881927511 
0.07462267436385636 
0.06438991409066897 
0.02025610337818658 
-0.02597727706860909 
-0.04224981195221637 
-0.02745875779781212 
-0.04977864557409744 
0.07080002893494387 
0.1903370341630538 
0.2128112562552282 
0.09227188980839235 
-0.007327326330575986 
-0.1136964072441995 
-0.1311824736348393 
-0.03757354835339203 
-0.03772350871922007 
-0.01762192419595553 
-0.0210342987073844 
-0.02488728959984474 
-0.01292488281548082 
-0.00601681362015302 
-0.01304554806239509 
-0.005158687406093329 
-0.03187576216742286 
0.0506709369259665 
0.02004310764475984 
-0.04512992673861778 
0.04962610408007585 
0.06768728693514298 
0.05300784235598321 
0.007197376108867479 
-0.08682978245521165 
-0.07746546674302408 
-0.07409659569877669 
-0.07459121099061659 
0.02423950402068468 
0.09757082418362094 
0.08074588954466475 
0.05094400515077166 
-0.1294049498124298 
-0.1067305817106136 
-0.05197317111819307 
-0.0297535058653102 
0.1529716064900715 
0.2062346008845144 
0.1869445185592968 
-0.009731960312068629 
-0.09515270588084841 
-0.1231522366765168 
-0.02811250674243061 
0.0589900098229312 
0.06424797764445171 
0.04692521658691076 
0.01245816499157648 
0.06362444605625002 
-0.1469842430724372 
-0.1924149404986485 
-0.04938533700184963 
0.02120616367740962 
0.1112757238088905 
0.1427841628220636 
0.1601898607460449 
-0.05563901897244391 
-0.04762584028893052 
-0.04892485147220067 
-0.04520165554199163 
-0.06421455594075982 
-0.0712367834522072 
-0.07618902494133918 
-0.08818271443905465 
0.01630991660504196 
0.03454960329203267 
0.07146223793502932 
0.113824414374759 
0.1321759444007356 
0.08948189697566063 
-0.07878880110480785 
-0.04446698404952944 
-0.08983924829348618 
-0.09860152816765123 
-0.08623128855950893 
-0.04870636725037707 
0.02151734925620465 
0.08343272239973421 
0.02319280655721201 
-0.0580653745167326 
-0.05549682013762781 
-0.07847692412852703 
-0.0530015294529038 
-0.06220497294841026 
0.0085058032381247 
0.1500567973200566 
0.1132783975617052 
-0.01174008769727907 
-0.04185740145436243 
-0.06350729887702188 
-0.04735083553534821 
-0.03274687564000141 
-0.03353847312044515 
0.01225326703420079 
0.02257738919089587 
-0.02242098575738547 
-0.03387780767263465 
-0.04786957095657211 
-0.03230050017731843 
-0.0009215367234915216 
0.008144654494784477 
0.06032006665454269 
0.08450315095006952 
0.0218140243137421 
-0.06157940656063388 
-0.03353787669673258 
0.03320329806078513 
0.1094721711055805 
0.1139804743669942 
0.001633620367108664 
-0.07297615273583311 
-0.08260124735119168 
-0.08602117297722173 
-0.04225372728120184 
0.05025947816781475 
0.02480372715679085 
0.06006126138441407 
-0.006704816115125623 
-0.08556535110401344 
-0.0935019235327454 
-0.08142194082627983 
-0.00901223693672663 
0.0771701844811348 
0.08792895192344061 
0.04305724394878042 
-0.02769602989800608 
-0.09108128343514438 
-0.1033292249366365 
-0.04430399971090177 
0.03134978935421037 
0.1710301576472924 
0.09362001866776479 
-0.04276871250525838 
-0.07438387165184024 
-0.0974901869172983 
-0.08276564056398449 
-0.02767845053551982 
-0.01579456035177237 
-0.003273462102584245 
-0.02427995918971047 
-0.05064898343234699 
-0.03213868893598428 
-0.02446312370904603 
-0.03258406622052461 
0.01819158037376073 
0.02547839179773054 
0.06583540686044481 
0.003820023485511569 
-0.043317599198662 
0.0404295252087011 
0.05935539440270545 
0.03172919633515185 
-0.09511193844310983 
-0.06315387022926369 
-0.0251153531602936 
0.01014502242043206 
0.04414354431405341 
0.03407777295841429 
-0.04262520629879497 
-0.09814173118471531 
-0.07362161305333916 
-0.02281385083991072 
0.007209014934829402 
0.03640913561867251 
0.09799861854690291 
0.09989173285286086 
0.006192587984539655 
-0.08391534021019259 
-0.0985492268590642 
-0.07212597729709726 
-0.04252271653882267 
-0.01666971883723853 
-0.01827863560856039 
-0.007806255927277628 
-0.02184059160957488 
-0.06889085292608289 
-0.06918742808330756 
-0.01650326050327124 
0.02345841611347738 
0.06886229901475138 
0.121430547905255 
0.1269438815843429 
0.028856843907403 
-0.05640082072092814 
-0.02120838783298949 
-0.032895710257099 
-0.03132961950242177 
0.005799801637807252 
-0.0078408009075844 
-0.03038738806926658 
-0.02743239433863279 
-0.0205946134064887 
0.01759178822579884 
-0.01854122823943898 
-0.001965597342481412 
0.0180617254722676 
0.016045049256731 
0.01185317942097985 
0.0114106566683759 
0.02998353871334155 
-0.01544035902519967 
-0.01592013532701623 
-0.02660327767560426 
-0.01713612247134133 
0.006939498726425518 
0.006519216490075453 
0.005846146443525121 
-0.007426557885396206 
0.03735496530579132 
0.01484611868765644 
-0.01730614204029406 
-0.05443479416024977 
-0.01423449168098839 
0.05676060101121744 
0.04708143833621365 
0.04712400886821088 
-0.002222348851603091 
-0.01432311466705828 
-0.03128323646891468 
-0.006809996252461681 
0.0003906719808184809 
-0.01880763269658419 
-0.00526370164003024 
0.02875069021410231 
0.04621074950076133 
0.003972448396035971 
0.001852298174186921 
-0.00458833482695469 
-0.02652519837724202 
-0.028093328783556 
0.003574996154789771 
0.04889850018842347 
-0.0330025820263361 
-0.03925603263080723 
0.00411661516520797 
0.01937347044651005 
-0.004987881148816009 
-0.02226779402687976 
-0.02662952314229638 
-0.03930585509737905 
0.007707532524286614 
-0.005827942487236191 
0.05213318811227238 
0.05263060097618546 
0.03820531844887348 
0.01362007720351923 
-0.01952372651473114 
0.01813792263362832 
-0.04716225694896117 
-0.05217876730419679 
-0.01105390105516041 
0.0187938204473255 
0.01791671969839432 
0.01324151745038289 
-0.02497535722595475 
-0.04538299024324762 
-0.03633004478517086 
-0.02873866603791346 
0.00284637736559357 
0.01927895545093187 
0.04717052430752989 
0.07684851260334936 
0.001124452780794229 
0.004488570138599929 
-0.02964461620663404 
-0.04031136202127452 
-0.02708436020228998 
-0.0163470370883515 
-0.009441242860499402 
-0.006702447095972675 
-0.001604073425939775 
-0.01106990408357451 
-0.02410881416446617 
-0.03545954339769521 
-0.03579777964512519 
0.008913515216854764 
0.06224390881371388 
0.04933674193057862 
0.02953296895325766 
-0.0009611277980284253 
-0.03455198691065997 
-0.004924637501244668 
-0.004941986723470637 
0.003698423741473313 
0.00706267513628381 
-0.002198213858195421 
-0.01084463610054666 
-0.0339676444198355 
-0.008870798765161182 
0.00442600020496114 
-0.00940701314889701 
0.01423724843537522 
0.009866232604507735 
0.01219109318987622 
0.03297400507348434 
-0.006049099942518936 
-0.05040828910030747 
-0.05471549537107422 
-0.02732579922121427 
0.001642063681914264 
0.01319100659846872 
-7.935836887013829e-005 
-0.03279884864671798 
-0.04054140502287776 
-0.02435921683440586 
-0.04490215444472546 
0.02506434078212972 
0.04831715499002756 
0.06795588461793335 
0.06185072745109811 
0.02810169054137531 
-0.01303670718761619 
-0.03624766006217325 
-0.02678159296855089 
-0.03258803523713731 
-0.02395574347190843 
-0.003681923657686337 
0.0008871249755886689 
-0.01948718978633841 
-0.03064348423363751 
-0.05251352242896645 
0.007278031544572262 
0.01713623521893604 
-0.0831622834805216 
0.05863065408761373 
0.1283151148523438 
0.06485864545756899 
-0.002943444696146776 
0.08478374238032251 
0.09018738156173793 
0.04421230647429018 
-0.003199930258684988 
-0.04011391111746127 
-0.03204073910345656 
0.01684376911608842 
0.05275657517471093 
0.04982728047100987 
0.01930870091204492 
-0.04173432505465052 
-0.04236123377561146 
-0.04219691548269366 
-0.07327954890377053 
-0.008828244121213469 
0.03092186300612673 
0.04352137225797226 
0.007332645024840374 
0.04192321983085774 
0.03394238361965686 
0.001641047253364783 
-0.0063322475237594 
-0.018831010113456 
0.02420565014100017 
0.1050941262679799 
0.0129744244554482 
0.03223495363507792 
0.01721169118522512 
-0.07894236064867675 
-0.08815864226671837 
-0.03610853869825749 
0.01434881063685036 
-0.02868592026032013 
-0.06289202865285228 
-0.06377186178648675 
-0.03012519109882418 
-0.01234493777578806 
-0.02205954881975827 
-0.00886743074190163 
0.007620565083116026 
-0.010736625923724 
-0.07289692760055576 
-0.03591399768624341 
0.04306864856359154 
0.1093653533405386 
0.0315821768183946 
0.00148185346751366 
0.04516117078961544 
-0.02138974967275963 
-0.06003502765519946 
-0.05209358079132243 
-0.01679544849832446 
0.002354330743927246 
0.02207761065415187 
0.03288789519429265 
0.01525322177031699 
-0.05996673215972109 
-0.1068352833222255 
-0.05204805332894953 
0.04925476171338111 
0.1193120857039768 
0.03776332428553948 
0.009614863873340363 
0.1012437130291335 
-0.05718626315385755 
-0.04640145863103434 
-0.01433843543704026 
0.02901748392391744 
0.04818966810899699 
0.05069768392045755 
0.01933354590687888 
-0.0311630166185668 
-0.1310725078666858 
-0.07003176251629487 
0.01853900696022463 
0.07386068861485774 
0.1298746829208515 
0.1240548911270026 
0.06188293607079071 
-0.04150819340079021 
-0.1004172096459045 
-0.02183709532897526 
0.01683013119716177 
0.03302579015947681 
0.03639563042167331 
0.05792205476777269 
0.0310248547532491 
-0.07779400293213035 
-0.1483738718523756 
0.01262296843079457 
0.06077501502579448 
0.104058441516748 
0.08585200967962781 
0.140625247585256 
0.125036995447823 
-0.1048788129683846 
-0.1275938386571296 
-0.1034525669460561 
-0.009164973539303093 
0.0348948058397305 
0.02672712021264339 
0.05260153725954444 
0.04454591204244968 
-0.03550402256857823 
-0.1866445371396773 
-0.1497809613432052 
0.03456342763077874 
0.1434030378254491 
0.1592301172092514 
0.2333824527474417 
0.2351711239764393 
0.01167783367351828 
-0.09915382406117204 
-0.1325094794354749 
-0.05649022184351188 
0.05204738143119426 
0.06723392529828172 
-0.006566123309570612 
-0.04004518415767773 
-0.05783657681616626 
-0.1394452228918831 
-0.2332809359743746 
-0.03340298588949212 
0.2049427622483092 
0.1925888091053144 
0.09041121777278052 
0.07526162413781365 
0.0383702369701494 
-0.07137810901297224 
-0.05589390362801629 
-0.03637228693453166 
-0.02382327443195948 
-0.02994894511345153 
-0.06497301377585327 
-0.09542783114047738 
-0.06328250229692008 
0.03650208862248427 
0.02169790308570425 
0.007414199779213349 
0.1056619064088252 
0.1388364514407542 
0.02946854598650505 
-0.06400995157306637 
-0.01712771740548603 
-0.09345048338708624 
-0.0802481605866625 
-0.05928201288316823 
-0.03730175285325878 
-0.01327653211416014 
-0.01076997638190547 
-0.04606052137639806 
-0.06768428420933914 
0.015867907063569 
-0.01219076721845669 
-0.02363799473633512 
-0.02320001848109101 
0.03085061221755718 
0.1307631978985048 
0.1399178501823008 
0.002614806052639071 
-0.05165814696572563 
-0.07394991296416831 
-0.1030981556709765 
-0.09431547041428948 
-0.001030544803844391 
0.08253113019176789 
0.06558184764306162 
0.008486277528768424 
-0.026399828557496 
-0.09227551166786348 
-0.1647903894288336 
-0.1540864165338363 
0.03412769613119714 
0.1702527258104997 
0.1179894124132061 
0.05180941482034947 
-0.06553396090810192 
-0.04159629483375955 
-0.03802162870828681 
-0.04112437997993428 
0.07711928431206527 
0.09883078488870266 
0.008173919762350896 
-0.05505976699581728 
-0.08674756706268216 
-0.1166776959574117 
-0.1068681318934154 
-0.1277972794958141 
0.1187968029435964 
0.2125094985107913 
0.008880075911977538 
-0.04723638516969855 
-0.1170081618938447 
-0.07023776315576259 
0.005974201146133245 
0.03063716732602519 
0.009774375896012696 
-0.050857284214898 
-0.07205367932859233 
-0.1036432225121623 
-0.05868634091644476 
-0.03626114464062347 
0.09147794313678834 
0.1013863027678368 
0.1136036025986175 
0.0970178764272135 
-0.04713242128834348 
-0.04869526243869678 
-0.04420148880609526 
-0.03692533876908583 
-0.03645988105039739 
0.009521100321184063 
0.02918493639081439 
-0.01107511678570495 
-0.0465010001668821 
-0.05709464031538957 
0.07368509959717227 
0.01472544090117626 
-0.032936865510416 
0.01845374113422021 
0.05667342654408474 
0.04198638630467865 
-0.026382305917427 
0.007998333864221444 
-0.1113947558675053 
-0.1011125912026984 
-0.07023085366751122 
-0.005781746578983471 
0.02297473790335736 
0.01102022082801711 
-0.03804968768480736 
-0.07880898668112626 
-0.01194924939542619 
-0.03521185156914953 
-0.01883619738180559 
0.08920927377868562 
0.1414676958464252 
0.09524588765509903 
-0.002273694627676396 
-0.01226977862182123 
-0.07546549654916561 
-0.07200587371887793 
-0.04989421838110705 
-0.03990144280042674 
-0.009332969394967127 
-0.01181005297489046 
-0.05455986950104447 
-0.06438727687088629 
7.056194955324031e-005 
-0.01390277092486677 
0.009563125265754617 
0.0198805937247197 
0.120785178650956 
0.1188683588722266 
0.006319858126757554 
0.0139149870202335 
-0.03845316874758535 
-0.02198987079273137 
0.007495449157403688 
-0.009429399092084798 
-0.01753223629168832 
-0.01600299841674963 
-0.04436488105233147 
-0.04583015261895918 
0.04428652635177856 
0.02565544232432322 
-0.01852195615160436 
-0.01200562491379589 
0.03999288465666746 
0.06323198628304605 
0.01213145249404344 
0.03187888187161233 
-0.02870474748646469 
-0.0103982605650335 
0.01114147379401142 
0.004442182020488185 
0.0009854483018065176 
-0.01856853800298334 
-0.02582527626022255 
-0.03122109231301674 
0.03590525510581336 
0.03957317373545841 
0.08350108941496182 
0.01223916376256969 
-0.01844556700705956 
-0.04263583829142638 
-0.01085723222470897 
0.02465885627937377 
-0.02679146183423076 
-0.03874760182516052 
-0.02514552695276771 
0.009311994418242962 
0.03442955886171001 
0.02689887007627869 
-0.0175385880270569 
-0.0256702490741351 
-0.02516258791190286 
-0.04716989446393058 
0.02860703491651107 
0.04891918686101622 
0.06090664385414138 
0.03446011916214113 
0.00637858750522531 
0.02162521983671786 
-0.03870728943057489 
-0.05780916111109993 
-0.03444599724214286 
0.003339009111357757 
0.04374428424834204 
0.0259467403732969 
-0.02906392787776443 
-0.03688882843183873 
-0.003775098708426236 
-0.04717409550275223 
-0.04243274315711142 
-0.01155444419284676 
0.0561229575368535 
0.08986930419738382 
0.05456395142854686 
0.04774848169066528 
-0.01768637634622676 
-0.0106955730086296 
-0.03307713272144885 
-0.03998644941157863 
-0.002744546687634978 
0.01695013111554436 
0.01061978691241512 
-0.0161814043161735 
0.001907715751749797 
0.01130072212410242 
-0.0283542257615782 
-0.01773129979649271 
0.04424883042029097 
0.04662670853073742 
0.02492623783729793 
0.007224134734184012 
-0.004211749650322547 
0.02337926905591805 
0.0195436347136818 
-0.009864508323022839 
-0.01611022363661195 
-0.01353345526618894 
-0.02126586485387811 
-0.02312703894275197 
0.006936972823182912 
0.03167839110320627 
0.02874500296990054 
-0.01606508278212328 
-0.009750649719232941 
-0.009013067343694796 
-0.01201236996441954 
-0.01378819443086797 
-0.008653151649155784 
0.02387389108691485 
0.005723487079218507 
-0.02917609933342593 
-0.0007314485926729041 
-0.007604759750701221 
-0.02675639994696875 
-0.01093003950088774 
0.005952150332469629 
0.02865718369444747 
0.04971884492998974 
-0.03974890882602511 
0.005409719524321671 
-0.03780874224401006 
-0.0227489947243782 
0.04290986948876789 
0.01289291777170482 
-0.0009427271641835695 
-0.05896260129715925 
-0.142263545539147 
-0.08962855363432634 
0.01536642686364745 
0.05640567361095461 
0.04223459417648354 
0.0606372950936338 
0.05123129998637326 
-0.03597031040985958 
-0.09070162054612659 
0.02266026851232511 
0.1097233942710574 
0.1232826074861858 
0.1043978351951769 
-0.041000547623237 
0.02974050264439025 
0.05027127612683986 
-0.05863674737192558 
-0.05320463897969119 
0.102109135549259 
0.08435139065926943 
-0.009011585559443203 
0.03254465123409872 
0.1198901621078823 
-0.06027280965592383 
-0.1846000224398377 
-0.06448371950543642 
0.07830626874103883 
0.0789532369667067 
0.002464373758618337 
-0.003978354081557381 
0.01572819847805922 
-0.009933095590004539 
-0.08636148888835009 
-0.05859310193603191 
0.0008203781032793973 
0.07734315940824482 
0.01930589976900254 
0.1238281479959505 
0.2077527183192618 
0.1490186457222771 
-0.1517842531302003 
-0.2188062701549638 
-0.1298814027970421 
0.1882356757873497 
0.1572361511335335 
-0.09630516379438107 
-0.09638011267030557 
-0.08341839682604936 
-0.06617799393097386 
-0.0289207324609 
0.02018195490475603 
0.01752300490630143 
-0.03869105249655354 
-0.1401570508578612 
-0.1288534896935634 
-0.06229996492407468 
0.01132320438758423 
0.09020891784195641 
0.09073647555549222 
0.1178377093960572 
0.0602601051111105 
-0.01875286962564551 
-0.01718195187204625 
-0.03455211778626153 
-0.05325469231066123 
-0.0650722698647237 
-0.0665232803400885 
-0.01129140622664192 
0.01203882757332461 
0.009072464620729099 
-0.04478604355135275 
0.0002214504601086385 
0.02525463534069057 
0.07542016446801859 
0.01557301794411248 
0.01484484389022896 
0.1214904379346021 
-0.006663379634737583 
0.01103734430587707 
0.006809867485186148 
-0.03199065862437388 
-0.08207294194311138 
-0.05797251223412445 
-0.008367839811215701 
0.02343431813863969 
0.09361013693965217 
0.002212321812459762 
0.02075128029670741 
0.0146850738157613 
0.06132408963922792 
-0.02752970379735126 
-0.07499501452451235 
0.09530815415521635 
-0.01421148134342249 
-0.03079691714404926 
-0.02275502616908955 
-0.004778959009582291 
-0.007622535157411266 
-0.01880783656122002 
0.01470461562957876 
0.01717628024170852 
0.1129703822130614 
-0.01216361641964452 
-0.01003726254318247 
0.004948668402285802 
-0.003188230304555258 
-0.02933619835724181 
0.004344954005821841 
0.08400200289480753 
-0.0009996151997820751 
-0.05036818882637912 
-0.03809425418654651 
-0.02065773761460356 
-0.02045510430966044 
0.0004167193437575982 
0.02655245248808189 
0.04390187490635016 
-0.02679892917047601 
-0.08637419486462705 
-0.04038901298688994 
-0.009814562626774459 
0.007982168131315574 
0.02267556158325064 
0.133381906116738 
0.05600646639485753 
0.01062616272918891 
-0.02559021064050913 
-0.01974174373154465 
-0.0004712342698451385 
0.002333590502276103 
-0.02791526378543798 
-0.0278965556846113 
0.006521975693566769 
-0.0319762995085431 
-0.03555011124017261 
-0.01236269484050198 
0.1306710982194423 
0.07816672622411887 
-0.02955112458963612 
0.01502893541233365 
-0.09573896251619571 
-0.07154591102438761 
-0.06711063509010291 
-0.04821143619293763 
-0.03982971876655585 
-0.04913153743714623 
-0.0375449339485355 
-0.02053489383477248 
-0.03318266616658523 
-0.04351146171824513 
-0.002008022470167343 
0.006688812784186031 
0.08316585225285676 
0.1131586972576687 
0.09217671309025413 
0.004999093937058285 
-0.02192316980227808 
-0.07272520414857267 
-0.04383047943365696 
-0.0006276523270999446 
0.0003741981144940046 
-0.01124211350336111 
-0.01427684209846276 
-0.01398137144919317 
-0.03690173178648519 
-0.06487154895623348 
0.01562078782665467 
0.03588265315907088 
0.02423092695079734 
0.05222551264327755 
0.06882910816715702 
0.04284497004242739 
0.01644062003402357 
-0.08342110501559 
-0.09537507972614365 
-0.05188000112307532 
-0.009838708178914014 
0.03929736906827575 
0.04466915399710603 
-0.01239738980666899 
-0.05771567978566446 
-0.08010517550530476 
-0.1088520722253006 
-0.03220584629201702 
0.04571973891322254 
0.1678903223998821 
0.1694285563882099 
0.03270728616811836 
-0.02098574225293786 
-0.05867403962677557 
-0.09383332972288808 
-0.07424280761383539 
-0.03322148372973469 
0.036129180321752 
0.09618361278579167 
0.0717340095823417 
0.004949992246726481 
-0.1339476491292897 
-0.1724972455984642 
-0.1079144886605713 
-0.03478705927776189 
0.1075454026114119 
0.2424402710436248 
0.1510348085197221 
-0.01030889443033493 
-0.07300256515035038 
-0.09366215117018324 
-0.05893829175330894 
-0.004281881895352329 
-0.01922451405451242 
-0.04165221639161494 
-0.03379780790316224 
-0.02749314982651343 
-0.08320086508976229 
-0.1004751277092322 
-0.0203893856976927 
0.06517663471211047 
0.102898095912813 
0.1319684579708596 
0.06710670897934869 
0.03777513007991653 
-0.04392841064557551 
-0.01904448643474905 
-0.02736925725809514 
-0.04660104657961263 
-0.05235967016438058 
-0.07427575357248097 
-0.05336070123113488 
-0.03000061623888671 
0.04730286159370263 
0.03493871050277572 
0.02519939570436421 
0.01275374331376426 
0.03677140730164409 
0.02240144194926501 
-0.0121211321910655 
0.08082972619223794 
-0.08219334588999711 
-0.0325608392104204 
-0.01517792100964055 
-0.008389171739816001 
-0.01109114758590486 
-0.0222263796436622 
-0.06247244228539624 
-0.08808710779510204 
0.04910986067468419 
0.005563203610022513 
0.06063137198787275 
0.0586552122919571 
0.06348367148476632 
0.0318501807324006 
-0.01381621382287672 
0.01614612016905549 
-0.05459231056273052 
-0.03151707878961176 
-0.03262555686920325 
-0.04451342321885466 
-0.03854816044884605 
-0.02076959900013593 
-0.01914579375302726 
-0.03332619388985707 
0.0672162739796712 
-0.02220013499830919 
-0.05121918750121326 
0.009349030912802925 
0.06667803768236258 
0.07117398454308839 
0.0473049799193828 
0.07112942595862043 
-0.008548165036243992 
-0.03279153642070201 
-0.01783080390166573 
-0.005401249351695226 
-0.006227308195386047 
-0.002015143909138682 
0.0003631810343182401 
0.01729381373627967 
-0.007567680012936103 
-0.01147871930990664 
0.02895262453287389 
0.01071279592389124 
0.00472084972544822 
0.01924210993969619 
0.008599115372977707 
0.0159856044125775 
-0.03668793060902582 
-0.05831990750071339 
-0.03535789387554449 
0.01035080313909129 
0.02983301254308765 
0.002955302626213278 
-0.02149659087181395 
-0.01043605952309534 
0.0096409366770349 
-0.01453888547929648 
0.02030864713514909 
0.05052482150207319 
0.04563906663772446 
0.02608936678693062 
-0.007096761085830287 
0.001329374438174404 
-0.02590365874825481 
-0.0359691701972257 
-0.03316315391247594 
-0.007469980697632303 
-0.004787439011657031 
-0.01566910118163175 
-0.01021424837125108 
-0.006487891561551775 
0.0113634601839819 
-0.01785387485677873 
-0.02158049608055117 
0.03251059191709772 
0.03462762407697592 
0.03104802616355669 
0.01326560271881816 
0.01328769347545838 
-0.005941881191513492 
-0.01231028980437744 
-0.003881554729695568 
-0.00852973091046895 
-0.006520641573792227 
-0.009210929665264132 
-0.004365012851590805 
-0.002839241725569141 
-0.004233017738001884 
-0.0008299709217821846 
-0.005111036357875935 
0.005127022622630817 
0.01703544566154381 
0.01153816473620394 
0.01163409257664476 
-0.006542487716264911 
-0.01205471714273801 
-0.0009392116232647884 
0.009232618365846261 
-0.03954881813098374 
-0.04437319715079777 
0.005710680997557964 
-0.002162310101399971 
-0.01786749616612041 
0.003487655496115552 
0.01174649145620246 
0.02745056688991903 
-0.01386169048221341 
0.001848373758182032 
0.05226767084856392 
0.03274592425181047 
-0.01821210165924949 
-0.06129120751065222 
-0.05316126429405783 
-0.002020291820871538 
0.02276516729951704 
0.02230650190424206 
0.025005475324188 
0.004231072130940763 
-0.0285925042681277 
0.02652260534010989 
-0.02776639480231707 
-0.003330399787867913 
0.016385991200951 
-0.01526599518614647 
-0.01644403858699862 
0.02089064378464506 
0.05587972483192771 
0.0561675980229994 
0.06247623765048089 
0.04236111724953885 
-0.07547425633624329 
-0.145787631669747 
-0.06458454096076718 
0.0268985466721371 
0.07099217277527184 
0.1068324365626353 
0.1316934014200714 
0.1138004036210967 
-0.004526998080811007 
-0.05919402557946067 
-0.01326467142248932 
0.07373953770344086 
0.1442618045647859 
0.03141470146890232 
0.1256798178527477 
0.1610811917538113 
0.03321042231885998 
-0.1356596849335925 
-0.100222745470905 
-0.02004659351537122 
-0.008560562942806396 
0.09080261605842201 
0.178991761673607 
0.1654812400296266 
-0.03608306406840948 
-0.1551595402487072 
-0.1279658778979534 
-0.03256435146938686 
0.05604701288836061 
0.0006976665271786906 
0.03008183962513536 
0.03353263059003064 
0.03727536604880665 
0.03254987159300873 
-0.02036216349559093 
-0.1060959127226066 
-0.07709235870009458 
0.183379199645734 
0.2309159364277456 
0.1530339330521487 
-0.03671670422731935 
-0.06245592175971147 
-0.1186167373784372 
-0.1175991470482808 
0.01777758447328781 
-0.14589878360353 
-0.1248108922062396 
-0.07771973495524477 
-0.001392412176320995 
0.101986100477153 
0.0645761031590408 
-0.07200283916502762 
-0.1384186969158996 
-0.1415281822196259 
-0.08874864670471225 
-0.03718537641426603 
0.1129669211714795 
0.2782825184263568 
0.1310498753958461 
-0.07482593379793315 
-0.1757317797323656 
-0.09179471928344127 
-0.08423068058864427 
-0.04417882967420028 
-0.01776173329248336 
0.01814320941115247 
0.01371166521220176 
-0.02636734877194559 
-0.06529615097629374 
-0.04430193543983011 
0.007545676881062812 
0.01847297801369257 
0.08996529618534113 
0.1076541590073543 
0.04579222785293213 
0.05334428277919183 
-0.08137389889671096 
-0.06399135089262062 
-0.06646398836500797 
-0.05036466855813781 
-0.05929805634732267 
-0.07847995566572019 
-0.04804031166959617 
-0.04341918093463647 
-0.0432597690051897 
0.0275893763224893 
0.04462848513447502 
0.03096099524463764 
0.08260472497873529 
0.1011711840399154 
0.07709418682808952 
-0.02305670031663201 
0.04176569316097252 
-0.03599145800683678 
-0.03687346385034174 
-0.03461886408956857 
-0.03134900598166734 
-0.02804970030293115 
-0.01063485214082936 
-0.02182419873298251 
-0.03578332979665975 
0.07988507248688952 
0.02803025553892337 
0.02673743193751648 
0.009233269368855171 
0.03545158911778076 
0.004935608007747078 
-0.02805138948650322 
0.04826205299957043 
-0.06190579033893007 
-0.04153642901596773 
-0.04697658791123273 
-0.04870896155445994 
-0.01499649925362649 
-0.001703643133806386 
-0.01499666216417509 
-0.04647472184008712 
0.05308547830629901 
0.05274423272503993 
0.005329397720747971 
0.001531788002425937 
0.05455306726794956 
0.05969234651107004 
-0.01671785474395179 
0.01212920158388074 
-0.03877032574433941 
-0.04478794574112083 
-0.04289434749953699 
-0.03979291863477735 
-0.02940905587719411 
-0.02087054693745191 
-0.01913947457453053 
-0.02637864781650095 
0.03130677043477084 
0.03050576198652926 
-0.003993488509016575 
0.03433471463915331 
0.05643297117014456 
0.04527248110799741 
0.01357151688423576 
0.001752789379949554 
-0.03643445862663783 
-0.06233809090029652 
-0.06880082682647107 
-0.05521729765831697 
-0.03220830510379195 
0.02050291679584718 
0.02923813571292543 
0.009782128829922118 
-0.001295094293569062 
-0.03483948090430462 
-0.03208741271364196 
0.01319624925169689 
0.04221785943973212 
0.04153692259413284 
0.04827793116299355 
0.02879368799935748 
-0.03914251056400413 
-0.05345099935768174 
-0.04423708498334263 
-0.03958667887254393 
-0.008767323757804283 
0.01109414982397524 
0.0206579377823128 
0.00110144268709411 
-0.02304982483648935 
-0.032703437016273 
0.002115590638706423 
0.004790053918385498 
0.08724644502031222 
0.09255039986262299 
0.03320136567148482 
-0.03070559858242527 
-0.03321788035247442 
-0.04474642401235471 
-0.04162308145974766 
-0.03607519535873316 
-0.04327613384899574 
-0.03127989908313957 
-0.007769736871224084 
-0.01183140956867668 
-0.006614686826372515 
0.009227796733442465 
0.04360769016992313 
0.005559484078901384 
0.06343144713835995 
0.04094523100502606 
0.03178752730104664 
0.02300356468373833 
-0.03762555422365638 
-0.0503482173744347 
-0.06285829409039587 
-0.05751567013020606 
-0.04859672283376082 
-0.04520859032216115 
0.001929329048234867 
-0.007552910729735452 
-0.007495835573778064 
0.01097190077469726 
0.0006784676991875239 
-0.01777220452315981 
-0.02031904806495056 
0.05185059655696171 
0.1115753191997203 
0.06778791066760298 
-0.0715728634707991 
-0.07616266940304746 
-0.05798347659249593 
-0.04597010728045254 
-0.04908493938851279 
-0.03717565258321495 
-0.005246594032006414 
-0.02732389251897998 
-0.01225825993707463 
-0.0254814922153618 
0.00423075674244291 
0.03870042578177878 
0.05338190480017107 
0.003693775264921557 
0.1223498481800129 
0.06176072729416567 
-0.06832406899688465 
-0.07302202614768742 
-0.03644112164126724 
-0.01916235562887718 
-0.01892690515541089 
0.00598903139009126 
-0.0002264184663651487 
-0.02135985579378281 
-0.01949211339905189 
-0.02677078214652363 
-0.005589824497956269 
0.002283685289619677 
0.02062166340232597 
0.059849967707048 
0.1176548384183137 
0.03123463907666811 
-0.0308057400654588 
-0.02348463412116423 
-0.03936604838819924 
-0.03796787970539743 
-0.03002453046590323 
-0.01795757467274832 
-0.01925990225788282 
-0.01895281319751828 
0.01874760773153905 
0.00470700656937963 
-0.05339748462088585 
-0.02884397891905603 
0.04979563426294976 
0.06131852639280801 
0.05901271882927515 
0.04028401942026304 
-0.03332670628256593 
-0.0543113044109968 
-0.03541983432813677 
-0.01167180316123738 
0.002094457092299944 
-0.008287096194847651 
-0.011533464221528 
-0.003853372826075406 
-0.0161342802648972 
-0.02320174814395461 
-0.009885155577233431 
-0.008310662032338476 
0.01585971160579049 
0.006539378746351707 
0.04248382615451721 
0.02318650989009612 
0.004199592763750815 
-0.03670883486548178 
-0.04195304004655631 
-0.02033439856811873 
0.001310283231122404 
-0.007946764142390869 
-0.01011833761226538 
0.02668017731923102 
0.000735857112302769 
-0.03336284338158995 
-0.01950844972243888 
-0.0009247715556041489 
0.03062402083221438 
0.01304417299398453 
0.003011440855613768 
0.0007980018205182432 
-0.02654943519040284 
-0.05469864170572462 
-0.05013376713908262 
-0.02830501895719308 
-0.005889907301254876 
0.02851965638970802 
0.01675100518192878 
0.004021324261259071 
-0.01966653509764 
-0.02376236591864688 
-0.04438685847237606 
-0.006314165753879436 
0.007499001606463085 
0.07519352445548264 
0.03952658608705708 
0.0182230999086075 
-0.03263526209440295 
-0.04185121696886965 
-0.02194907900667272 
-0.01521568337001951 
0.01790184036209447 
0.02411819360163755 
0.007447604977969221 
0.002964826790442983 
-0.008246042844774416 
-0.03290251024288169 
-0.03149443041492479 
-0.02799781743476011 
0.03213310795666356 
0.06474674946813722 
0.01467099922182642 
0.004899082655593314 
-0.04985187994802381 
-0.0460284367749562 
-0.01105961911673146 
0.02007454376802199 
0.01515934779910138 
-0.008936917012775512 
-0.03158222949074598 
-0.03982384241713582 
-0.02633790696507554 
-0.0005063807204617223 
0.02866304706637846 
0.06860255107570239 
0.04581638750372238 
-0.007449159942920175 
-0.02281490762026109 
-0.03332738634868692 
-0.03388579258204878 
-0.04412514771025537 
-0.03892166989593105 
-0.03227463596722215 
-0.0238156738952742 
-0.03111447044679751 
-0.05575169609426219 
-0.04531259392368704 
-0.02392272253762551 
0.006583809002345679 
0.01484276269974297 
0.06396465652638987 
0.07786972212814436 
0.03528755815743576 
-0.02763022274667179 
-0.03418082106450605 
0.02127105758074789 
0.005571815271522023 
-0.01752448831501342 
-0.04609352791100308 
-0.06062783622383761 
-0.04289675181480695 
-0.02524694961562247 
-0.004103589762987152 
0.07679842578030169 
0.07769831888667186 
0.02080152001542157 
-0.0148028660155212 
0.004409539387825346 
0.007244875112600607 
-0.01943848361517853 
0.01993752318833406 
0.05907543097615828 
0.03968204397924264 
-0.02232511427743394 
-0.08844176593149764 
-0.01515185546487177 
0.04130195570332663 
0.05279134718184347 
0.05418311267749117 
0.146921928835702 
0.1582571929695557 
-0.03298099140869404 
-0.1809842288454371 
-0.03435202024884426 
-0.01927865531143956 
-0.0181814959726581 
0.06395478185594392 
-0.1158749869088011 
-0.07248241030487758 
0.01851815754470144 
0.09334848783169239 
0.05688797400642887 
-0.09358617989645644 
-0.1266469165250251 
-0.1045709664222986 
-0.08381726428644251 
-0.007196630250885502 
0.06080545038263339 
0.1131096265613255 
0.1172621329081851 
-0.07796888591884756 
-0.03244331656220486 
0.008375674560152863 
-0.1569597249611874 
-0.1020736589075858 
-0.04460693587823631 
0.0338110636359579 
0.0418673863696993 
-0.009435207446084388 
-0.1120941729638351 
-0.159634976576031 
-0.1012849498755821 
-0.04168744809744303 
0.05077140457492694 
0.1911203369661178 
0.2502372751679899 
0.0907517121025541 
-0.09016827088460931 
-0.122395198663662 
-0.0483183300113353 
-0.02526439517972878 
0.002666985747990633 
0.01197901271096814 
-0.0317028050384757 
-0.06336556015559097 
-0.0689203951936652 
-0.06260317115086572 
0.08384743343619727 
0.0860345677890916 
0.06120033866272918 
0.09425089201159552 
0.03272471820423362 
-0.06190985829434624 
-0.04408714186144697 
0.008189968797050268 
-0.06630438589545018 
-0.06118639993330342 
-0.02630193311155243 
-0.008274923439021746 
-0.03041904457199617 
-0.05589040414333078 
-0.03890790933980542 
-0.05742133366979376 
0.04151089770274396 
0.03112139222860349 
0.04940379545056438 
0.06414301750623036 
0.07121681933963642 
0.0227514819837235 
0.02349093002479048 
-0.004625132612645703 
-0.0717858040145085 
-0.04346975517721909 
-0.02839477385640187 
-0.001903242237212638 
-0.00343700111507466 
-0.01640960683345235 
-0.0555612168785214 
-0.08441262395203777 
0.02636756897598158 
0.04959056221798291 
0.006485254677329198 
0.04975951980382423 
0.09267945481425047 
0.04915782878475003 
-0.01291806473514687 
-0.006722754588162521 
-0.06207414002305939 
-0.05388571420763769 
-0.03633938196884422 
0.0009572470026532516 
0.02058997158508022 
0.006979632379098273 
-0.03286594262057899 
-0.07459733242352724 
0.02923239028790288 
0.03247556344220197 
0.01702485618575878 
0.01442714291464202 
0.03621237649804859 
0.04066268694967553 
0.007630222746284457 
-0.02162324471545667 
-0.06313839472614249 
-0.1052162465633665 
-0.08255493800499657 
-0.06277747231258664 
-0.03083421400953187 
-0.007351497307899893 
-0.02516343238446395 
-0.05020276869206027 
0.08091845512886486 
0.05982864435632183 
-0.02526021914338518 
0.003462558234006399 
0.06710763574780804 
0.07046658310137161 
0.01967889341471356 
0.0269227698494269 
-0.04296443489881395 
-0.0585877982197169 
-0.08278852646583028 
-0.05415584149753504 
-0.01900235789330846 
0.005032925218578052 
-0.0005912574845443569 
-0.04439066781767321 
0.04197891814634388 
0.01196739459464209 
-0.005698748692697605 
-0.04404464225615876 
0.04381948884194953 
0.0841648985706559 
0.05717195609073798 
0.013571028811639 
-0.0665633305261271 
-0.08142103913110228 
-0.07469118301967931 
-0.0351591840278006 
-0.01572814305108802 
-0.008441637851415678 
-0.02773503213733219 
-0.04750475722490884 
0.03959467608733278 
0.001610865043772809 
-0.02230999055460916 
-0.009719658135411223 
0.07177056586340605 
0.07584775725955216 
0.04052613036561195 
0.04004655336652951 
-0.08003606234295049 
-0.05526337766809201 
-0.0584107116027167 
-0.04279241163192737 
-0.02479994777955579 
-0.03039015553222264 
-0.05465238737790859 
-0.0868089454213323 
0.04928377923638284 
0.0397147252077 
-0.001629303432385703 
0.01835402379271998 
0.07384156859614209 
0.0627548869586947 
0.006455988668958183 
0.01908258460444339 
-0.04760272061896025 
-0.05499058642433112 
-0.07097532821144287 
-0.05782398508279348 
-0.02896856742552451 
-0.0122791652294596 
-0.02639550075543852 
-0.03950135513291762 
0.02381826349052913 
0.007433352296698104 
-0.03114664011191031 
-0.002535486948013185 
0.08022735423537789 
0.07031110675580955 
0.03316956173417016 
0.02461929192282691 
-0.08172064322814233 
-0.03024123615667962 
-0.05166249554198085 
-0.05914159771268564 
-0.03707951154110833 
-0.02895161871652791 
-0.04939167231474341 
-0.08232466913595113 
-0.004892497007952083 
0.04878118200002253 
0.007219123110086774 
-0.01598066265718019 
0.0846688456196365 
0.08301825514137594 
0.005899318791902663 
0.003106127013100508 
-0.07388727601792773 
-0.04884105897592525 
-0.06087489097277633 
-0.06786564373971328 
-0.04382042858312563 
-0.02090381472642876 
-0.02916004433915341 
-0.08006966046817304 
0.0221605988056684 
0.05793792315491553 
0.01441588994250643 
-0.03380598853737474 
0.01418545231851259 
0.05651988308966447 
0.03971627809795662 
0.01267687389218232 
-0.03661132686927177 
-0.05659037977652093 
-0.04501626068600046 
-0.03204740291074827 
-0.02303291146858079 
-0.01942462083626714 
0.001240164165109341 
0.01116172757928998 
0.007854778997466999 
-0.01984368414471554 
-0.04605045925071628 
-0.02584022118809412 
0.0007975881876526331 
0.00418631301222627 
0.0391915836545314 
0.0659812704711738 
-0.0181245710832353 
-0.02126130917742886 
-0.0356445469428578 
-0.0477329523786501 
-0.04103210258803836 
-0.02810288802835482 
0.001147208537857222 
-0.001442106841048365 
0.03948794509842905 
-0.001764448856255747 
-0.04316863728470374 
-0.04005933948390375 
-0.02980433204850302 
-0.01411500556498859 
0.05162217253098995 
0.04589558882089132 
-0.01620146497307134 
-0.0341111390574116 
-0.04156888126776578 
-0.03998216211810497 
-0.0352268538757193 
-0.03456640331482334 
0.006607178691456103 
0.0286976695668235 
0.01331425760461524 
-0.01565928095212157 
-0.02841209981705923 
-0.03054217074333213 
0.007816255802471911 
0.02637774725259291 
0.02169012275317623 
0.04726539669624889 
-0.0009562327841997776 
-0.02678644153685498 
-0.03779020282156233 
-0.01995452415759311 
-0.01718636085041165 
-0.002706743235441286 
0.01316626519425521 
0.008662793758992194 
0.0100863527137316 
-0.03275761676948707 
-0.02832249617248605 
-0.003323887565187275 
-0.01104356818454076 
0.01026529199107617 
0.005077257380944496 
0.01940946077419822 
-0.01556934629917866 
-0.05894735337761835 
-0.04844768388320644 
-0.0148288899671088 
-0.007892027548259814 
-0.009230675510913389 
-0.004030677458131112 
0.02067479180636655 
-0.04046604243581672 
-0.08239846590719838 
-0.04284195209863422 
0.02039566232405918 
0.03843734190821438 
0.01502296425034073 
0.02276747177010543 
0.0506348414514032 
-0.0799917423120947 
-0.06726255630704289 
-0.04678704892231621 
-0.04620179466415639 
-0.0005527269422294315 
0.005944781113119876 
-0.0181038566416089 
-0.03942533288406293 
-0.1230133717345786 
-0.08956970298233451 
0.002174305417807569 
-0.002503439432268356 
0.1455902028645896 
0.09922500291316865 
-0.02050555180171243 
-0.00815768310579104 
-0.1357045356977742 
-0.1041923482364399 
-0.03891950088361992 
0.02372465594361259 
0.1436857802181979 
0.1261279039983967 
-0.05328498618026679 
-0.1338521385119228 
-0.2156184095045605 
-0.1665975604120907 
-0.02589881840887626 
0.004504659383429474 
0.2293229553306865 
0.2126850392914156 
-0.07875822188333498 
-0.2034410645704376 
-0.1198091655999106 
-0.1009485784936102 
-0.03972236115662059 
-0.0001671100426324642 
0.05083897230261499 
0.01653280899144194 
-0.06264569854523294 
-0.08374198556653294 
-0.1263900827989149 
-0.06253698730717991 
-0.01300301822676876 
0.07452262630930774 
0.2437079828802442 
0.1711450666186003 
-0.08656993419664462 
-0.0736327691881089 
-0.08039846239070218 
-0.0786867420514428 
-0.05902803033976482 
-0.02128284872099527 
0.006600997266309704 
-0.02414842641943537 
-0.08777952417274217 
-0.09728037452534397 
0.04570293418753007 
0.05494073332955233 
0.02166480115780582 
0.1258156046323529 
0.1213137597074578 
0.01101902858229176 
-0.08385085920290705 
-0.0279699350420389 
-0.08596115349409679 
-0.06381624098794494 
-0.01881838082423237 
0.003381551677952244 
-0.03400748258451688 
-0.06863934886172929 
-0.09300919510376447 
-0.0975134049294337 
0.07810069128530051 
0.07759501954536245 
0.04774927205833713 
0.1015048301540583 
0.08060449986700333 
-0.02937558003613912 
-0.06966657153393349 
-0.005818331786058182 
-0.06822411737122321 
-0.05016220368803045 
-0.03781299388327962 
-0.00950659579798833 
-0.01300190301284016 
-0.03239803791009038 
-0.07197431654038665 
-0.08182944159432345 
0.1253342995075347 
0.08007853547085723 
0.04358175030574613 
0.0286845541716024 
0.02311424854330871 
-0.04230967993211822 
-0.0556138629591711 
0.01441826819838906 
-0.07687085042233913 
-0.05796091650424303 
-0.05069585049434264 
-0.01517203142208822 
-0.01111073663695063 
-0.02136872959378935 
-0.05311176385399315 
-0.08924637651671838 
0.0364735771250625 
0.06126938870539649 
0.02512831954845926 
0.0324390416666184 
0.1010196437980899 
0.02420861373224629 
-0.02242022552038592 
-0.01359281563755805 
-0.05864912654773286 
-0.05046484964362465 
-0.04782332713895059 
-0.03298785702827317 
0.005019697010437222 
-0.007570654042122121 
-0.0534081291469205 
-0.07467364074907151 
0.0344241965026585 
0.04129156167362622 
0.01414093160392379 
-0.01493137723067894 
0.06601777469184941 
0.0636625298250694 
-0.02772328263279874 
-0.02362400814557804 
-0.05642638353557631 
-0.02134662789330896 
-0.04316690248274282 
-0.04768966057856447 
-0.03352614803959529 
-0.006065017450760993 
-0.02084862349307761 
-0.05009717359709487 
0.04301930931889184 
0.02084072655624691 
-0.0141235865274193 
-0.03560385148455576 
0.05217758698666943 
0.06177505464956469 
0.02383759368319694 
-0.0004926835751067822 
-0.05035839405114846 
-0.0304418111238394 
-0.03106029269245252 
-0.03186285936221662 
-0.03065782189275765 
-0.006502156468061605 
-0.04093114326838584 
-0.0699282306791702 
0.002505873048412309 
0.02975333405141198 
-0.007852894914436415 
0.00663987908098964 
0.09334621723173697 
0.08003485531129959 
-0.001274835073265759 
-0.06067935235267701 
-0.06568136595746166 
-0.03588737599919991 
-0.05277042532404652 
-0.04617154718945417 
-0.02404774144797023 
-0.001767574348222502 
-0.03665875571237476 
-0.08252400461035916 
0.02224756653644094 
0.0563201548653427 
-0.01690064472747493 
-0.02242891374515238 
0.06852894968588798 
0.06165305259076285 
0.003635973833986584 
-0.02623265355042118 
-0.08319298082106971 
-0.07402779168664694 
-0.0825957558122306 
-0.06748480529982991 
-0.02763076245655803 
-0.01840520955438471 
-0.04703401196229347 
-0.0862705273747835 
0.03905160668453275 
0.05335907495657238 
0.01056116782388913 
-0.003965823337906132 
0.1012377095554075 
0.05903309012046773 
-0.01113179414942104 
-0.01436066866105961 
-0.0623020676470507 
-0.05523955481687327 
-0.07762876605468032 
-0.06423769582848404 
-0.03928417526202125 
-0.02930003357549963 
-0.05274099510007546 
-0.07831098168251123 
0.03140274698196881 
0.09053434636740207 
-0.007190884631158084 
-0.05347637074503955 
0.05308828545484567 
0.04650795864294083 
-0.01070206111563809 
-0.02973151859188362 
-0.07300484505951556 
-0.05285966509011962 
-0.06750837611444403 
-0.06717564120245485 
-0.05631669394337201 
-0.04282688225101516 
-0.04552633175885353 
-0.07945442528739562 
0.04284500404432305 
0.08451654880913309 
-0.002436894069641048 
-0.03192727411996697 
0.03831896573558754 
0.02773781680475585 
0.004451880983614245 
0.009177634483610298 
0.03269585237977677 
-0.05805996623250159 
-0.0750769080477374 
-0.07258791027494693 
-0.05898505109360661 
-0.05192419186980699 
-0.01454259983967791 
0.06628677944467593 
0.08960249150849087 
-0.05305473970310513 
-0.09652060921898722 
-0.0859453459654905 
-0.07663533963716329 
-0.05930666731646384 
0.02428396899579787 
0.1538340181324203 
0.0518635576254786 
-0.0465945946134335 
-0.08782255864033599 
-0.07481998382299335 
-0.06275000256656829 
-0.05324262166650407 
-0.02394972382278441 
0.05824637124853641 
0.1043476528218886 
-0.007009693711944131 
-0.08036991097408737 
-0.08433039638046869 
-0.0730546375765455 
-0.07691648556216596 
-0.03651745988403587 
0.1165547430094108 
0.006981504150275383 
-0.01807051903873463 
-0.04575459943250529 
-0.04736104628932669 
-0.0472876579163836 
-0.04956182401543979 
-0.04621284137504062 
-0.03277558549195462 
0.1109453137465952 
0.04468948905330666 
-0.007946810957322024 
-0.04018173811957701 
-0.04734220948827014 
-0.02914429247537263 
-0.02952697709934252 
0.03557583975186485 
0.001816787776851267 
-0.0210503187032114 
-0.03908063960951261 
-0.03470175684111629 
-0.04891525336738665 
-0.05530700347582986 
-0.04505690035542612 
-0.02015782051864835 
0.1263472592425973 
0.03876845054132746 
-0.02726900070037141 
0.003408373602529515 
-0.02555969754722402 
-0.0648472811984339 
-0.06910278177273516 
0.0385084327768617 
-0.0155251059791914 
-0.06376137249704743 
-0.06321944224203126 
-0.03492970366295187 
-0.03510754168277098 
-0.0420435412656221 
-0.03819111904601318 
-0.02263498730464159 
0.1182858546282613 
-0.0152928707474909 
-0.05873460496094206 
-0.005696574169101192 
0.03458355510271462 
-0.01164674221861456 
-0.06086247241430622 
0.05226430649397851 
-0.04680469497260013 
-0.07191162353054258 
-0.0294485880140115 
-0.02159013485412729 
-0.03638838082163147 
-0.0427675387602601 
-0.05308165963455561 
-0.04191590705998799 
0.08056134398715696 
-0.02243829177804096 
0.009400466377043372 
0.0007774405650419204 
0.009695025663809484 
0.007335891173671744 
-0.04633612430216851 
0.01927018862884296 
-0.02456944004119701 
-0.0772033956377844 
-0.06097100320186224 
-0.0006215355075774064 
0.02657548982827903 
-0.05205965414921071 
-0.0986608221145327 
-0.03587099376031969 
0.07010739466753035 
-0.05425643437617799 
-0.03699905533798634 
0.09531367671656292 
0.1516062845254239 
-0.05258822998474828 
-0.1057378721299582 
0.01140405085109589 
-0.02969188534925882 
-0.05357186090157078 
-0.04677850337111367 
-0.02519581587535549 
-0.0221880307220742 
-0.06304957871458188 
-0.08066683337620002 
-0.05566731123880878 
0.09354068241067266 
0.02352906565732966 
-0.001543402758650662 
0.05663245229380726 
0.07963949845724667 
-0.04803718784672179 
-0.05921516296385595 
0.01559941718081815 
-0.01667690625264756 
-0.02533530265147513 
-0.04310467375847138 
-0.02212159911558215 
-0.031586802130242 
-0.06451291153904272 
-0.08709900263897653 
-0.06369696215739322 
0.05402348343910028 
0.02633968406402481 
0.01184870240811715 
0.09622081628820751 
0.1265357954671741 
-0.02434970058997705 
-0.1071029642573347 
-0.03670824957481339 
-0.005354681951455444 
-0.008281458118600003 
-0.03903203537395161 
-0.01489508126695035 
-0.01311602890886757 
-0.03973619255728079 
-0.08158292196898613 
-0.07334129507812087 
0.071235012318539 
0.04903967772580156 
-0.02927847340978283 
0.02011513877784614 
0.08399254885882368 
-0.01759729228455606 
-0.103045759530018 
-0.05590107540469686 
-0.02440744085563523 
-0.03800918987152961 
-0.0472504763132285 
-0.01968529655246152 
0.0041535703859982 
-0.02079227278478041 
-0.0558855789180617 
-0.06029368846155069 
0.02066025512892115 
0.01048196601070672 
-0.04143766980061968 
0.01767842244918045 
0.09847010661197317 
0.0315163249781987 
-0.0350673023389808 
-0.0269664972413105 
-0.04852164493407633 
-0.04403460306304522 
-0.06110428565408316 
-0.04731902775479363 
-0.01942097228706019 
-0.01431528080896562 
-0.05019841484832452 
-0.05764444826024871 
0.04106205794080668 
0.03665740145343322 
-0.04637569401844807 
-0.01017772798878928 
0.08528222954394482 
0.04172374899727143 
-0.02396876485297404 
-0.02746972665597645 
-0.05279595294923095 
-0.04161140771345856 
-0.06517301399878304 
-0.04544868252713685 
-0.016127328277472 
-0.009684809856224748 
-0.05499628505022839 
-0.09025383954133465 
0.04450590421669011 
0.07201758330194279 
-0.02676562703822216 
-0.01030761756774993 
0.08032699134248983 
0.04191429619109033 
-0.04375989345273757 
-0.06004251752857474 
-0.03550134333871628 
-0.01596111718912171 
-0.05363194459171963 
-0.03379769017714859 
-0.02366826669904196 
-0.03167107365250922 
-0.07101518334565905 
-0.0965245325107477 
0.04039549882470817 
0.08308230445456229 
-0.01257430563169447 
-0.01525535723579545 
0.06340748161371179 
0.04250890549842561 
-0.03891497698181303 
-0.05498062013308031 
-0.02841729225089842 
-0.02324492844768161 
-0.06120044650923567 
-0.05185741168004963 
-0.03599899076280766 
-0.03769650933462335 
-0.05868415264517737 
-0.06493034302309088 
0.03929429918095118 
0.06060451653848475 
-0.02894491368793254 
-0.03840825295798526 
0.01959494282434706 
0.003186893923822747 
-0.0244127870872546 
-0.03054026354347148 
-0.03184586865209478 
-0.01966476704309027 
-0.05742943382867476 
-0.05976530572280085 
-0.03674062923885059 
-0.02774479285181692 
-0.05047889970167513 
-0.07152635909198958 
0.01448726714343661 
0.07243411607833974 
-0.02837940162015057 
-0.03468508788248793 
0.05135390470467845 
0.03078042856948358 
-0.04188403091094458 
-0.05363440725674348 
-0.0145818592837319 
0.0007460197783097857 
-0.07441513040555467 
-0.07301556713766398 
-0.0406746912672941 
-0.03022250585902886 
-0.0564625261704719 
-0.06678955421638977 
0.02324985940305122 
0.04072283534883661 
-0.04908057778729216 
-0.03208162751181153 
0.02647777523895614 
0.01271873670318092 
-0.02704112220622404 
-0.01484002519653758 
0.03437963459322409 
0.02909984792500949 
0.0314200018443937 
0.01736850259678223 
-0.006497672715830973 
0.002503953901018889 
0.02540157457648725 
0.01602084807588458 
-0.02805753015763137 
-0.01414299800685898 
0.0249589656723038 
-0.01760821333058996 
-0.06019275350628653 
0.01688522240119545 
0.0449770286061099 
-0.03335600111997297 
0.018547981757967 
0.02335755781837665 
0.01774885815208776 
-0.01866894443707437 
-0.02897281687618469 
0.009753101095195107 
0.04570821855515349 
0.03633662198340695 
-0.04392811444196604 
0.00993167003570305 
0.002265136596494519 
-0.06705796145357 
-0.04124469609339838 
0.03117308069446584 
0.05066233371243904 
-0.01152493028426655 
0.0192227787083537 
0.01643280202397144 
-0.0165295669011233 
-0.05155674766993805 
-0.03001456582676322 
-0.02314308466857398 
0.01164722531659064 
0.01095271201151821 
0.01346282396943612 
0.02745031313922976 
-0.03367189373828965 
-0.06186290080276093 
0.114139567744303 
-0.01954906999228994 
0.01760358955359168 
0.02303875035554751 
0.005553710229202215 
0.0108089354045906 
-0.02358711331327748 
-0.06266764664100263 
-0.04473015233786615 
-0.03961821397677382 
-0.003276717617353242 
-0.001940072667133528 
0.01954250246476376 
0.03163656773020535 
-0.02132097291356329 
-0.02384678092930213 
0.09918751129853148 
-0.04496849882454362 
0.009743261396018325 
0.03455117815147058 
-0.02151775594583437 
-0.0345482198754914 
-0.02116023814700107 
-0.01658622168480285 
-0.00556208682074438 
0.0157335190678297 
0.01769722136196992 
0.01336724402430871 
0.0002237040043359898 
-0.02688961006347284 
-0.06308712382580617 
0.006362081479244117 
0.01719789722169857 
0.007269832990525558 
0.0222713636680656 
0.08295270826855811 
-0.06768340398034821 
-0.07911629795997788 
-0.01373717976473511 
0.01285782738931936 
0.0003155790121286958 
0.01664378071873139 
0.0359769612039347 
0.01663391971451775 
-0.002221439309008012 
-0.02060694572515171 
-0.006478474172586717 
0.01984455185160184 
-0.04860165421962552 
0.03592672078594936 
0.08898210086806591 
0.1477293468695186 
-0.0702886603487087 
-0.06660058135305477 
-0.02533834251084194 
-0.03853952516974281 
-0.06246164963362513 
-0.00423988843560103 
0.04993849840114942 
-0.005781618660885262 
0.02347748036728159 
0.04186148980763368 
0.07006877258354713 
-0.02138884771714851 
-0.1277287196399976 
-0.002734899480887777 
0.1282504132914761 
0.1662401582506427 
-0.09758779381424167 
-0.02446883187779016 
0.02451151234109719 
-0.02941480880980556 
-0.0595513267398169 
-0.02701699863865185 
0.01057326285253634 
-0.04648677908511286 
-0.005002231026635488 
0.1162281269913791 
0.1054428687326154 
-0.02062900517567885 
-0.07531620415359415 
-0.00207268608963261 
0.07989391280352637 
0.0892292056531929 
-0.05134948884657237 
0.03896675681008401 
0.03702134426087337 
-0.03457862640382326 
-0.04049944423119532 
-0.03113639603352662 
-0.002988916416763661 
0.0008472131780237733 
-0.03441011162445527 
0.1631421397421406 
0.06834664647100883 
-0.04826475036024788 
-0.01468283109792958 
-0.0221975533546891 
-0.005174833249251307 
0.03743025910719631 
-0.0215579936780314 
0.06200435681033648 
0.06719273093525062 
0.006653115605150362 
-0.02259405834862098 
-0.01515527373833784 
0.01138034490834074 
-0.00890930040038318 
-0.05123545750807618 
0.1018816234339705 
0.06935644004348864 
0.01109113289855652 
0.02929286508779201 
-0.008815279961812651 
-0.03446893996206571 
0.02382553050090349 
-0.01439736594057302 
0.01715656760747081 
0.07645469429657111 
0.06547246256993689 
0.03766542650732539 
0.06476233582629187 
0.02873572668745018 
0.03113507652732282 
-0.05899543638552499 
-0.07609792584499961 
0.02361740731227796 
0.06538519853109207 
0.07542557338591679 
0.09560102487181552 
-0.05070086991090731 
-0.09046054797167898 
-0.08907707405267216 
-0.07088745361740628 
0.04542928278817357 
0.04864159280520361 
0.05340145882762949 
0.1216530922960139 
0.08199410513600761 
-0.002381276294874207 
-0.07693219170422323 
-0.1228121838311565 
-0.03929816839297299 
0.04240866994493373 
0.1768408753814883 
0.143685142759027 
-0.05285691260341543 
-0.1970471526360035 
-0.05040011672170584 
-0.06871081292968372 
-0.09689872290334191 
-0.1177833302601338 
-0.04619711154458151 
0.05167821124052129 
-0.02537950278172983 
-0.0744433010005484 
-0.01682563761731354 
-0.03118948797305591 
-0.1235243000344563 
-0.0002962116433493061 
0.2558605213341695 
0.120984063682847 
-0.148442237068508 
-0.1098507749177684 
0.0454274540351716 
-0.01293682659037763 
-0.1295949046647261 
-0.1494094978708892 
-0.03179845279295947 
-0.03591533802520332 
-0.0195371081047243 
0.08826351651865844 
0.03248655364469792 
0.07188269076084844 
-0.1220482439290593 
-0.05325022409592422 
0.1777281531526069 
0.03050047358175285 
-0.07807122037274562 
0.1068366359710852 
0.05719964357590585 
-0.03951332863890583 
-0.1308338941134017 
-0.1236896085009931 
-0.04084977165298734 
-0.01872299652938572 
0.03783356459390212 
0.1478489688494328 
0.02518178181268014 
0.06311163372129881 
-0.1047874631771861 
-0.06622395609451036 
0.1108288670673223 
0.05310812841171499 
0.02191083633439435 
0.1651017863071348 
0.1041983680882185 
0.03849416939098038 
-0.02640655712690934 
-0.08182875299476704 
-0.1112175828407334 
-0.03939375803402166 
-0.01512351653249384 
0.1627889297880843 
-0.1169826089044692 
-0.09446572208783295 
-0.1171266732654901 
0.01823185847446868 
0.07648046513612487 
0.01988070260537957 
-0.005891179302994152 
0.1029364253194508 
0.005013859570907843 
0.05607941744687199 
0.02091343173649011 
5.633316842236025e-005 
-0.01161707538542635 
-0.04654268253439382 
-0.01312479974033807 
0.04351220348550143 
-0.07859219396632865 
-0.02505367620757121 
-0.02499426027505591 
0.01119868427964466 
0.04982729419991747 
-0.01757644174467348 
-0.05994944211050791 
-0.03439902174170277 
0.003663742490700206 
0.03458940858956112 
0.03074946830129066 
0.01970057690128488 
0.0349223579219375 
-0.03227160599411622 
-0.02123396234112218 
0.02482919981587018 
-0.06794532515072894 
-0.01590506066307907 
0.004497232431084144 
-0.01889746014494593 
0.02215848961604434 
-0.0189091886396783 
-0.02783345911288884 
-0.007559064465951725 
-0.007098078793925976 
0.003860510067306134 
0.02972626114162158 
0.02950913351246636 
0.01196568356862908 
-0.03883547979775068 
-0.04853281485984645 
0.004393887887165781 
-0.09524321363870865 
-0.06402679683144659 
-0.005202426471584381 
0.01775000665064548 
0.03451972610590723 
0.00929556607892193 
-0.036197127881311 
-0.03395423732274323 
-0.02104129743470585 
-0.02612729235851274 
0.007678568768169096 
-0.0383446452589572 
-0.1592307206666004 
-0.08874946348429774 
-0.004028068258341429 
-0.006857664387580169 
-0.1112964530498805 
-0.07028423103627146 
0.0319339034811417 
0.1036820425736779 
0.1103868958891522 
0.1116666425106247 
0.03366504578382638 
-0.06440462984162597 
-0.0193010935568191 
-0.01137727451706463 
0.01775130541742729 
-0.03739738362771012 
-0.1054654929237091 
-0.03562121896230082 
0.02612189079066231 
-0.007330221105792104 
-0.09601735285896183 
-0.0414666850529271 
0.06615320113242988 
0.0553691677648703 
0.04056846385065709 
0.09702443716206793 
0.09390200533048281 
-0.06084926907950054 
-0.01131550384819351 
-0.005631107509253657 
0.002948924990326169 
0.002043867615013306 
0.01369544392913278 
0.02895801556480238 
-0.01362317871705494 
-0.04109684053173008 
-0.09048893853256367 
-0.03780912144747396 
0.0112813267188704 
0.02245200758845536 
0.03539314166957143 
0.05596382624461561 
-0.01347286623394154 
-0.1029051736361906 
0.0233221902679929 
0.01229415259450793 
-0.005370463401842149 
-0.01590866363200003 
-0.01600969148243329 
-0.006641554253048211 
-0.01865699831381831 
-0.007056271210632926 
-0.04795113184858302 
-0.03475112864276065 
-0.03981600189965867 
0.007487268199178762 
0.04761083031685341 
0.0393907715365981 
-0.06065402063903759 
-0.08845942262178844 
0.04866454116184665 
0.03144420524935115 
0.02046443799324599 
-0.004551679817808126 
-0.03647634033002133 
-0.008496829141971916 
0.01403800649546632 
0.02819045952190734 
0.01055745326870364 
-0.008336852279869708 
0.004274787198027689 
-0.006067070186651965 
-0.06502848688239846 
0.004797080260622769 
-0.01890405819265902 
-0.01728616992634758 
0.02765788657474293 
0.02472276659135467 
0.03186561050138196 
-0.02741618703176287 
-0.07969415327611223 
-0.003248549247512517 
0.0312767116334968 
0.02334315403919503 
0.02255758831997447 
0.02503945716041299 
0.05008839657716249 
-0.009374878794761028 
-0.06406387319320772 
0.02256551878462893 
0.04237182746163978 
0.01875203752853117 
0.01206976581527738 
0.01533138613024852 
0.01064608849251541 
0.003913439189863251 
-0.009983188312932941 
0.004860421330031848 
0.01853387773582906 
-0.003307955638545874 
0.07180225651437641 
0.05880119216330291 
-0.01167901471252633 
-0.04268115737337298 
-0.06880109310012046 
0.02720946029869684 
0.02551526261884233 
0.01710821872153784 
0.01278163927433134 
0.00818774439068253 
-0.0008060588955657833 
-0.001237518037864522 
-0.005090285162624938 
0.00628294558678294 
0.009733744876864769 
-0.005955943959257857 
0.01577095640529869 
0.03571978481063621 
-0.03767050996234211 
-0.05172156325949354 
0.032137297782932 
0.109666681252074 
0.02161724836280944 
-0.01525328897178516 
-0.003220174536406997 
-0.001916334772787641 
-0.02338246622009834 
-0.03293387350026013 
-0.006844844293810449 
-0.007807790105678734 
-0.005036581494628705 
-0.001765362445832658 
-0.0007233660672364679 
-0.01311034099474093 
-0.05576966594072676 
-0.05250490145078914 
0.1108595065855179 
0.09763213761471823 
0.03004832059991883 
-0.007259753550312512 
-0.01561404496466626 
-0.01962289912235581 
-0.03664725874218824 
-0.02016078480026046 
0.01795325022512858 
0.01595489688001311 
0.00290573024348474 
-0.01350090980444096 
-0.01401967008937017 
-0.02838506699294704 
-0.06071244972861085 
0.03070502383881826 
0.1117288195889564 
0.009367488999461977 
-0.00498509490147578 
-0.01502165060144037 
0.01077435958201919 
-0.03096895581834767 
-0.03674932435178859 
-0.006213053767011145 
0.01506962394059418 
0.02736150545744839 
0.008104979509326061 
0.00886947859076353 
0.02995330312240785 
-0.03067469954885798 
-0.07212087771886805 
0.02355069599917845 
0.04418889067355295 
0.01299592447017503 
0.01266411024204873 
0.008315077374477228 
0.04961677505863852 
-0.04519064535428381 
-0.02822481499500852 
-0.002427266027847989 
-0.02651158817054361 
-0.0111564428006377 
0.0404916784468074 
0.06575720388324907 
0.05587765288166972 
-0.06555924062884994 
-0.08858870304871663 
0.02328643966314687 
-0.05721176839109229 
0.03995127793223081 
0.1083691065381379 
0.06805255976559869 
-0.01250949867195172 
-0.01041284544196244 
0.02732305761314997 
0.01178610790574488 
-0.03509152779979642 
0.0478575937512742 
0.03527978860819195 
0.009779645115371556 
-0.05887833581842873 
-0.08143078184000502 
0.03386699040048079 
-0.01676610226949351 
-0.07978668602666394 
0.1310447309294262 
0.07287231235685998 
-0.005197855430795485 
-0.06229474025374487 
0.007892711159005444 
0.04546746159229007 
-0.01361378349795047 
0.02520617308621534 
0.04726252029867962 
-0.04009557220417069 
-0.0826291021479591 
-0.1055277050623537 
0.01424821808070135 
0.08445001015697337 
-0.03990270375029865 
0.07497292107137592 
0.1312061447240491 
-0.004780267144559145 
-0.09315638237865298 
-0.06539400001346726 
0.02475145410556932 
0.03160323572085846 
0.02047431048997048 
0.01560938932068207 
-0.0107379937737914 
-0.01629398891892945 
-0.05645531753959892 
-0.1450855599823356 
0.1434087067310804 
0.0536716398496905 
0.05734737671448733 
0.14387849789183 
0.02854633700599398 
-0.01052478615502664 
-0.106462065154154 
-0.04014606448415958 
0.0009251840133943535 
0.01941332995670295 
0.02714408372823094 
0.03016781786970491 
0.02097973825332152 
0.005039309839536772 
0.001259892871283545 
-0.1887965416020933 
0.03091228368442689 
0.04871656777221878 
0.1051653208828731 
0.1501309776279274 
0.1161787473611108 
0.05182178583988976 
-0.08838898943582281 
-0.05995807349059154 
-0.03428876582374204 
0.02927502022509518 
0.04146974492659412 
0.05461948327210153 
0.03899009407459146 
-0.03341911821175122 
-0.07279825266842517 
-0.1663314207786802 
-0.07847210426631278 
0.05979452530722595 
0.1278023175131735 
0.1825069351755571 
0.161854471308205 
0.05208585863837593 
-0.1006733914031582 
-0.03148459432997815 
0.01024025312246426 
0.1055981279065225 
0.08598468934065821 
0.07620445985790142 
0.05614000283905758 
-0.07196777673468004 
-0.1779706902420783 
-0.1152608239251416 
0.008489044874943418 
0.1354437885230257 
0.1114126019089554 
0.226797268809892 
0.2276822196929047 
-0.003852931629716569 
-0.3127707682709357 
0.03013792653942978 
-0.05752187058002042 
-0.05329408627551144 
-0.01069774294461579 
0.003281130477779865 
0.1003108324081927 
0.06960795794543345 
-0.0023447997457599 
-0.1076561240191254 
-0.06586139152885483 
-0.0687482195777438 
0.0288783709881139 
0.2122839030259019 
0.2491756756252586 
-0.01713820459417188 
-0.2830943107046176 
0.07924816342851251 
-0.07975082160893247 
-0.1079458176240305 
-0.1256228242053601 
-0.05088308619459161 
0.1798069834111505 
0.2074595887416744 
0.1647087998627241 
-0.0367893542074448 
-0.05717146913679937 
-0.1302084424207491 
-0.1228747681732916 
0.0879224111308381 
0.2428471666707225 
0.09244521520835687 
-0.03340848185203536 
0.09628158593293329 
-0.1149694987593287 
-0.1185965550410344 
-0.1140090742206213 
-0.03980294657089731 
0.1187480950999336 
0.1538590092414693 
0.1872603777260684 
-0.01239844660295227 
-0.06777265493413867 
-0.0789653608195367 
-0.1744389920065994 
0.01763322690844766 
0.2114332073439774 
0.1821484706527058 
0.1277983098536854 
-0.04036672918284116 
-0.09417781778724513 
0.02408403844400188 
-0.003054185124447042 
-0.07231820564956129 
-0.06098954695337213 
-0.05133101998601265 
-0.05485735926100559 
-0.1103764120625041 
-0.1351800608378566 
0.04898880474903446 
0.1236868801255922 
0.01897596421907846 
0.05281633264169912 
0.1816305172081331 
0.07307451402551311 
-0.03794701251402141 
-0.02139411735514268 
-0.008524389390640205 
-0.02829736597949014 
-0.0148708558463589 
0.05935154038280831 
0.08460317448162848 
0.01706133078673319 
-0.1055150195619356 
-0.06760725024020993 
-0.01473291189817407 
-0.02715313032599942 
-0.03660107888249244 
0.02536721036072356 
0.1252850452045717 
0.02320672376741534 
-0.02620326185127827 
-0.03138119714344107 
-0.04341014673454124 
-0.04040118964667746 
0.04776316254972404 
0.07840680078348004 
0.06573886106063046 
0.02540281145199861 
-0.09633628670178111 
-0.09386123989319026 
-0.1026855519687235 
-0.119091593902267 
0.006565924288998665 
0.05767370844805337 
0.06289262900697555 
0.005937430011843015 
-0.04281086627403126 
-0.01657188416831557 
0.06109314701411993 
0.01855077611647306 
0.04042523869567231 
0.05480224455939049 
0.0002660034304423683 
-0.02733386917267824 
-0.1322117415450483 
-0.1225435030366831 
-0.052144467757558 
-0.05057530528002595 
0.04590641313145358 
0.09603427168812433 
-0.02216441621544264 
-0.07758259840807613 
-0.05751063222790136 
-0.01621040594695251 
0.05031514532279716 
-0.01431571483235404 
-0.08088781474128207 
-0.03298987464041032 
-0.03275476900587897 
-0.06152965129267497 
-0.1396865389220834 
-0.06845121465157339 
-0.001579345391565336 
0.0111331730421785 
0.1372486042147827 
0.1764176850984767 
-0.02115575592761564 
-0.1243960212130622 
-0.03109061395872331 
-0.002728338576699437 
0.008932626646942329 
-0.06886772717148026 
-0.08429097592463991 
0.001033722059327163 
0.03320953994215145 
-0.02817609814068629 
-0.07855915740655557 
0.008113156914043639 
0.02017122899163178 
-0.01232046378454261 
0.06915377484723237 
0.1602381333418271 
0.06185162942021347 
-0.09550569473323317 
-0.0286150903446875 
-0.01604139479985657 
-0.01548799152852522 
-0.01117428156648849 
0.02961096575772508 
0.04616423186467873 
-0.02039053829621882 
-0.05862314849577573 
-0.04487259013762653 
-0.01536608229203914 
-0.05084578674357134 
-0.01397254833060884 
0.06994896721242289 
0.09903638557134642 
-0.02812514351506953 
-0.1074847934500681 
-0.04625891451762267 
-0.02187587167986634 
-0.00244476229367493 
0.002541264609854691 
0.02276963468875095 
0.03179647030545343 
-0.0003382941261576291 
-0.04350687219610935 
-0.04347094596769172 
-0.03245352597169225 
-0.03057641701162339 
-0.003725011011045159 
0.0811348638485186 
0.09434996854158823 
-0.04234607970310026 
-0.07957729414351916 
0.0241648499154831 
0.008175574366780411 
-0.001400311808559096 
-0.03514067740870144 
-0.02376698947736819 
0.007101774183739289 
0.02930350765268608 
0.03736466951025907 
0.04499483200547493 
0.02679061238858652 
-0.001678074785065428 
-0.0653238716821556 
-0.04724942738714277 
0.02442177992631309 
0.03962158329561981 
0.04099331335080081 
0.02707480056120857 
0.01028667378605174 
-0.01019844377789112 
-0.05847582001133425 
-0.04458344337573519 
0.0194489177930966 
0.03500748163889746 
0.03545008398351096 
0.04500644291969345 
0.02326163953383682 
0.002178067338735528 
-0.05844592783096993 
-0.0301222045455144 
0.0534390305604885 
0.05396866298598595 
0.04886139081237033 
0.02707419129567874 
0.01670190265669737 
0.02570875797110963 
0.004955740350740759 
-0.02425190910515963 
-0.02193726391809238 
0.01025466190828402 
0.05063868345505952 
0.026599184175949 
0.05289557766472547 
0.05801845575887999 
-0.003340406486983808 
-0.03983460758272307 
0.008125487778310453 
0.02530964339578023 
0.01703413573845745 
-0.008307001696240572 
0.002251026902325057 
0.01983677599251625 
0.005657814084201544 
-0.008194964204086819 
0.00796543153935983 
-0.004340135311830368 
0.007259318533141121 
-0.02128334613626301 
-0.04188150471122046 
-0.02897298875818273 
-0.04057086864990249 
0.05036793281648279 
0.1374648759773672 
0.01849433140505356 
-0.00473901824897401 
-0.03512681652831527 
-0.0291458273186667 
-0.03005154941115438 
-0.04081751519562463 
-0.01662934925760914 
0.01486742788002004 
0.002315647280465996 
-0.02172723702410377 
-0.04655694897885514 
-0.05824256345663845 
-0.05812894550147424 
-0.04255088221278144 
0.09444754368960001 
0.1318732163358277 
0.04450598802847644 
-0.02573660276535781 
-0.03688211472922067 
-0.04558076362607186 
-0.062076522740071 
-0.046824332246771 
0.01685863625071423 
0.01578126685307833 
0.01062726672424472 
-0.009165476324460698 
-0.04810321073162015 
-0.03840870754660675 
-0.05857514020569685 
-0.006509043106054014 
0.1129791481941141 
0.05910204516155378 
0.01169162464289709 
-0.0246067758307425 
-0.01326452035223833 
-0.0339180052509411 
-0.06382541096756031 
-0.04026282358652127 
-0.005587858371960685 
0.006762211358399701 
0.01297810096929984 
-0.007451191067479751 
-0.03747206985341731 
-0.03331746387386957 
-0.0568148427843311 
-0.006152304835529749 
0.06391096062148059 
0.05925588095425322 
0.008675085169254596 
-0.008707352465274132 
-0.04203488869656583 
-0.05670396557348505 
-0.02178955201451296 
0.001763011898069221 
0.01302254476365526 
0.03530349551664645 
0.04219398132076037 
-0.001284204142253956 
-0.08416869325306241 
-0.1028499266381892 
-0.09100452820143902 
-0.004782208741606901 
0.04592436207324912 
0.1082797390503311 
0.09612378796433456 
-0.01349503822287757 
-0.01951332386705627 
-0.03365035967700701 
-0.02238380076261533 
-0.01032265434679771 
0.05214457277375738 
0.0826281325475316 
0.05219276959647966 
0.01627553067663701 
-0.1088785335888472 
-0.1274807606634801 
-0.1250154835986864 
-0.06096381845368628 
0.05370202900450028 
0.1299975215436539 
0.03619658783696792 
-0.05737633918385973 
0.04609412989835351 
0.02577372923795731 
-0.01645037128668248 
0.009789864626596756 
0.09104121329856212 
0.009291882037811162 
-0.008064688034429101 
0.04249476429414916 
-0.1222344878847093 
-0.06692328075609479 
-0.1138955798554577 
-0.04345544625677597 
0.1093539452443575 
0.04591004159868089 
-0.100403863192593 
-0.1363130634466262 
0.05057514332467995 
0.03586010312580699 
0.0002675263602808903 
0.02423820868596139 
-0.004753505378915444 
-0.04139543614038338 
0.05453223342195332 
0.07179944129962426 
-0.08592637031020541 
0.07032903694107787 
-0.06451612522935016 
0.03124020982931469 
0.06842550285587228 
-0.09353169027481213 
-0.05688019893417123 
-0.08980275916779332 
-0.03936907325142319 
-0.0455276516444226 
-0.0117641368046693 
0.01188794383285105 
0.04234862390305023 
0.03110421152147405 
0.05781563502476904 
0.05677478831104564 
-0.1683106138985241 
-0.0533688029110384 
-0.01254022148988656 
0.05923583414430674 
0.02191971903684657 
0.01170621549025123 
0.1047477180100015 
-0.01040267514799372 
-0.09661427881345816 
-0.07373267219815399 
-0.0294647460829149 
0.002348257688434221 
0.01127024848459375 
-0.00683790075479517 
0.01828548611926364 
0.03565133192891841 
-0.2830788463082591 
-0.1470790167808981 
0.005237884604400835 
0.08187199503874619 
0.1706436400180524 
0.1911606505565396 
0.2143267843252548 
0.0001522142301870009 
-0.122820637492817 
-0.02826333864789369 
0.01858565401400647 
0.05925512676908403 
0.07914579319214767 
0.09246394062494548 
0.04906868816391046 
-0.08210543117669171 
-0.2427643371083822 
-0.04776764844684602 
0.04474371831983258 
0.1031992901380352 
0.1427418985308977 
0.2034908621303235 
0.1693903434697421 
-0.160049144617988 
-0.1892744144066355 
-0.02955935262005078 
0.03191970192977944 
0.1018831538880946 
0.135334292612758 
0.1644183191433197 
0.09888527520296482 
-0.1480941925520727 
-0.2700402749731014 
-0.04754246937193391 
0.03898405503552806 
0.1954521723038388 
0.2829358166733269 
0.2462463989443803 
0.09631025497873402 
-0.2934245203756108 
-0.2979613787832652 
-0.2052883713359961 
-0.001404661055778409 
0.1063086522689235 
0.172376338098791 
0.2480601458431249 
0.2663898330509849 
-0.07786668052843587 
-0.3631094921802592 
-0.152261701536872 
0.00877034360092236 
0.166236696048671 
0.3352773614090295 
0.2862236779556112 
0.1073493001407892 
-0.2866761794962646 
-0.2359552882319018 
-0.2366829400451918 
-0.01612045131949358 
0.1397053237850801 
0.1471744987841982 
0.0575946126426131 
0.08146720525041916 
-0.02174283103044967 
-0.2764768932095528 
-0.156165711460892 
0.06377858031812408 
0.1384069708818766 
0.17968096656183 
0.1037636998518483 
0.1118949996002707 
-0.1148915417767265 
-0.04552243795560381 
-0.05407995507041743 
0.001614991376653855 
0.0180598611896356 
-0.04547575692088158 
-0.1446279662171429 
-0.06700357288927236 
-0.02360056296009475 
-0.05628455138532697 
0.0360712588029455 
0.08895983214324854 
0.2126739392865118 
0.07251911428574259 
-0.07281469968955114 
0.06796142613655737 
-0.008141638289189589 
-0.03708235589665181 
-0.04917788481634545 
-0.05708550799663954 
-0.08555363252652441 
-0.0374284628152011 
0.02007523119839845 
0.03392481826482038 
-4.773380378109973e-005 
-0.06269023376069831 
-0.03061093630478984 
-0.09216003068234525 
-0.05064178766977613 
0.09267699069167462 
0.1499545155461885 
0.05338453125670602 
0.007237461285894337 
-0.03810120299457346 
-0.09151702386232061 
-0.1254099859457405 
-0.1004368701516401 
0.08796354459697976 
0.1531845751442864 
0.05526815209610234 
0.01700465530157654 
-0.1038343185704611 
-0.1615917372056169 
-0.1855922711401811 
-0.1405976714520034 
0.09484830170916372 
0.1589744989354047 
0.03123338778441367 
-0.02379204849424392 
-0.08661493461355659 
-0.1093883949744529 
-0.07169146581791588 
-0.05203069550730863 
0.1712910659434555 
0.2279986408877493 
0.01756195556116057 
-0.04698084274213712 
-0.1639677571535586 
-0.2090873957901773 
-0.1656250875983367 
-0.1271724314434556 
0.1686587756388614 
0.2473924192599171 
-0.02967320655315135 
-0.1117310631641564 
-0.08934177166370089 
-0.07663375750707738 
0.01494982610066251 
0.02349571404975489 
0.1044111038639914 
0.1225775477377922 
-0.03293952834853666 
-0.08239368743618888 
-0.174264980339588 
-0.1671736103590161 
-0.0775766844547173 
-0.0434564818353825 
0.2268264958583783 
0.3224975012995577 
-0.08674377993099393 
-0.1762354114813636 
-0.04758917730052118 
-0.05869613028799395 
-0.083983347085428 
-0.0409546352530004 
0.01668975154408118 
0.02337228899459518 
-0.04634279123414447 
-0.08429516609107857 
-0.03832365096908569 
0.005221357762646707 
-0.03216186320802943 
-0.0005154883834559928 
0.1684898523154638 
0.2242793160759551 
-0.04318758108475489 
-0.1587130176682262 
-0.07892889695998946 
-0.08320365075127188 
-0.03445828088921039 
0.01631153286840928 
0.06201031017292031 
0.05629176152952747 
-0.02379712674431622 
-0.05717875257539692 
-0.001632050961705675 
-0.02197139821945703 
-0.0540194783525119 
0.00686690681991197 
0.124126754345868 
0.1171788897309975 
-0.02299948066601769 
-0.08635983055871066 
-0.04509749260943059 
-0.03477442041889362 
-0.01335353913947822 
-0.003231215709560394 
0.03915470556512161 
0.05088940043598914 
0.01822641219744571 
-0.01765014484560374 
0.008422753037467642 
-0.007128340933268773 
-0.08449853280737117 
-0.06401800519218251 
0.1063535833533841 
0.1520501515827759 
0.02752834901795063 
-0.009448489738290811 
0.010644988133311 
-0.00299157856947745 
-0.04937701923138648 
-0.0282809636605721 
0.029690716940055 
0.05007226657046864 
0.03340699196985667 
0.01875898409973601 
0.05735242602136029 
0.006858570495128886 
-0.1197649388799832 
-0.08096375697573408 
0.07297042651332544 
0.1414294259438089 
0.06906444342470287 
0.0549567985834772 
0.0004393444938203591 
0.03024082922618409 
0.05279303765962283 
0.01598956316132134 
-0.03396590418990458 
-0.034510876712426 
0.001630244079516621 
0.0130965579771349 
-0.004194454232735107 
-0.01134000106976388 
0.06865777033761855 
0.02719891672418284 
-0.01792958188746328 
0.00199176784207287 
0.04296630326773718 
0.01412544677693437 
-0.02565362503795199 
-0.03068683732622557 
0.01098218444893379 
0.006096513994534527 
-0.002713947210571652 
0.01162227139290957 
0.01157306737386015 
0.00870365131634945 
-0.02314293743085618 
-0.07545011691652072 
-0.0409917712832214 
-0.01610514667357262 
0.07862947467512356 
0.1210413908911026 
0.02045398832211693 
0.006460961447157467 
-0.009111128716519179 
-0.03060294061628345 
-0.041960971489528 
-0.04247049643518758 
-0.003884112119648879 
0.03806295753272169 
0.016660420930163 
0.007115014357609291 
-0.02339549054993957 
-0.04010499076367878 
-0.05543338579395993 
-0.03259282637905949 
0.0770687791403197 
0.1245495851342519 
0.02697463678153343 
-0.009673517614837375 
-0.002886606746492711 
0.002445087038621186 
-0.01299064060840124 
-0.02462707475757177 
0.01463156050166783 
0.0303829133602031 
0.003263298253659594 
-0.005293284975113019 
-0.02496481369871248 
0.001982124433952584 
-0.01641354787704924 
-0.01914624369709893 
0.03341994042839746 
0.04866526809012003 
-0.00275264053830824 
-0.02433844672334106 
0.0005276264808360823 
0.01278702168825847 
-0.002737343242912661 
-0.02719362017061767 
-0.02193372797440989 
-0.0106748259449712 
-0.01415569457495958 
-0.007993872074354726 
-0.00992385657694516 
0.0130212758303526 
0.004452898569603843 
0.008760366942114597 
0.01419452344522764 
0.000916239655373655 
-0.02539724466267108 
-0.005825582516395493 
0.02047692657168569 
-0.01883327043573766 
-0.02415741851602881 
-0.02729834586202483 
-0.02974111790264807 
-0.008328973246412652 
0.02236361158140276 
0.02572222792189668 
0.04437842200598509 
-0.0211340918258302 
-0.07465868927851141 
-0.03131332658566848 
0.01286374087410532 
0.04644205215260693 
0.06418917473034523 
0.0824352352848563 
0.09361767142610401 
0.03126749691363639 
-0.1056356203184972 
-0.120915553295835 
-0.0160067251403357 
0.06891552873745405 
0.10101619268035 
0.1001390745912221 
0.1052656294857305 
0.03452216197689544 
-0.09216621024776267 
-0.09309330892787515 
-0.009880653050163826 
0.04165310612738166 
0.0746837446908422 
0.1112640704822913 
0.1830907901658727 
0.1596610124611959 
-0.006096644210791776 
-0.072556141823551 
0.02589781779883493 
0.07329338564543113 
0.1217815716348023 
0.159317464839895 
0.1285512660314745 
0.0848137249263226 
-0.08195330412599562 
-0.1587836042919332 
-0.1131509272667197 
-0.07592081951020432 
-0.0091001054217678 
0.08238491311501581 
0.15166389053821 
0.197246530285318 
0.08575496462451299 
-0.02709156374908883 
-0.05497038748537214 
-0.05555280927430516 
0.06832935430099904 
0.1104626666100793 
0.1919547705755683 
0.2012930853555033 
0.02629398264113044 
-0.07277492275263089 
-0.1187955959593296 
-0.1511627833454672 
-0.05857660359601066 
0.05801271411811654 
0.00942671496635727 
-0.001117459533962473 
0.001866384107887569 
-0.01744965481258974 
0.05253744403462021 
0.06383739168771853 
0.1236712783912749 
0.07271775047735121 
0.0131573193593058 
0.007793535235699146 
0.03429615481423816 
-0.06243000769258033 
-0.1132588533184881 
-0.1043405585782426 
0.01662481879943379 
0.03793755668050395 
-0.03935961965564735 
-0.02846447528307807 
-0.01615980686048237 
-0.01609491155471533 
-0.01311625945359203 
-0.03609667640878198 
0.0222457616990752 
0.05492648869314015 
-0.2471802198221241 
-0.1468945998786995 
-0.0207856135549298 
0.01156947798417036 
0.109147453384604 
0.08587665247318091 
0.1265260484968368 
0.1061312610165592 
-0.05535027570404148 
-0.01223946886462433 
0.008556314108090666 
0.008133945869522565 
-0.008122421408085239 
-0.03470712287740133 
-0.0170193006193827 
-0.001819401953528948 
-0.1878193783834909 
-0.1023904277747299 
-0.003622230045201394 
0.04305869192635198 
0.06842872227684572 
0.1289970690325497 
0.159733737208157 
0.05266371851996854 
-0.07057267892665715 
-0.03166221659159164 
-0.0003648016498153913 
0.05198002018100244 
0.01841632955426998 
0.0224324670418374 
0.07626016792733334 
0.01266252363289861 
-0.137492081768296 
-0.04219613116122022 
0.03546054890354235 
0.1327842013392146 
0.1042625454275493 
0.05228003293105587 
0.1007897562180189 
-0.04683345756773508 
-0.1136867687057824 
-0.06640642044068254 
0.02906746950573 
0.1212250087516973 
0.09729207854126382 
0.06841896759269807 
0.1303296455684849 
-0.003658274105671224 
-0.2350112242078497 
-0.04676646048884742 
0.1021349061949619 
0.2009587491097027 
0.2110234325252352 
0.05044063129851285 
0.05920389743873995 
-0.2050986887078929 
-0.04899280459652293 
-0.04422893654504186 
0.02590102144261475 
0.1097895553666253 
0.131679384022147 
0.06053103851564161 
0.02505707215110826 
-0.1144284819920843 
-0.265692200703102 
-0.01567710324631085 
0.1326993256983706 
0.263151264211508 
0.2123704482352617 
0.05440419476233779 
0.02104993460525324 
-0.3469496807567495 
-0.06804126227416048 
0.002955431838639733 
0.02755970182577993 
0.04365462671794332 
0.01949437467168532 
0.01284796577988336 
-0.01145903679511038 
-0.09883323583834278 
-0.1682007927513588 
0.1260952779608872 
0.1431019384975642 
0.1893572998889207 
0.1470376700251255 
-0.04075227915106713 
-0.05632360345034205 
-0.2087527957744873 
-0.05895128668458803 
-0.01945027077525596 
0.01128369797142731 
-0.03337338104285703 
-0.0211761358141123 
-0.01106162805403601 
-0.03475485678584497 
-0.03813505598255677 
-0.1652119689179171 
-0.02673161396951617 
0.06871307321296813 
0.07746486628600245 
0.1850789728456855 
0.09479437383711857 
-0.02850365177588108 
-0.05085156461993462 
-0.05262597274433902 
-0.1018518909966543 
-0.06008117867453317 
-0.005210328867286599 
0.1175601491122544 
0.1575227145154236 
0.0417647553722232 
-1.239009714674845e-006 
-0.1524069831335929 
-0.1984648523515789 
-0.1089017451985007 
-0.02864804468756418 
0.1741419998113901 
0.2282524172823339 
0.05328079063424963 
-0.01417677003515394 
-0.09240001664094499 
-0.1326843342933061 
-0.08417756380220511 
0.005106220831323911 
0.154614388760415 
0.234816357177884 
0.109851936709225 
-0.01123177026286399 
-0.1787288808168615 
-0.2336912526773266 
-0.1591924280736734 
-0.04547120078615352 
0.1805422411243415 
0.279244420593269 
0.08693320711905495 
-0.06047873959357111 
-0.09671253628275327 
-0.09524991976886001 
-0.03928093503173229 
0.02336227662503825 
0.08129408593282617 
0.1150195192657487 
0.03377174600939556 
-0.05164829168398524 
-0.216612502544177 
-0.1896180730170863 
-0.0807193531072786 
0.01874647897626418 
0.2213899494023778 
0.3007931486807737 
0.04856122295890646 
-0.1263934139455787 
-0.04683129640271062 
-0.02786549245475205 
-0.003819830159329849 
0.01383286074888766 
0.02566406582394454 
0.002927964452393526 
0.001376345369660975 
-0.01799356908444364 
-0.1447998343103759 
-0.09307473628616816 
0.003431306221671824 
0.03361400749762802 
0.1589254125674361 
0.1836028516638806 
0.004269284469949019 
-0.07185252463500141 
-0.01486826468086459 
-0.01738393224885209 
-0.001608050095238559 
0.04274296164216202 
0.05469674007171175 
0.03573942283280372 
0.01071301429061229 
-0.003753480156036478 
0.01546157304772318 
-0.07194740243709481 
-0.1034138268819203 
-0.007967937451175584 
0.1149414097993383 
0.1016986206858588 
-0.001057514460341214 
0.006131516567708176 
0.02226156249065719 
-0.04183299969845847 
-0.06473573211806701 
-0.01930262501979686 
0.01932057566272994 
0.03640627126435021 
0.03548029583572684 
0.03215247812770544 
0.0784784871653549 
-0.009692524411407381 
-0.1638059134039529 
-0.0226254820753504 
0.1349724419221084 
0.1048570397611469 
0.05670231637375495 
0.04990059920183525 
-0.008450067299234261 
0.01465734461252407 
0.03392503871782386 
0.0195815476297003 
-0.02914394602871837 
-0.0125654095673894 
0.008655444800518466 
0.03048276077612662 
-0.02153373501658978 
-0.01140249807533668 
0.0662418599366911 
0.03863103183156808 
-0.02979307354001648 
-0.06761316576402413 
-0.01216108508891478 
0.006332520240648067 
-0.0297655774063053 
-0.03491581777491935 
-0.003448691531839883 
0.03686299400310746 
0.03128065408900965 
0.02210632656090062 
-0.02912608227724189 
-0.01539839384255183 
-0.01433182367290471 
-0.07242792361592593 
-0.05519548229495127 
0.01773434945532744 
0.07646019315197361 
0.0703404549674312 
0.003448355255428887 
0.0209105105907777 
-0.0203675175173778 
-0.02841424927548111 
-0.0328851668330005 
-0.01942603897835427 
0.009521080959089569 
0.0225417307130432 
0.00452612785210684 
-0.02384254679804232 
-0.009188870933636111 
-0.01188838909678982 
-0.03112870421784888 
-0.02462641989088638 
0.049960833827323 
0.100566168377534 
0.03288633044311238 
0.0005913481376472196 
-0.00401451515055188 
0.008571159447130996 
0.009366923181791192 
-7.223913046059652e-005 
0.01117166076696388 
0.0257328897551282 
0.01959312335451599 
-0.01265981153018421 
-0.01094710339857509 
0.022999177022137 
0.01728925496294367 
-0.01471310871021136 
-0.005012141992189031 
0.03108910807279214 
0.01884234797775625 
-0.01042492043047053 
-0.0103341633949873 
0.01049120101219456 
0.02253774189655295 
0.01653902706130109 
-0.003706773239664426 
0.003989179109322557 
0.007393155646157465 
-0.01155871270876795 
0.004958793784658457 
0.02725029593789122 
0.03753474746005533 
0.03317828503021376 
-0.01544565715550124 
